{"layers_sizes": [784, 30, 10], "weights": [[[0.02457217348536197, 0.0011709825318908522, 0.028375346743631315, -0.029520579240741175, -0.007492584864673484, -0.019476817396468126, -0.009346561493480635, -0.025910325223098142, -0.00829471013440571, 0.014025081268908892, 0.006038739239965523, -0.02173537282682615, 0.0014768976400491168, -0.006716749922285703, 0.0038489028032078413, 0.02031710077891027, -0.025221961329377603, -0.0316538922893468, 0.028632881714266183, 0.018826087944473904, 0.01888803745025451, -0.014833227095974198, -0.027686080029224888, 0.013313180041385483, 0.04128139952636156, 0.020058291488298262, 0.009930975678615965, -0.0034149252683946876, 0.012588343738895662, -6.525044653569284e-05, -0.010071125221401309, 0.025619572356911514, -0.006954786396450864, 0.007826434842933556, 0.03713664060288765, -0.023417182071988885, -0.0027842291449346845, -0.0342218593379679, 0.013977402233544463, 0.0083525063386358, -0.029016287914031737, 0.017657469547287582, -0.005540782510068098, -0.060269523234685186, -0.021295452581042977, -0.016151930540868067, 0.006787207344157538, 0.0032086791317141664, 0.012453824764704058, -0.0009695294206321474, -0.027629630581630437, -0.006938485199006157, -0.016572759088701004, 0.021859530336586077, -0.02490569430880723, -0.00202810119885026, 0.023475192528071225, 0.044787929657485, -0.05096824689387234, -0.02806878100646803, -0.050851799744299146, 0.0005232241940303938, 0.012120810260962504, -0.05043539349108804, 0.007350185533352687, 0.03171737954783177, -0.08104032438261018, -0.06639461936365103, -0.06522320881396197, -0.05629626128834287, 0.016534089445458495, -0.05305871409617922, -0.038672764438349806, -0.04199319281983553, -0.11043914187897773, -0.08882656092299494, -0.09640708343576262, -0.08328527565403843, -0.024645036439806884, -0.012720510591635335, -0.004173840661320319, 0.02894783573691333, 0.03650987134439767, 0.002557527681694025, 0.020267378849763824, -0.028318485521594456, 0.018140724624053715, -0.004334029642512284, -0.027510372632496907, -0.004777822567911614, -0.025144171432731725, -0.053582452952777575, -0.030505714257111516, 0.00895810420157972, 0.07509768777761903, -0.04572022161336965, 0.04466318184113731, 0.13093337460695917, 0.13984584696409222, 0.08892926981344319, 0.07100582034784741, 0.02927135545220512, -0.07594293535897845, -0.06572889162249343, -0.11466794020979393, -0.14079049890993045, -0.1448322757829597, -0.05917417481453689, 0.015762287989552867, 0.020157208991982634, -0.020582450565965128, -0.018725893841434114, 0.005003465965366634, -0.002104439323385368, 0.015825152775758432, -0.032151848554475934, -0.03639498858167134, 0.019088287045856446, 0.04738587043835187, 0.08386068043740029, 0.04642841016795262, 0.1377609245497346, 0.076551934016848, 0.05463577871794719, 0.013617337331824544, 0.0019361978819411204, 0.11232378762434815, 0.08435234670164103, 0.03640403672095264, 0.16729183847537757, 0.09981558659045565, -0.01737117392724969, -0.03111375044469189, -0.07495168472091139, -0.04767126003442313, 0.029391156630541215, -0.0006876372550294626, 0.022624284814998504, -0.05120602173613994, -0.00949813631782378, 0.013177089175503892, 0.02920915125438159, 0.008707345297679643, -0.008760218562481171, -0.03720758978712735, 0.04406362708194284, 0.06597779315001348, 0.0690785192176328, 0.1689476743201853, 0.19231455122054708, 0.20529809857584705, 0.18966401088223517, -0.04885701397284249, -0.08456459133750682, -0.1482587141354155, -0.10082064523709638, 0.20488796437381368, 0.28712125307140285, 0.25066070219987396, 8.90702603715067e-05, 0.1821669523882985, 0.17831591039273464, 0.13568963107187976, 0.07767060150269726, 0.022282337906655757, 0.03194957638641322, -0.044959742557935174, 0.0007978696554610617, -0.00790992911598939, -0.02834003030886237, 0.007643586436492872, -0.03320325876885869, -0.00788254452111388, 0.10162187036057287, 0.1031474244050726, 0.056349238544975415, 0.05685210350740887, -0.09627063375585287, -0.028349594945665992, 0.05796739308886587, 0.04758587297228795, -0.25430708222537557, -0.02497338315896436, -0.2808676845044221, 0.05281740211007424, 0.046024648641085984, 0.15962268274057956, 0.23943555535357824, 0.2305515463133993, 0.14599070189368135, 0.011950251724240657, -0.04929871267870921, 0.050413137278560026, 0.001836651597643401, 0.050737244057061, 0.013037588739541701, -0.002543227798913114, 0.007534480249375268, 0.014861563513364186, -0.01590561611438726, -0.03091193434947018, 0.15993170928948353, 0.09262316214761665, -0.0007478376676171005, -0.04734749973614423, -0.1396462743696222, -0.10840518056694855, -0.011610180843976602, 0.07841904829102816, -0.05197530482417721, -0.039662757343167085, -0.2923558478024107, 0.21218776087083255, 0.2374298915878676, 0.18261762208407997, 0.09604849562071689, 0.14992129373469196, 0.032964590773718716, 0.0995194296581641, -0.024950242477394947, -0.06273320872030125, 0.0037141015519367633, 0.030072891317080557, 0.0026705674287318473, 0.025255645198840524, 0.023603776300940953, -5.286465325765653e-05, -0.03445624917106087, -0.010387275081727503, 0.12367979689884043, 0.09870786548947866, 0.02614838235568279, -0.01037997312570459, -0.009445143576834156, -0.012047052746582071, 0.13806034127579134, 0.09697754232605586, 0.018244516691796827, -0.16314298068254493, 0.016848111923812317, 0.19753805820359222, 0.33051862346585714, 0.19543009994118593, 0.20853854659402848, 0.07633578929881427, 0.002807252755524614, 0.14568509846295907, 0.13544196531523592, 0.025196826943109294, 0.15635156755893567, -0.024234587104190134, 0.025423687859296006, 0.020261478436528802, -0.0005486661972766656, -0.027673670270135196, 0.002509726947650867, 0.07365209483239028, 0.14534128237883073, 0.03608100122919698, 0.0811415463863193, -0.060696546261788546, 0.1360398763227773, 0.11830788895435418, 0.23203988814412277, 0.29970825353184083, 0.12136559319953272, -0.05079736213018236, -0.05127600913337932, 0.11113021182578701, 0.21627288740016573, 0.3618640277985864, 0.15546915855027646, 0.11568588811424255, 0.21686288626896355, 0.29254272797487274, 0.2622147415719214, 0.27084080479205896, 0.29290021313940384, 0.06475477587275541, -0.013743519669472156, -0.02876671275473708, 0.04184635780986225, 0.03719331283876788, 0.02480338724317521, -0.008803609494752472, 0.09541134125097092, 0.1720160225870975, 0.14150529774531267, 0.21936260002858052, 0.20663447108167635, 0.1588533738728942, 0.27003102457840594, 0.2823377575113305, 0.45341302811526335, 0.12200952089832551, -0.07748885728790897, -0.0566574985025408, 0.32915871342531766, 0.22883051727400405, 0.06948071134161583, 0.1704870225160079, 0.13747624789909732, 0.09140324663569126, 0.24840688137518818, 0.3763579545505371, 0.462690576703287, 0.15041001744791666, 0.018344527017087643, -0.0349970466161265, 0.018096946618291233, -0.03292613347888383, -0.03570639625057724, -0.06057073593979125, -0.13019927144151391, 0.03699395665649587, 0.044383139397234615, 0.05665954556277357, 0.06117569681225297, -0.036547366181724654, 0.048517368793319526, 0.1396636435801245, -0.1962422873131751, -0.32459621657762666, -0.35373664274967914, -0.039917700599159, 0.09828769653797499, 0.007140726600713855, -0.10545623628069084, -0.21067535616135408, -0.1364546532360026, -0.14718023743598163, -0.18494296473055072, 0.029793513538422016, 0.2358802677639021, 0.1381765669690517, -0.01551442104128295, 0.06030116304359303, 0.007762590495193292, 0.025800835772358855, -0.07993644280186087, -0.20062023174480667, -0.16985661788183623, -0.20201548249660392, -0.09119953729737525, 0.06191078123366891, -0.05533000984274462, 0.09925888061324366, 0.07568751415821175, -0.1892273962590987, -0.47444297512326666, -0.5120390234632574, -0.5753644862138935, -0.4429798143155209, -0.28231464558833413, -0.3001363350540159, -0.4146557426316062, -0.414867486427768, -0.4676497821759161, -0.45107151535685525, -0.4898744170659324, -0.3217066813983266, 0.049557613679809404, 0.07924607794686085, -0.0070236251301234775, -0.026315174542045218, 0.011016794656633407, 0.02573550481986123, 0.006264721782464585, -0.13765877615834787, -0.14945604068748583, -0.2553307270446227, -0.20163420670193044, -0.16632535671083715, 0.04640447539521243, 0.1442572672816582, -0.11734763747433843, -0.43132511598951556, -0.295286254590347, -0.4221030811671297, -0.7393823874918491, -0.43639604673243965, -0.2280699675686694, -0.3167926960806557, -0.5559219288340289, -0.5951545325255035, -0.604181250038889, -0.4350701959071611, -0.3945210761659715, -0.21531149768428068, -0.0004183721529769333, -0.0012562809998028226, -0.006996215079978393, -0.015986601242233535, 0.02283781411235511, -0.0011767606790833412, -0.006011869829345688, 0.06781795536423356, -0.08013771166106837, -0.005377716236832782, 0.06803277799767446, 0.03261386487778084, 0.06250431216759962, -0.0025638759753591647, -0.5235123558018396, -0.6490660755811187, -0.5123455336974775, -0.45494505751394115, -0.28296064726203496, -0.18339778790934358, -0.29148242630065796, -0.4912112350820919, -0.7011808765155549, -0.5654681730451233, -0.49149616601694796, -0.27540403939694114, -0.11320814359182829, -0.010088787989088972, -0.019215366712807706, 0.031039732957523304, 0.04285526888742438, 0.04558422553892599, -0.020656211454927038, 0.01414999156064268, 0.08473434416767578, 0.24224262047470813, 0.2003378939494007, 0.19372965859150038, 0.16703742487173906, 0.0006273129831031329, -0.08373515154356131, -0.2690605584512774, -0.5841133389979372, -0.40032522740866244, -0.35807655355643914, -0.5436927075184692, -0.31869498834563964, -0.27800111892614776, -0.20033130502908292, -0.1381560169357267, -0.22483159871054467, -0.1400283516855307, 0.06385321765796906, 0.08069665725473982, 0.03689497640788263, 0.15967604817819353, 0.10362551775780246, 0.1282945373581215, 0.015821023034107064, 0.005674664712130985, 0.017513851240488102, -0.024407789996749946, 0.15178685068301417, 0.35221320245548865, 0.35185407512235406, 0.3298801688889148, 0.030704320475155426, -0.07974066763984622, -0.3048387411896785, -0.32213121935398925, -0.3962369642986912, -0.16689724464971614, -0.20463167554380868, -0.5477984143026775, -0.1814215955539428, -0.18311816960476693, 0.07302878966714216, 0.23363862187336193, 0.41241895469201456, 0.3596696327468996, 0.5872424707751295, 0.5404681294935682, 0.3707436978685714, 0.34233899526348693, 0.20155846083831402, 0.1531972700867124, 0.059646817242930514, 0.01394226287525211, -0.0105905883454378, 0.020545335967320857, 0.16732041628987446, 0.42941329964564, 0.5430913512187252, 0.4422983186583428, 0.12124603243916193, 0.07905106057334542, 0.0037089551377525137, -0.08228672528941473, -0.09715043265515702, -0.09770190722745388, -0.3478250187148229, -0.3127827663369507, 0.22254474483603132, 0.1360729284919457, 0.08972668225324236, 0.24660633441246563, 0.20451619499893436, 0.14945076537648816, 0.30851861537235103, 0.39559477940042326, 0.4430569550488472, 0.45419259599884637, 0.195102227800004, 0.12512702169309678, 0.040238624264535734, 0.029996959758038764, -0.02116837425460063, -0.018929160089206157, 0.09610422891911405, 0.3862702163388169, 0.6427280360205757, 0.5236311793730393, 0.37801467456164745, 0.3731780605265189, 0.10118060429329673, -0.17895869667541606, -0.14319151452038686, -0.029231500744052775, -0.09311566632578866, 0.05505297988751853, 0.09873198692314808, 0.06270366068646002, 0.18203930354246148, 0.019012443245235454, 0.14591640242656026, 0.01477366227257194, 0.2425497071553284, 0.4694786035235125, 0.5839335427164829, 0.5642962871302353, 0.18111706368952749, 0.005947360582985508, 0.002149136473402739, -0.015790588719896023, 0.003788517372907348, -0.011081726081528534, 0.10093645770281684, 0.25184833242464905, 0.36413227950560656, 0.3896956485096943, 0.3665856863964479, 0.3990409009970788, 0.31651736185746115, 0.06882217144114802, 0.06239208529553665, -0.0406840097295661, 0.15982458009251804, 0.13647331264209062, 0.03460622667916249, -0.008987759210906669, -0.0035737094165695124, 0.047664402328538864, 0.06860779858954463, 0.12386374768444859, 0.23916445849301537, 0.44234179896207554, 0.5207276092744461, 0.40084540747989394, 0.1356833650561172, 0.019895593846710698, 0.0037202543870714496, 0.021781962972615355, 0.0548704034479409, -0.019328922821972846, 0.07786825563236108, 0.1389106147916295, 0.1804263958778644, 0.17945988516904007, 0.22848186373550672, 0.39867649010545775, 0.4524311152568742, 0.3425702786652121, 0.2746995465545584, 0.002716973565756104, -0.047791716002703294, -0.14947225314696894, -0.13435282327091144, 0.05322937613315291, 0.033644640677177366, 0.17234375536434168, 0.21413023936518397, 0.03766521421832809, 0.12417458703723623, 0.32980718925261165, 0.40795828683130625, 0.29646824772301467, 0.06753855235408152, -0.009961810973886341, -0.008592781324338584, -0.020955359741285054, 0.023308524258480616, -0.0010010167395906146, 0.03457710939959445, 0.09113037747129801, 0.009536548621472301, -0.052583299510946944, 0.049347399664569275, 0.05927044705255803, 0.01632390287480939, 0.044086729352004424, 0.1545372898259751, 0.06079333085567807, -0.1022463614710855, -0.07582940092421911, 0.031262851513722864, 0.09223881247252641, 0.23022487376446182, 0.15300694627258754, 0.3695718928434009, 0.17799312202361928, 0.2705301848625328, 0.313976131899726, 0.4279522053366835, 0.17387413544034702, 0.04539441475698147, -0.004192341713738359, 0.02187066004744923, 0.021533641149250025, -0.00207556835999636, -0.015006739724132745, -0.03440628112313202, 0.02828783376389596, -0.001111486180271802, -0.09907029914286915, -0.09630783686258679, 0.08883888065825016, 0.10611327849603867, -0.16491055987986228, 0.06595259539686543, 0.17662191283272397, 0.023767541692286547, -0.030466374051226177, -0.09288836920237818, -0.1044575856143807, 0.1131668266650694, 0.30380485894032316, 0.3079517813122146, 0.3858832941279457, 0.35908207707768797, 0.35263407891462156, 0.24764282533760354, 0.04978978253042672, 0.02964516789738271, 0.01877408288050543, 0.009852156284594018, 0.0006485956132364645, -0.032567435448887364, 0.02343019514571539, -0.059740325925364955, -0.007275097673737374, -0.011740796939331357, -0.008126470453228713, -0.1158810853698573, -0.1918533474088748, 0.005645041765712607, -0.0395880027115128, 0.1589308307294542, -0.010830349880364867, -0.13848553175440534, -0.018145708129595796, -0.09789296767500075, -0.08306118843858136, -0.02024884593989689, 0.010022374834229839, 0.15009380661814115, 0.3617319081827517, 0.22533309257065343, 0.21061512016273523, 0.07937312629583843, -0.0016570038761888682, 0.040737698911253686, -0.03667936682286624, 0.03833943783973743, 0.0005741714193400842, -0.02004190847675931, 0.015104721705457694, -0.01817833066006322, -0.00774542382694772, 0.003998374804248586, -0.019557491894901476, -0.023236243601989164, -0.01751413753435682, -0.04751091256726522, -0.07511393852551718, -0.09928905357405991, -0.10751688777662306, 0.024483887659028047, -0.02710412854481952, -0.06639608613245239, -0.08085102152784002, 0.1382889536440429, 0.08237637838395234, -0.06771706907242188, 0.07590897942677609, -0.007990099543634976, 0.05427147188503077, -0.02232494136679887, 0.04666071080919546, 0.07611627665338494, 0.06867618778057137, -0.012118208166949808, 0.017583786624269435, -0.047867846739039356, 0.009407400823184, -0.0066966724210917785, 0.017330209102366146, -0.001757455076562507, -0.13259824270367251, -0.05572245675910214, -0.010868337206349603, 0.08505190728299378, 0.02921575996276198, 0.110930881919448, 0.17162345376969865, 0.19323686749856558, 0.14952441197816305, 0.23313351573554342, 0.04738800401943913, -0.020377214581967208, -0.059811137702054526, -0.1647261962856871, -0.12387287452600378, -0.09646441503810603, 0.004025111507599694, 0.03839419992275541, -0.01497111807177153, -0.015340970036881937, -0.0014459813703838016, -0.03300608218641027, -0.0022787629781947727, 0.016059367734605746, -0.03427482198664389, 0.0010125776437872997, -0.02001221879660766, 0.011161848178952815, -0.024218960570281656, -0.02572133599124238, 0.056402892797433234, 0.04832010451290957, -0.0070502470329281775, 0.08675610027020343, 0.14921367976574712, 0.1397475586930269, 0.09208660712796496, 0.12566296566402846, 0.04582513740029667, -0.081741477686595, -0.0769296719186157, -0.028555346997706222, -0.10082337159526547, -0.08489923103530839, -0.010991116360401775, 0.005723354388805244, -0.040562201825027684, 0.0023370913371216938, 0.024890172197943275, 0.003868422641123137, -0.019824755453373706, 0.015633726721636085, 0.0010779933716174193, 0.021178779297137865, -0.007835330618414911, -0.01254748430528282, -0.0020247885671843026, -0.010434598507286173, -0.006883410774453996, 0.019545834614064724, 0.017688674528504797, 0.039387135561667744, -0.021323898125440163, 0.025376686097212792, -0.0293467408338764, 0.004548981385237226, -0.02567802737086915, -0.024775680863407958, -0.01124894031436829, -0.0019717882049899048, 0.016212116229361223, -0.0023111769721360824, -0.04271277807723555, -0.01014650455302229, -0.028471666233070667, 0.011820289222932738, 0.0036740308761873826, -0.03688492593700651], [0.011338581268715448, -0.01289758698815258, -0.0114101812654283, 0.02072622458087813, -0.03263031386900431, 0.04648538992129746, 0.02535496246704985, 0.0014765174514674714, -0.026356523926543782, 0.00020564399423118798, -0.0022031471573146708, 0.002367070486346875, 0.0021122461042692303, 0.008973534065382198, -0.008897752365597021, -0.026330334479591284, 0.005788306106144695, -0.009317390234331369, 0.022681186008814032, -0.010715819134680574, -0.01334753472349595, -0.023665662647230502, -0.018228390425461205, 0.021757639269146044, -0.006746367069836254, 0.0016945956055811943, -0.0009399656345111885, -0.017618125540325304, 0.00622823392441499, -0.018968129618750273, 0.006022283477020669, -0.01479976307766277, 0.06070077612048012, -0.0016720337484055138, -0.013487488202654234, 0.00815814000240845, 0.015811592156238053, -0.0076139729509427465, 0.02339898412134756, -0.024100921444111988, 0.03894013921296121, 0.02648310764366244, 0.0038300609612107895, 0.026272497740125536, -0.04743118414357245, 0.0047377643836706155, 0.005776444807382611, 0.02260013227891096, -0.012148172937493491, -0.001979627187958751, -0.01004115027447005, -0.025712300989977326, -0.02751767539989773, -0.007954424941296332, 0.013080267988550932, 0.011953906126000413, 0.003839599614921522, -0.02391481836114803, 0.007350165904672946, -0.04115610399821031, -0.012050705587372215, 0.003608171996897075, -0.03312682401270737, 0.015599586989187475, 0.012892375834725944, -0.023555088368430323, 0.02865880337095713, 0.038223887949668904, 0.07716429019017744, 0.10651826728226127, 0.12113021794232144, 0.11752010380900149, 0.0859821877414761, 0.07204349253096251, 0.16759672829826708, 0.10358832601290996, 0.10626382468604785, 0.0970020310725936, 0.030769530413490134, 0.055319240826646195, -0.0006542666625784914, 0.012277333971877401, 0.01444093000115571, 0.0074266345146056, -0.0048849829083393815, -0.02304789882910743, -0.01846408195942251, -0.035522455947371176, -0.013592737856791107, -0.002049886991626138, -0.023572848079591226, 0.006534811645328674, -0.03512831389890588, -0.0795159261061866, -0.05334015279517166, -0.09517707420321792, -0.1267992587942295, -0.14112735189495074, -0.10019434914774578, -0.10735779197737766, -0.1920195773244624, -0.09259904165580231, 0.11785699030314233, 0.20185083230156164, 0.15962547259488177, 0.11282828192512523, 0.14136579141131167, 0.07712568061256087, 0.014694434640100184, -0.010808434242283742, -0.011609589879013803, 0.011951107971693685, -0.015986803248476154, 0.022040499497939244, 0.017177992480037724, 0.01883717562598242, -0.027298518904745394, -0.06251620988679053, -0.052499071664894786, -0.10361267449031117, -0.17904604713517405, -0.30757371260617344, -0.342975836696986, -0.4666358361871976, -0.4837465321154509, -0.34246110991579676, -0.35642111404188287, -0.37944076454372394, -0.2628333180132515, -0.17268933698899253, -0.07762165261926096, 0.08779712948091357, 0.09739743340489496, 0.15175841827040554, 0.292456206655967, 0.20101018476466426, 0.012927872775518677, 0.018173279410471248, -0.003723006538942606, -0.003784764699207492, -0.0005969341559323487, -0.02082055598021144, 0.005138303649753908, -0.04183382165146448, -0.05463552856335413, -0.13444124656842923, -0.21923498629194943, -0.35428290834047277, -0.3747879153648993, -0.338604240438566, -0.4708074591212193, -0.6331984576436739, -0.4231552599640308, -0.36523925673280544, -0.31127646289928446, -0.1644479520989244, -0.2282221267051219, -0.10648247183285552, -0.13847312305653187, -0.0887986993354285, 0.0645236572201182, 0.11253254831736101, 0.3301125195185004, 0.36280920261024946, 0.1846381790142951, 0.017838163098398103, -0.05511652543180385, -0.01544010108550916, -0.004956658580870394, -0.011539450653010343, -0.0008725747966987279, -0.04099365035766323, -0.12317230260440554, -0.13763207954597417, -0.364433930581589, -0.42634470258755897, -0.4465829693476379, -0.36355558563416873, -0.26251085751148495, -0.22988291966759916, -0.15395399534498266, -0.41891691393891084, -0.08891393303145011, -0.16272784896075304, -0.24985277368685074, -0.2325259632198234, -0.24954960569471327, 0.023916487736265077, 0.05102141871886815, -0.03556890064614843, 0.16462476717874885, 0.279108371451676, 0.2575561985987031, 0.05938966159762536, 0.014451156795660738, 0.005064322526007171, -0.01670952914325137, -0.02525284347942584, 0.008617065628470685, -0.07673404654285107, -0.08915410216694038, -0.11263917408071185, -0.35620373769154545, -0.31318202888539065, -0.3503070662490078, -0.011531105358712245, 0.03561382222784894, -0.11972092965283787, -0.10664702329143749, -0.262302587191502, 0.11455809416864804, -0.06382985601660378, -0.15394776445524927, -0.12971296061582288, -0.07252981114011468, -0.003934955948189945, 0.1292910098876144, 0.04849213126101892, 0.17853559552527107, 0.34730454899176705, 0.2597958401782343, 0.0840759802244426, 0.008140219577358545, -0.00941236127981086, -0.05092810066849633, -0.02285936876876571, -0.005326930544030227, -0.0023841081774722, -0.054215788958495034, -0.10975763312752145, -0.24913043856195524, -0.17484110816345488, -0.23980049030150355, -0.15351831519196582, -0.2242945215700253, -0.3443789973289033, -0.1945776698043063, 0.010726353250873238, 0.10956948862492435, -0.23499143318923402, -0.36875218731922627, -0.03197320188334868, -0.020253165079027077, -0.03031145188756347, -0.12867245826775375, -0.07922461288974915, 0.0597084083597546, 0.23604869987405075, 0.3744366760675586, 0.24220747551302357, 0.03484786672953954, -0.0244804186321133, -0.0006715440791682109, -0.004971434868254797, 0.021273572252924002, -0.02016437886228416, -0.09052385029421993, -0.16806442717355746, -0.20491001609322523, -0.23803689129140193, -0.07657361945941389, -0.12373814064104442, -0.16752947035259586, -0.07912091059676224, -0.19222427164000255, -0.07332720827414989, -0.07162100082067117, -0.1855421506158203, -0.1777776624120246, -0.1953130180947703, -0.11908117065948255, -0.05202413378991522, -0.2685299723768693, -0.14806798814907082, -0.09350527950001539, 0.009048581066009646, 0.3294271868460721, 0.16759792288867825, 0.011658653534406918, -0.010527282980488889, -0.03017047764270766, 0.03780577637680848, 0.002338503229543438, -0.004449609817302697, -0.006721326361036079, -0.1148796725197356, -0.21928710941330387, -0.16786873893011497, 0.05181018969251435, 0.1594969863703049, 0.21699350581021487, 0.1656154281505265, 0.20123823468161067, 0.1438152526730345, -0.0009107173891643903, 0.08182199245857932, -0.14669628093624937, -0.2437630780800318, -0.21654707519914648, -0.16487351571065295, -0.3097224911301436, -0.2605888926458158, -0.1881424413572833, -0.09347416050434944, 0.24176439369781516, 0.19423370033263104, 0.037952801023023716, -0.029486536826550346, 0.0533054828488145, -0.016416508069189484, 0.022925122005666952, 0.06398809284528136, 0.042634593466011846, -0.08143650747864684, -0.1800947062872804, -0.0486951643738963, 0.10429694524441319, 0.22231766247540813, 0.391847146485851, 0.36204720723639516, 0.5103303659604307, 0.3285074619970569, 0.08968029676036902, 0.07911653259864572, 0.10650728944406739, -0.1299033075920313, -0.11242202386524522, -0.23070372882951806, -0.385071701086218, -0.23976746318226108, -0.2827500658444473, -0.17564094843543, -0.044320088658050115, 0.009894734969810744, 0.004700496196250808, 0.0077174298763045355, -0.017078702047934942, 0.00258275721081315, 0.014513295749597184, 0.026187148988025932, 0.011357714280023525, -0.13115934900851897, 0.007312651334582112, 0.10403712025575704, 0.10928050145970561, 0.12557196006925322, 0.32649854677967177, 0.608907837224408, 0.49788098256008007, 0.4472341905270867, 0.1776565487693401, 0.2458546513457703, 0.12525766992909249, -0.12199012781067958, -0.06952982029864921, -0.27414339617414885, -0.21204256702614152, -0.23297982489696428, -0.2876657216295974, -0.23532213867277593, -0.2181671099126318, -0.108856839519336, -0.030974663094960036, 0.011921331131107604, 0.012162796231849115, -0.0032715566258495394, 0.0015528813065667814, 0.03975973562800485, 0.08079068190363153, 0.06968174574225447, 0.022800106860331633, 0.0112461986829386, 0.02594650438427483, 0.18150179120714918, 0.284991165844301, 0.3583202832919162, 0.28838152968908454, 0.2063438693558968, 0.27647905401866507, 0.31243008391792515, 0.04066970912107045, -0.011646692052375418, -0.11676331956957937, 0.009588892532768687, 0.09063975913704869, -0.06342416713307898, -0.1858724552768796, -0.2780818499918352, -0.2441737881934091, -0.08797619165644342, -0.010897693162318405, -0.00045385542211099484, 0.00026196054029658486, -0.015132751362458525, 0.03370839321069309, 0.01873929852055711, -0.023719486276056582, 0.023886944421861362, -0.05094798880600714, -0.22898725137291331, 0.12900529691160387, 0.2369542083198815, 0.27747904936838075, 0.3656470930407229, 0.24825981046372297, 0.09972572343390049, 0.32873705008705584, 0.1748233777083053, 0.0890269424001221, -0.022402560051986653, -0.10284249960402533, 0.0988792110347672, 0.1913427692454646, 0.12233017229308127, 0.030792025970504483, -0.1271987597810814, -0.17220998734532203, -0.10913912836746435, -0.10744750999541684, 0.017695271744204665, 0.012809714938925581, -0.015837995403250812, 0.028767420862830007, -0.03066437685598913, -0.1163483910423411, -0.21104412431944952, -0.19980210322261827, -0.17452274461017392, -0.034721465759239976, 0.009883257397225342, 0.17699965435998713, 0.24494049416220745, 0.09409680562728114, 0.2794043821579101, 0.42382980636351736, -0.044644276665804235, -0.03475293492858866, -0.09368221610431421, 0.004452358939043968, 0.05940919803577241, 0.08110919371802386, 0.19083771444821343, -0.049898792852698846, -0.21782582704855183, -0.34792028735359226, -0.2040003295695262, -0.15452008446866428, 0.02371282159270408, -0.015801396568671845, 0.00840184997521191, 0.01019773693585595, -0.09073730387961165, -0.14142062648876472, -0.22011691820805154, -0.33836621200007516, -0.3534035232177145, -0.15667433785249335, -0.1988672082598015, -0.09752113036990023, -0.09163104881158032, -0.21821033992515596, 0.16325356552006437, 0.3099776351877849, -0.00017202514333537332, -0.13406177510635328, -0.2514813776098897, -0.2789610103779304, -0.011978760058453048, -0.10619458644964798, -0.0633044527806793, -0.1927917076140362, -0.3865963827384419, -0.3833841617907704, -0.2935763968655894, -0.17785012878656548, -0.014784832612712871, 0.006370979635215419, 0.01167301765300434, -0.02583271676856051, -0.1103449683220337, -0.10063940860517397, -0.10452315903427806, -0.274746006720071, -0.3752727328795173, -0.13887020997944763, -0.012991323385123849, 0.1297182535740682, 0.023216383021347035, -0.06623289510420595, 0.20633949616441302, 0.2535075872152562, -0.13299120576353582, -0.193360195542031, -0.15901197224238717, 0.012088520656512964, -0.02693854621569926, -0.03358591995665403, -0.18647250824639441, -0.3753596799730441, -0.44582453593737376, -0.33915730756396806, -0.16883894936335617, -0.08335889273209982, -0.0007603590641295098, -0.0027005178596047346, 0.036900428840919174, -0.00600405872553112, -0.13273785843036695, -0.13969770018030703, -0.12887794917695417, -0.20449697008238185, -0.29433134452324355, -0.13943492936477253, -0.009649689604179761, -0.13240342400229643, -0.024584756163771253, 0.15291418967450757, 0.24674582507074638, 0.08421290755292098, -0.1660033203026483, -0.06781293862499875, 0.023033350269915553, 0.03785359659940763, 0.006870385978462129, 0.000715672177955741, -0.3032733084024441, -0.6290334137324429, -0.4098073381726474, -0.3028039503356375, -0.07960466355082363, -0.015114378121436187, -0.022490587859478505, 0.0017938506688698049, -0.009744048945726478, -0.03641479963668083, -0.11060130707335965, -0.2682348144056198, -0.28667678993036905, -0.13905119447411676, -0.09520661342804632, -0.08154428373729017, -0.04725877902815782, 0.001186078707251552, 0.23143937421066765, 0.18139627211194653, 0.11359684790405705, -0.07410690855925606, -0.03370040030721362, -0.025842664068549376, -0.20598614045405747, -0.1629262328126754, -0.04448548773918956, -0.1679866304033888, -0.4629463299066464, -0.6843478087009645, -0.3653141349962124, -0.20293442386555477, -0.06650335780655219, -0.03266346892734382, 0.02114232065765066, -0.010736430035571998, -0.02271632222033812, 0.007647667942597602, -0.13688951346963232, -0.2508940851046583, -0.283575873199845, -0.09357318331542969, -0.07010635550025149, -0.1373900638466769, -0.14758764119734832, -0.017283941916762927, 0.12976979188832022, 0.20735639480761414, -0.07108202217321866, 0.04054929171871711, 0.11845374127095906, 0.08324793867400405, -0.041805267194785736, -0.051776652250281184, -0.03392137506822081, -0.2565794152152498, -0.4260038850157256, -0.37723099774856206, -0.285399134999578, -0.10357862607659721, -0.03301257200172709, -0.04007492257869378, 0.044867444636160915, 0.021171795788764953, -0.044407131208051225, -0.03244303832834257, -0.07176365778231829, -0.2128633511879037, -0.20631188010132542, -0.203893775518053, -0.050889634885104874, -0.0014726557978091703, 0.029117759443323107, 0.08812505150372671, 0.07808428000624881, 0.020954083764038716, -0.06628297897976516, 0.04383737691104197, -0.044040512836403145, -0.1147090985232102, 0.0843525357576885, 0.12654917217330824, -0.057424552649919275, -0.07086905695359581, -0.27305679196344185, -0.2063135500472559, -0.24419554631785864, -0.04635565211957302, -0.03464791931034549, 0.005353213236404544, 0.0044912901123684, -0.01860091679612676, -0.012219747929375536, 0.0047602155463064314, -0.0040925201731498665, -0.13474808759362417, -0.09789762054395808, -0.20221265833259516, -0.11398081598624411, 0.030792514953104266, 0.014156468115263056, -0.022364630328781002, -0.10229619016190501, -0.09277416830272804, -0.07140450917330833, -0.05404254623775681, 0.06687229510711329, 0.03831444350060509, 0.16878796358716397, 0.20215537060278094, 0.170892822818559, -0.04505570168197286, -0.17087105220191726, -0.1302552175626681, -0.09326763618897803, -0.015307798291824328, -0.0009019868174745514, -0.019617024170237567, 0.021983024160107865, 4.404331971637822e-05, -0.01810968784786938, -0.006849506458707378, -0.10585752879563123, -0.08563818915605496, 0.03846106546899684, -0.017206662180035488, -0.07382525319469864, 0.03780214127111503, 0.14160440279452394, 0.059059566594213006, 0.03657261173980148, 0.12149948491855132, 0.011263306718227825, 0.10907562380077, 0.0705529033443019, 0.08921877503128033, 0.15540359865540782, 0.03991722852187834, 0.046797533258898, -0.028168844197616432, -0.17038825463670895, -0.13155409429466924, 0.004376259469030252, -0.03698611133993559, -0.01651497495380154, 0.02044502881333073, 0.015243640855471743, -0.008992778109616314, -0.0032070484767608653, -0.007595020979757182, -0.0848323475257721, -0.0778394798084476, -0.0022469983308480786, -0.04934946629609317, -0.08418392432960903, 0.0062923597482344145, 0.15861297256697113, 0.046541144324761335, 0.05033850877428651, 0.0317389808753561, 0.028777160756017852, -0.037186375869600524, 0.022138694614503764, -0.08230872356466469, -0.07470282505222536, 0.06767886233941656, 0.01877730520892925, -0.015682099357105767, -0.0467612357714073, -0.04759975784751938, -0.0023403860977503055, -0.05145468620499592, -0.03646645906520602, 0.0034537070378274125, 0.005234335428267637, -0.005815596104835433, -0.04989649269208356, 0.03196162988323891, 0.018697290635136823, -0.005759521853422214, -0.03617951275463758, -0.10879130954979177, -0.14394012543232743, -0.10180139313429476, -0.04658707324396389, -0.11055623538237837, -0.09087218849073075, -0.12025035344134898, -0.1409478571644598, -0.12863826763406572, -0.13582948173612822, -0.22691209488458006, -0.09116179162569359, -0.04478558348872061, -0.06791584821860898, 0.011496401778854559, 0.03906738762886116, 0.05061065836003193, 0.02440685886907213, 0.019186352095428308, -0.014219466965831276, 0.007840986512715621, -0.009704796805462148, 0.015590467527897141, 0.008288799869470809, 0.013469279927597453, 0.00867628064814463, -0.012288309802474532, 0.01530989280299931, -0.019099240821523193, 0.01159919692809673, 0.0049987507668426065, 0.04487205592075732, -0.08713118214481377, -0.07199318979173276, -0.028513949817239304, -0.011945578542371929, -0.06349970606194799, -0.053658256546932646, -0.051063903247523544, -0.08063779849625961, -0.08772046646812107, -0.04659811211796859, 0.01840436095986934, 0.014578496190620077, -0.015578470780073201, 0.03717433591759743, 0.03290222459899985, -0.0034624400911903762, 0.028647339264267553, 0.005183273940347326, -0.025022616615370002, -0.017772981108946522, -0.02128689612266919, -0.013778528145652226, 0.04305163835885221, -0.019084386773682346, -0.012023039633359477, 0.0048247569485362594, 0.045682650182266, -0.021542098291333096, 0.04755163798151251, -0.04456094774006905, -0.019170618910823, 0.006020997419482758, -0.022250911601157275, 0.034059865595857795, -0.009533288893247107, -0.03606962496705739, 0.009441587751780374, 0.03368844898285089, 0.038342077696758764, 0.02283925952220362, -0.017488943006309418, -0.02240824650023902, 0.0055033279639672686, 0.00524526516297069, 0.019350081308005064, 0.013753443700721964], [-0.0065458438031717366, -0.002076664498124966, -0.003888516683353623, 0.0024928357319881737, 0.02844648741161749, -0.0006730335853036934, -0.021351050006982793, 0.0073582161909111436, -0.0021270456768268413, 0.013374916953109574, 0.0008571631134555724, 0.029370795539595932, 0.0017749536637155746, 0.005496399996576613, 0.0068419921608562665, 0.000932473498343302, -0.03092755098531826, -0.019708982381581797, -0.02559612339538941, 0.011857315666439806, -0.0057560578858323885, -0.007856133324415957, -0.020491695759052894, 0.008667835445444859, -0.009611387186216014, -0.0003213416732457886, -0.007484540956461081, 0.02660605036965649, -0.01073062554545694, -0.009160628806555727, 0.0023806970845180065, -0.011208772662037455, -0.029579262914350393, -0.01852328325851918, -0.03288317272229587, 0.037876535080084595, -0.0022629434870329404, 0.006940014431396644, 0.04471543032970656, -0.004003391171449546, 0.0070195744570892855, 0.009839867719751948, -0.026121041195694406, -0.03590845849079216, -0.03599839432641899, -0.019988464777820535, 0.02305700131926769, 0.0051064232469499845, -0.013077203458182262, 0.02161044520133643, 0.012977467499684094, 0.017469886204960226, 0.0245705468007117, 0.018762982884807124, 0.0474792596351496, -0.025685838996817763, 0.009307866452176175, 0.017791057081723575, -0.016104604178439307, 0.016390531330443655, -0.046243511375782184, 0.01175811453558662, 0.006815615876886231, 0.0006738258604739842, -0.012463802851658597, -0.00273168082877854, 0.0003534711350345591, 0.042946590543324316, 0.036047234592755835, -0.008665601810301259, -0.023909445634133403, -0.051999746910825796, -0.036391394738931174, 0.022462841271262086, -0.019601738599551315, 0.03152442477208435, 0.00037490225213841766, -0.013747408252321718, 0.013693054746031353, 0.027287891845197608, 0.041713819615899435, 0.018610516751732833, -0.022044042394164305, -0.003541789961301579, -0.004651473885619652, 0.020992333584890294, 0.005195829451913867, -0.0013720900257413312, 0.01889901456488555, 0.02780437568423872, 0.0309522926223428, 0.05667366234917691, 0.1149177613668281, 0.14494771039912366, 0.15510592484830776, 0.274273068179351, 0.21846972643226673, 0.1144245076012883, 0.034666147725572874, 0.05334151244671492, 0.09480209216777667, 0.0948216034234852, 0.0030980439795918586, 0.021172495279170044, 0.06932060107237355, 0.0855923309970957, -0.01462002478529477, -0.025092783627275458, -0.01171834512462436, -0.030549151922664004, 0.01602741852555259, 0.02578672229862816, -0.007548814538993471, 0.029237822315780943, 0.057702181383443074, 0.017806136836485312, -0.01241067359331764, 0.08615507496903729, 0.15200146775663018, 0.22386675071275228, 0.2627318919017654, 0.22915894682425847, 0.248830277833907, 0.410089065073377, 0.27613231576214603, 0.203553458707212, 0.04605241918384041, 0.11931693188824968, -0.03622100551395821, -0.08390307424776448, 0.03818671516647276, -0.09966907726096487, -0.1706379826071856, -0.14710377563172852, -0.08510536747550901, -0.12676843210405223, 0.03144352821253633, -0.01786132002844228, 0.003988245227649783, 0.03346075945880089, -0.021040540952331214, -0.021695319635643914, 0.007588383294510369, 0.02334533032376592, 0.05205979663704841, 0.15813342673502306, 0.23668899242389613, 0.20412340508851573, 0.14127686745221432, 0.06337509204181642, 0.24208684357794258, 0.1543733314108999, 0.003613263934987892, -0.1643406230544873, -0.16296333261382331, -0.016603805896851107, 0.07428622881920126, -0.11791020702906155, -0.11219629541275138, -0.24743556851640194, -0.3655004514333888, -0.330422338122803, -0.29110899796479195, -0.23736109999826266, -0.1047724663061356, 0.023984379598980917, -0.044612464515590575, -0.013962736158433263, -0.024185310055415226, 0.01802356581874833, 0.008707244965249552, 0.03875342002346424, 0.14389449286036066, 0.24480669775105784, 0.316140383400366, 0.1794002231144801, 0.11526574764737736, 0.2601062406517827, 0.2635698540878711, 0.22613227161397254, -0.08084524528134054, 0.06182383470563568, -0.16110021210709244, -0.1161981172096083, 0.022325056938500166, -0.12195626068743345, -0.07625871842700413, -0.1768335944556332, -0.3071054985165925, -0.20804451478439384, -0.20510936107245595, -0.18122898838922732, -0.10565845955688273, 0.02333555735412299, -0.0067339467732178806, 0.015841445990836846, -0.024143065415934643, -0.0078106086412847555, -0.011378624810057546, 0.10267321865328542, 0.1989158243649538, 0.27718504533382504, 0.29772603661497526, 0.22044137989032406, 0.22225546557131756, 0.1720874268758022, -0.04446482265617539, 0.0036792940547329413, -0.040193973345400265, 0.1541156396735464, 0.039712268919495516, 0.015241922973229493, -0.05917117164457682, -0.1286029021320552, -0.14803551696462255, -0.12799238317859324, -0.17308038789777447, -0.24632472051330861, -0.28117041184949587, -0.1570410979024438, -0.07441022326167937, 0.008862836278492874, 0.02247855176439585, 0.009617503541597974, 0.015849668546038642, 0.01625377582514702, 0.031384759521453094, 0.11801936629844711, 0.1945765464818664, 0.2089136415675744, 0.23132827264207687, 0.24341733695142714, 0.1947743347593241, 0.14387768886987545, -0.01821717734731102, -0.35178797451213384, -0.2912250579913785, -0.0794524980950913, 0.07753912561186219, 0.07710578526439602, 0.11104885006322346, -0.09106546621155756, -0.06748774175777704, -0.09700556193751407, 0.11158320424209499, -0.020220183519041486, -0.011522956276848052, -0.06429598811403538, -0.04249052392829233, -0.026582815835821078, -0.012144096896694155, 0.01306870098392881, 0.02827445709173317, 0.03016770490191616, 0.029725305485051444, 0.07307238510064712, 0.22126783762965535, 0.20792152591535898, 0.2465212580553385, 0.34414051346237073, 0.23832974171977825, 0.08737235825233604, 0.0651125269678318, -0.4458216665414791, -0.19017218987946438, -0.20950780832522095, -0.04810028494843007, 0.18352522070261118, 0.3740435298819744, 0.4777563186943082, 0.5100486784560824, 0.5239886976386642, 0.47138057932871796, 0.21913567509762313, 0.2075694675733482, 0.11753170375986782, -0.07385481492651928, -0.023582856725131423, 0.009498021916269347, 0.022577580072281302, 0.0357577001732206, -0.0018606991953881455, -0.0033431431352019527, 0.1512628102811551, 0.13879266113288946, 0.2377838053733663, 0.22851020734284153, 0.3679885162626221, 0.30658876563372905, 0.12403657224382801, -0.09004879969458784, -0.15417611373223475, -0.31137727400171245, -0.24374300103722785, -0.19405051932249098, -0.02819879161140203, 0.41424791347959655, 0.6351931251154691, 0.6867297221389934, 0.4797163238297339, 0.5045872988617299, 0.30297896397166374, 0.29019579913645477, 0.1390582158364462, 0.1089112151773399, -0.016933293446292064, 0.02391031303943823, 0.006185689420740947, 0.005011365317347206, 0.01587518668956013, -0.005166891976586635, 0.06476478199979345, 0.08376535314778155, 0.0868744665211216, 0.11290236895841292, 0.23685563274802007, 0.3977438611331286, 0.22033730142956184, 0.04483536464612258, 0.09571919519445023, -0.16719456857593037, -0.26742197214299124, -0.2869798469921648, -0.24378491543404535, -0.1905004572508494, 0.3261379786637773, 0.2427132462979096, 0.19006353587374128, 0.27771315772124805, 0.24494911892688542, 0.22140744409722524, 0.14327123572671085, 0.11755641198980489, -0.008927772264781081, 0.0015233390298011625, 0.0372640530091798, 0.014850785501184651, 0.01348323732436656, -0.028785056974543054, 0.012914535807933484, 0.04437235865977764, 0.07504130049095223, 0.03152717435035849, 0.12476583846376826, 0.1449839280311261, 0.16993013106853233, 0.2437386358774268, 0.09411822006738227, -0.07476234820990164, -0.16331542307375202, -0.13350064997202857, -0.34558326356994473, -0.27848451437310834, -0.2154379810149999, 0.004007314809999131, 0.1605582265949238, 0.09208253231482891, 0.048824916880550635, 0.25484589983972494, 0.19393959197928523, 0.21068816380481903, 0.038760729045086775, 0.009294760252117033, 0.013281941898667595, 0.027912002182500704, 0.03445438133172661, 0.04856446458017787, -0.012185455412389185, -0.005296017082049457, 0.045879392219019266, 0.050303456028162954, 0.07497330000041046, 0.025553942692885655, 0.1317492012680519, 0.3012833288180282, 0.18189070228203066, 0.009247728122154226, 0.003268446882967316, -0.07827249030263299, -0.5028522308275308, -0.23679152732380704, -0.01783808185516661, 0.2347980412190975, 0.1296462857367066, 0.07286664614083153, 0.22405057816363202, 0.2657632050308706, 0.3068848153528101, 0.21453188149690086, 0.05758239807846873, 0.04121082841483924, 0.019183265441280233, -0.04626897836964693, 0.014426475948944346, 0.007866125266283105, -0.04056433028558116, 0.05201682705156271, 0.07578838091104537, 0.11811257439472574, 0.14848544180926299, 0.03817151097146385, 0.08841933734071407, 0.059315101873334976, 0.1645203491566434, 0.11096318416398902, 0.022784972880182396, -0.23541966935994973, -0.4012809531644152, -0.2645569979230136, 0.28756063691695904, 0.6244047255124361, 0.33644750078327035, 0.20547255149936536, 0.440189066439338, 0.3564756141224659, 0.3236013995734364, 0.1874534939938446, 0.06548412361203924, 0.032057953389173326, -0.014976219084380555, 0.0041940831935368995, 0.04612313091254466, -0.024894644674701413, 0.004707662165814705, 0.0256105117304342, 0.11179312905872384, 0.14733110824014006, 0.025147943855530777, -0.12656108756554812, 0.0628621376517191, 0.09714483014240315, 0.004171873018433227, -0.009565804988297384, -0.2514452988235649, -0.44351842781480805, -0.1601906412940372, -0.017370226089678076, 0.5147890550047834, 0.6051080535971674, 0.4625965921835184, 0.45765002551909284, 0.47543565134154675, 0.40540684300883134, 0.2773349891391913, 0.12228891855771475, 0.06958089797577478, -0.004248827717567496, 0.0010652228337395017, -0.032360693496400396, 0.002018638474861832, 0.01667442615313356, 0.10622256354758762, 0.13761058374598617, 0.14064475002774413, 0.13852404877569827, -0.01107565170482828, -0.14140783820179853, 0.020631684072373174, -0.07645141326214937, -0.11943270589877675, -0.08486844142324783, -0.11816155889668951, -0.2586614843177015, -0.09460680277829996, 0.20101123412118047, 0.5767670355183383, 0.48489232498221185, 0.49860382816115056, 0.3028648780703773, 0.35636180794137007, 0.35243226312926745, 0.18259444747935277, 0.10986204015773043, 0.023119663690440388, 0.004827596737730772, -0.01105640129335693, 0.021771441851506593, 0.015312590241599882, 0.0018155962248627671, 0.10701908327082447, 0.1601620188345611, 0.09876766778598565, 0.09689397755702907, 0.06313565965921367, -0.007732652906487891, -0.05389940784573359, -0.2466500105528368, -0.20836387264891024, -0.3595290508223056, -0.1853100434196369, -0.08737478624209404, 0.2469230861485379, 0.5905558683554448, 0.5588825891540782, 0.2866297466267512, 0.2703032376550706, 0.017277653715892374, 0.028050970558209508, 0.09965550525047479, 0.06662393511977928, -0.05430473209842738, -0.022753639295759347, 0.006660628278018198, 0.025793792544524238, -0.0039340644571820675, -0.0342452745872022, 0.02298325518167071, 0.14379015689631838, 0.11159572493703784, 0.20567031984247117, 0.13660964615364138, 0.04011639922743887, 0.08898668698810781, -0.21054767727922702, -0.2544771632761296, -0.22146426731195407, -0.27602065275898496, -0.1516102153246936, 0.07557740462057479, 0.45673635564046133, 0.395924668424225, 0.26946643191959685, 0.1360944447425619, 0.03863182728962764, -0.19269541010345703, -0.1949862295070557, -0.04188876537999228, -0.09919101520411147, -0.09407915273301434, -0.045621484143199546, -0.004226176854566857, -0.00037745399694524655, -0.017000898464299197, -0.01580117725934648, 0.0016912986930117276, 0.11576517747763124, 0.10319573859176914, 0.1995554788396283, 0.10370661788591817, 0.04320378001104194, 0.0279744716472054, -0.25966156082122044, -0.2024053790410809, -0.27734353724891797, -0.22460402552170264, -0.0030046915369767685, 0.15144118667268924, 0.07412107847492377, -0.05830321475973209, 0.04350322871740512, 0.04910371379009553, -0.07578644701148675, -0.21889493863740167, -0.14876714245465128, -0.16037672229426989, -0.1310480038259068, -0.12629679294019738, -0.04213905404649126, -0.005828386985034378, 0.021536362573249188, 0.01915226665261965, 0.016892149252382065, 0.02903012182862349, 0.057521223379661715, 0.08956354325675576, 0.002096658584642943, -0.09356361987050252, -0.006332945656548646, -0.15670670342142418, 0.00676002147400201, -0.05670547119460736, -0.12836650976855296, -0.11110738791863778, -0.01941324081960694, 0.02924143184811884, -0.0978957529631563, -0.10704936374258442, -0.16514634685109292, -0.08140447870689685, -0.2665317644603066, -0.2685015642628516, -0.20032547404879644, -0.12870824731129202, -0.1060042114056577, -0.12203828843333919, 0.009338632567943775, 0.01332856909118256, -0.03604309604787488, 0.06203556847311421, 0.06015205108190405, 0.024673813385871365, 0.04055103950062994, -0.014833031634930174, -0.127677224158501, -0.11234781953452035, -0.08607612885204086, -0.13234380873159163, -0.2810732871310486, -0.028310849592529917, -0.016583369723881594, -0.10301993853102875, -0.16353347718892583, -0.09586410566163173, -0.10268863366345651, -0.10023749295730179, -0.22032733743698302, -0.11871059284796888, -0.19148310051829873, -0.245511915726814, -0.2266351548991676, -0.07719634170186783, -0.1283269882463735, -0.10559348091964454, 0.015633244389863805, 0.0012859280222470972, -0.007400159835687281, -0.0066406788132546005, 0.02518509883812202, 0.024445555457802044, 0.011643715234338518, 0.02888709291912685, -0.17565493471335777, -0.0777893920803273, -0.061757504453123085, -0.051287286017602435, -0.03923961361647485, 0.07822338343212218, 0.033145402701180326, -0.18603667871562787, -0.2594793901707937, -0.2221475132944513, -0.01299682306754648, -0.10155137982728815, -0.12595797442275847, -0.2000092735483894, -0.1901589445282874, -0.2706303417365652, -0.168586550834095, -0.03162952872445796, -0.061536435650662386, -0.03923645946223528, 0.002402912392052633, 0.0047820831411986035, 0.022014529261868, 0.006910190242092262, 0.012252032927088758, -0.016194137732099812, 0.0974740136254139, 0.12932131494296592, 0.012752834328720835, 0.02220949738118493, 0.14842637653636903, 0.1242669887051418, 0.0707869313581221, 0.09524319668867902, 0.22511101011497808, -0.1229486758553494, 0.013095266706076318, -0.06829670899848542, -0.05188449048096672, -0.11964666644075275, 0.05554979113924681, 0.0004913089071143181, -0.19608860099716124, -0.1319911997107894, -0.0007329627754906978, 0.0008149035785474898, -0.041669502000349905, 0.03938145018205281, 0.00585501459048347, -0.0016406062215606435, -0.0163238605117607, 0.028216329870359706, 0.011216574377914032, 0.0007138173394053847, 0.10385652791049269, 0.16915869301450348, 0.16943389199427364, 0.244481679833922, 0.23331255600456277, 0.13093705954762921, 0.01636627970343524, 0.11686919992843216, 0.13528977540670306, 0.057631468867028995, 0.02139949293116238, 0.07852917244519454, 0.08541941797970035, 0.2501564099707452, 0.30424293124153445, -0.008348151156361715, 0.018851177084124877, 0.1069346660645065, 0.05651755859499907, 0.04075326336277411, -0.024688816686716228, -0.012618621315580102, 0.013260658503703863, 0.007889324081218141, 0.0454841794649812, 0.02672769210177557, -0.025963283363609046, 0.014486366286217783, 0.012624274182460895, 0.07452507320790439, 0.1043131253520712, 0.14737741896922013, 0.13725314073015818, 0.20827074467625084, 0.161869507150447, 0.14037108429223968, 0.07725107721298534, 0.16133861615047632, 0.21347282956698369, 0.17441818212460977, 0.26179904110390684, 0.3403324161003805, 0.1790329506537755, 0.09633912893038774, 0.19672064019111427, 0.07451387370849111, 0.03732834680288793, 0.04729612064554078, -8.789391456166995e-05, -0.029453495821745956, -0.03869614529656038, -0.022288308582130562, -0.007122122509097311, 0.03338539001189134, -0.013195793861428516, 0.019741256516874525, -0.013199011245410772, 0.00664630631673668, 0.013174072989713563, 0.01470714461539759, 0.008246689196627235, 0.03291134245003037, -0.008970730132150696, 0.059729805571780224, 0.062109439263636976, 0.07825304684339449, 0.06934570948433846, 0.09928236892141187, 0.08244498687287526, 0.01618773754869025, 0.010701310407078455, 0.001693478940648307, 0.017876604574893606, 0.008884738127608281, -0.01338919441502948, 0.021927029892835286, -0.03986644835425005, 0.01041957238152374, -0.004487800052257832, 0.02705426826472985, -0.02614523404517174, 0.03367292025409965, 0.027291382605663505, 0.01812392380342829, 0.015306778554335406, 0.013690110254340762, -0.04147836413760755, -0.01651070398261206, -0.027566605971143035, 0.01141635667623402, 0.00890586283652524, -0.016105710854141843, -0.013347382237835268, 0.010972716016863527, 0.01880766570736824, -0.0037270338126354466, 0.007891899616721716, -0.01324943944610094, 0.0019438410820258635, -0.002316943981598508, -0.00736276979000964, 0.015078701545220528, 0.016444715684938504, 0.0154888753269267, 0.034607621810478995, 0.008473787621246225, -0.040097427355160774, 0.010293548581808854, 0.02229498377613118], [-0.003466048123146664, -0.006886149583977006, -0.011797930817682314, 0.025408062737692555, 0.013878778672572449, -0.024250005751174197, -0.00018702766911811292, 0.0024899262733696923, -0.005039243952430352, 0.01916004163026707, -0.03593698679122103, 0.015075149746304776, 0.007776979543369437, -0.009658529024746527, -0.004711722325086441, -0.007636985590116889, -0.0002488165356821279, -0.03532213075895466, -0.024568775422339272, 0.0031649551338198954, 0.016010222855056964, -0.007445646581335977, 0.012510679214320121, -0.011736271725612485, -0.02516949534019289, 0.029137428910969862, 0.017540602219739642, 0.023593805167382867, 0.024641903032908724, -0.004093929862038135, 0.019510788794847623, 0.016722486482546834, 0.01378033061469074, 0.008862225040992414, -0.003611621672582655, 0.014677988951406663, -0.003901565600679226, 0.007103698330226293, 0.02539020131051352, 0.0004933683511687119, -0.03246294224126855, 0.0007437498426847084, -0.023113860687211624, -0.09418996268507301, 0.02415095222580038, -0.0021775392006006342, -0.013117976572016467, 0.005779639504687158, -0.019773412665192346, 0.021300675984676182, -0.013411242172367022, -0.0031512578960420437, 0.014864132230600536, 0.0050302569113624025, -0.009867190399035383, 0.013135498886150662, 0.0033029100966433093, 0.0023922918326483894, 0.03449528903513337, -0.002002369470471944, -0.023403807791644027, 0.029447769978254847, 0.0017665013948389035, 0.003757194745806445, 0.020842712604837103, 0.004689588565321081, 0.05962860985166617, 0.006373934130331597, -0.006956695952505485, -0.052547023167320635, -0.03591022129857131, -0.1107830920276338, -0.15301093219652215, -0.06218060283997118, -0.06343471017501578, -0.029764663952420573, -0.018447559115020024, -0.0034990553310371964, -0.00646161733497586, 0.02756560142670822, -0.01272244767524571, 0.00024240500729746784, 0.019247888879901868, 0.004815495081807156, -0.020798411148857224, -0.030637795384575606, 0.012047174064009913, 0.006231770339191646, 0.01896438046426217, 0.0372080278898849, 0.02911924066499457, 0.017985407144342002, 0.06107091928795572, 0.19463030611569346, 0.2679790618688464, 0.2598222511134774, 0.09487955569249673, 0.1108188183612522, 0.08661126282963444, -0.030618417099813375, -0.11001460403364514, -0.0989074267600576, -0.13039638966667358, -0.04463710403563659, -0.013691166268801732, 0.056752424777631906, 0.006467631645247921, -0.007440362227533208, -0.027722199361786923, -0.023770367763441644, 0.015075171550232818, 0.008611174637669784, 0.059140417717687715, 0.016779386221358293, -0.0041293980951133775, 0.009819121731162788, 0.013326692299360626, 0.03487961082162247, 0.08045106239488878, 0.09644220440125367, 0.16640619053007796, 0.23917785785415208, 0.32331680291107345, 0.2916708481815853, 0.2906981704596254, 0.2191007702793655, 0.0959753196354561, 0.011342936464152738, 0.08236417092759564, 0.055409684495461485, 0.0014831824604168752, 0.0726330166297517, 0.08308823587615644, 0.01708004787389799, 0.03247832983292798, 0.0067914546471871656, -0.02041277351820392, -0.015063149067932977, -0.014390077001450697, -0.003663832636925115, 0.001583426402871764, -0.018438231061146712, 0.01757650155486869, -0.01933774511954696, -0.004657981065708994, -0.03880254673980299, 0.06970152576440147, 0.05297930690663781, 0.10357857812808821, 0.10923947979263192, 0.14755901443202213, -0.07621449296793376, 0.08849789614263626, -0.3313013180232733, -0.002647381680504885, 0.04289451303260168, 0.12603472832517823, 0.043053518704329156, -0.033953283158777894, -0.10073085834271266, 0.0007006332709125617, -0.04773553998312323, -0.025880383882959383, 0.11997264447193376, 0.04384093970944656, -0.0110830284128645, -0.02923599230533341, -0.009667410134983326, -0.014772455188290508, 0.007000025434367078, -0.03553879989253893, -0.02885925006677782, -0.019070810923043094, 0.000846965536188911, 0.00446221439060338, -0.0441380522161651, -0.08455258015555511, -0.19255861694851573, -0.4688522494279377, -0.4903983970233046, -0.39675328504298146, -0.5770023709275209, -0.4990601462052637, -0.2931139846537836, -0.30651306485165913, -0.4117351642962375, -0.5406141761654583, -0.4143065906784412, -0.2893480433786739, -0.12491422377817213, -0.08400737630139711, 0.08248938236628328, 0.08860330301097588, 0.022005438628851497, -0.007215313885231347, 0.007376010026862837, -0.05448214156854242, 0.029548241443047466, -0.027310621048622332, -0.05738204477845165, -0.03712056764427102, 0.02570148084512528, -0.046048961036924754, -0.1489206269888214, -0.18640089428379986, -0.23413980128727468, -0.4158155996223624, -0.26781281170440546, -0.5305391140647456, -0.4644207912917665, -0.6017382091741835, -0.5255990803330718, -0.46237598720072187, -0.3041517374047207, -0.4878978293781897, -0.3041079484935026, -0.3802097182512428, -0.265517033410056, 0.000667781485498598, 0.07410283217161777, 0.1390505680150981, 0.11393620799870277, 0.014692518270996633, 0.021048849409624596, 0.004937197446565891, 0.004483801229215183, 0.009198246527115754, -0.046040221712384394, -0.11938850492529945, 0.11156374374683763, 0.08913945976109033, -0.12038443526369193, -0.18084949870389977, 0.003764355734017633, -0.1637895292911007, -0.20115446035393, -0.43784041082280173, -0.2156064815616931, -0.36242998891571265, -0.16464285896022124, -0.5306678154722086, -0.20215283398685235, -0.4380582806753609, -0.28570399514440514, -0.19992694763691676, -0.2949367261402184, -0.15718145533726374, 0.08468243264644087, 0.13448601545961378, 0.1206475404579945, -0.0009311576606118317, -0.015579118422560108, -0.013335274957655293, 0.01627829657526693, -0.025520297923174767, -0.11504361641439828, -0.09923343697750447, 0.02481842188358284, -0.1440144447388725, -0.1478159331077977, -0.14850606788266202, -0.1341592944820204, -0.3503097081797535, -0.259210295871233, -0.21017403838385584, -0.32731307227021555, -0.43627949341419736, -0.3960178525060036, -0.19505919658283516, -0.16290176703917625, -0.2503173833021272, -0.24329694192708423, -0.027830476490649046, -0.1399249656302448, -0.12112930153224999, -0.12476600148267313, -0.16095351062031787, -0.09097468045649114, -0.030307822165099797, -0.012436239533121096, -0.015572084631926698, -0.00989099800081273, -0.032836247402227466, -0.17955807635725302, -0.11909968731567379, 0.004421884902014297, -0.13843044929572673, 0.03156378914466301, -0.026348931531167047, -0.06732395353353351, -0.2840980720828721, -0.18579326239803073, -0.3275185712162181, -0.6457601142646886, -0.5033991708270721, -0.07988633519901167, -0.19786106398188827, -0.1376954502549068, -0.03346698271798428, -0.22822722289593464, -0.11177440331198181, -0.17790412837899006, -0.21926593198692873, -0.32925682567470865, -0.16250676379808407, -0.13918728956009402, 0.0009190387405511813, -0.016709712178847952, 0.0053646771094914775, 0.014233305701090928, -0.053915242735702903, -0.12613383714256782, -0.24050156428695726, -0.0736897657793745, -0.10560470786574847, -0.05583487718143435, -0.054258276764028356, -0.14726371073654348, -0.14563915134713126, -0.3755389382728584, -0.36261844996188153, -0.7958626294376213, -0.431795436246501, -0.30145071415082886, 0.12144548424409467, -0.4099104000183928, -0.32509800507024095, -0.12698583678525488, -0.2837004901210968, -0.36585225785583486, -0.3779214293964518, -0.33734009858545444, -0.22291958585960553, -0.0710769782811207, -0.05324658278175315, 0.019772778749065942, -0.018124709461184406, -0.004250311277092923, -0.04588525877913424, -0.11108526075199654, -0.4427663990768978, -0.19469538904590547, -0.15940851942197232, 0.003953635592230444, 0.16720117652109165, -0.14328149056160755, 0.12040805216541198, 0.2252659718743126, 0.23814788504281614, -0.08346717457424499, -0.3023532112894039, -0.17834184339572776, 0.05064205409923937, -0.4513446921930169, -0.3422852348104703, -0.1881699893211109, -0.24803251203346363, -0.22795494112947237, -0.274316861156669, -0.24595050292757156, -0.00037002202242269593, -0.010892028779984787, -0.0031255947145176653, -0.011337806395353532, -0.009233709239496152, -0.023879799863015434, 0.033739013964610216, -0.11977666751418539, -0.4174754338955304, -0.04809806912894538, 0.06535000382158514, 0.1587707284014073, 0.1887978559095828, 0.37217890489274724, 0.5747233411055037, 0.665220274049645, 0.7092153050246826, 0.16852112344737263, -0.037630813646340605, 0.19624401853605383, 0.051667560926641404, -0.07439056366807993, -0.023643289632296238, -0.1968450157668686, -0.23331894750111365, 0.0171276213358012, 0.08044444947691176, 0.19200056356325912, 0.22270334399900515, 0.13910478562017312, 0.04841131549483559, 0.029725490577063928, -0.05592100309169008, 0.012100736302415193, -0.028097194253161414, -0.046936522953850805, -0.0615475951941163, 0.22908734614247295, 0.11702188334529384, 0.4011717589465683, 0.26134943012647205, 0.5037172852006988, 0.45907105826500944, 0.7773575426589241, 0.8473332219462208, 0.23928789790307312, -0.07282197457981406, -0.08529589989522308, 0.26816627214056865, 0.2189102122471706, 0.011561488365922646, 0.09303063486487832, -0.053361762677889474, 0.052553287480873186, 0.2769622513902816, 0.24842300616352075, 0.26053000698439677, 0.06729181830514706, -0.006818464527535238, 0.0024892093537113797, -0.02283615641789759, -0.013621952254159339, 0.018563867446921734, 0.07248263124739242, 0.060254749457635086, 0.1131838408187393, 0.35911029455178617, 0.2801961211629181, 0.1494073076255433, 0.48058190559615954, 0.3011342416623958, 0.5371382183503447, 0.7448695833591706, 0.28711795591888933, 0.15231973302507126, 0.12110127757813359, 0.32429870598357236, 0.12345727442994742, 0.04813097596176498, -0.05593816810935903, -0.08241935649239164, 0.10597312000908153, 0.19257158779698183, 0.21371390072632976, 0.15212940048913182, 0.13286261902391647, 0.08071867144370133, -0.018481325590434444, -0.015113450960267725, 0.013705655798704747, 0.0006585422107437664, 0.04915758066790782, -0.037139317153569794, 0.024038540496740434, 0.14470919784583192, 0.23814503338959384, 0.241388295269254, 0.320616627097734, 0.15836128471734734, 0.28322006252254794, 0.2866232451377915, 0.3601505296712916, 0.3237848575314636, 0.737080606792979, 0.3247407144240737, 0.3214327757734952, 0.19118033160032152, 0.2344036763707802, 0.26579910825557124, 0.3132419757556849, 0.2354946635030928, 0.31745195338747634, 0.23571178947366217, 0.17668104296459403, 0.0483483474781721, -0.004664997706402688, -0.00018865685326641785, 0.03807812186503107, -0.014238347483620134, -0.0561674428531349, 0.024940967178689644, 0.12046574334044981, 0.16179359866344933, 0.29066739687131216, 0.3155970904321752, 0.3486810430354318, 0.22246260801372794, 0.13755294001495694, -0.035401625378946894, 0.1401312070836868, 0.04998882323294394, 0.19278985686726058, 0.17198528327516474, 0.2152725983027473, 0.32878889228696295, 0.15030744843748486, 0.4037297207632093, 0.29164564131791726, 0.2662695119211662, 0.2564944834224898, 0.14448915541653343, 0.13550680757713207, 0.047205768182437276, 0.020893109829378267, 0.010012945541723281, 0.006360240795133824, -0.004956053743662485, -0.05722799702970563, 0.09617742398824197, 0.14964857298407327, 0.17415336489779942, 0.2735712098369493, 0.2240376416901384, 0.15866266174974458, -0.0016134188608232464, -0.01588062704921855, 0.2980794161808696, 0.12784491339397497, 0.1666501158037957, -0.1530181778909482, 0.4205906994882998, 0.12836959402952264, 0.2225706888998639, 0.1907278604723125, 0.30307811016243597, 0.27129920644429983, 0.12352946248494841, 0.18161845283471323, 0.25334389308167843, 0.1476395409197402, -0.01606454372628912, 0.006874580097885756, -0.028934728505306526, -0.003843794501659836, -0.03016575059211938, 0.0011738547757227911, 0.03891811398212776, 0.08700239525122112, -0.029875778167908557, 0.10471522367064977, 0.014011114905791952, -0.023375389028033364, -0.07743092353703532, 0.17804579569802323, -0.05177598181979497, 0.17689073768176075, 0.25024023538016243, 0.391096160058317, 0.3798119056448625, 0.16071345606960574, 0.22069917794986466, -0.038078460315051126, 0.25376405056900525, 0.1823659789423101, 0.10083568770072504, 0.10516884881808398, 0.14226138987915724, 0.10636422325071598, 0.014824331277034907, 0.0175481394350191, -0.018432366898037393, -0.033080810767092086, 0.009561187169028705, -0.011187078490790854, 0.01044142595726971, -0.09207399201545403, -0.2626419434455836, -0.07732069153080379, -0.03228253281049335, 0.003336289688820374, -0.0594405330758435, 0.106917793021217, 0.09370178726995547, -0.1894515185778298, -0.033288132535973014, 0.1215866845464772, 0.0698413876153395, 0.0725323008583329, 0.10334981840351597, -0.15675280711266262, 0.019453581761110263, 0.058891749819279825, 0.06919905734298935, 0.014850590902828477, 0.02452514364905899, 0.033577555054507574, 0.05912478670210633, 0.009276166842623536, -0.0012656581375545557, -0.037387280302723265, -0.012662438853661421, -0.0001633744940740466, -0.03931793184856147, -0.1250168064976826, -0.3444204468004807, -0.22839896878576055, -0.07781417251446107, 0.05049177238929193, -0.05270406332675226, 0.13884686658255133, 0.09052678236749669, 0.027156066197442087, -0.07888033094533516, -0.2725000239672005, -0.22710204904237088, -0.03946845755864467, -0.026134724732311085, -0.07384609048863656, -0.19577038312733383, -0.08640651547804222, -0.0339086356607115, 0.04754728514333645, 0.1130420483960251, 0.01878919778575042, 0.010571737010757636, -0.0024695089022026065, 0.017895714150866812, -0.006741872069312365, 0.019860230618250405, -0.023830372133842048, -0.024887036102767893, -0.21639172220239775, -0.3762178158104114, -0.31782239892798503, -0.21041085893692157, -0.097934072984958, 0.04705427838224873, 0.05918834353997706, -0.020120287634634186, 0.08667140516576165, -0.2945020947947809, -0.23760970118231883, -0.23549958894654305, -0.38677186557876686, -0.26016718715277465, -0.20280606981016638, -0.26189884781817413, -0.22022923850520826, -0.14478735973456952, -0.06318901227608209, -0.002013209053582714, -0.0032680462621777332, 0.03583370809352569, 0.006033438465158278, -0.014539200171063195, 0.0004327047490047157, -0.0010031070552988302, 0.0005198547234329114, -0.0269151082580745, -0.19182613067725426, -0.34936040130801155, -0.3266167468308818, -0.25439061085138465, -0.2671226719251245, -0.28513197336574153, -0.25385446317842053, -0.20698716118573243, -0.19747368223748182, -0.1330581183071981, -0.33866805045193205, -0.3964624027963625, -0.5272028143684728, -0.37412838599332726, -0.40471757408502584, -0.21419391132701265, -0.1999901109565822, -0.21741444095626467, -0.14836096975343696, -0.02390678791205185, 0.00360545750209076, -0.022637046769469902, -0.010412204548283508, -0.003261539927309409, 0.016870461730577303, 0.02293167538221217, 0.005863087276524211, -0.03148876116876033, -0.016052039419996104, -0.12991924360327786, -0.18557043582530547, -0.258700195590238, -0.3253429745937048, -0.391447184174067, -0.2900911517645792, -0.36175111128461046, -0.3010448462261622, -0.11743640737686906, -0.05285360934301362, 0.08779842051326812, -0.1593739173061132, -0.29697855074536694, -0.1875290977335113, -0.1712578302888668, -0.2097281266980809, -0.1797941117897379, -0.10940929781562862, -0.037627839231144294, 0.02365921373995484, 0.011553175894232048, 0.033512385352490306, 0.02847020606804215, -0.014582350511352265, -0.02197349266316329, -0.01950995461673138, -0.0022972987367957847, -0.036658071004745135, -0.09113691386265434, -0.15733822959673194, -0.29273498544339804, -0.3842111710449086, -0.37210808372768645, -0.26747131014551195, -0.4448339568589069, -0.4567557124382334, -0.24616017922971703, -0.09072623605578686, -0.2759995692907181, -0.3922176602685082, -0.542603903336757, -0.35082515635388584, -0.15703166707146698, -0.17527908550145574, -0.06265529160347837, 0.01030831295824178, 0.018529389701225873, 0.029800135424867247, 0.024134224761710205, -0.0027025687444020862, 0.021571999515703058, 0.006887434510616774, 0.0280298905385126, -0.0031239678236623792, -0.008119630968629624, -0.04064594476217337, -0.07352453435612405, -0.083340499314296, -0.1136416082974653, -0.13740910650186758, -0.29027688635154403, -0.22504795045338635, -0.34351233297903094, -0.3353972312247018, -0.5086197815838339, -0.4343807462462158, -0.4023565266266506, -0.3401732793554558, -0.36381784040795384, -0.27265175673305514, -0.20579952774098598, -0.1163995127281983, -0.044947871894877985, -0.05108081593264766, 0.029960896729142733, -0.018854253983233954, 0.022673447503319462, 0.04667549104542378, -0.015065684745479622, 0.012468812231482131, 0.008705350170473266, 0.015223323705169909, 0.05392431797939223, -0.052463599020174854, -0.001311091935097144, -0.03968046571189581, -0.028662736416910688, 0.04782188901344535, -0.009039803664302713, -0.062464874822103535, -0.03615800400279349, -0.02764267481126209, -0.050923751673396925, -0.031136609766919652, -0.004270834306690918, -0.029598674685186607, -0.014708738005133714, -0.06847150403472231, 0.019704013325512908, -0.04166269056398591, -0.01626106960516004, -0.012418151701127929, 0.03109927285598667, 0.031943722362937445, -0.036653957772916385, 0.04649012258570676], [0.004796619967682268, -0.01624790808161278, -0.01741851913330009, -0.02908000068737718, -0.035787938082171046, -0.013109533062403552, 0.04013131931832457, -0.014811868560071629, -0.006754922022502185, -0.03983195109532341, 0.003953754810092265, -0.012342981376320476, -0.025796118435465507, -0.008323236363921457, -0.0372699510277476, -0.014313730428381804, 0.006845954089598908, 0.03252497693947326, 0.026915978471415893, -0.005332200612634962, -0.009435198784738101, 0.01110032786733057, -0.0068173033889987935, -0.05543884884634616, 0.018938301422042395, -0.008600226761433426, 0.0035896858191319723, 0.013174031343398378, -0.007170447403222621, 0.016638373243073587, -0.027205148364383137, 0.0012203611121186758, 0.0024416413244637064, -0.011029025779731865, -0.020369640404200896, 0.012010370868165664, -0.01729813547958354, 0.028411956518740927, 0.004468136652477121, 0.024338025407903637, 0.010833980630689516, -0.030865099037055952, -0.011686725313175945, -0.008475549779959075, -0.0025409494637519637, 0.015131346292653294, 0.004476432827138187, 0.01748709640201622, -0.0007796833162004431, 0.009184442647775728, -0.031854214425455975, 0.009299022176943766, -0.005771496130461155, 0.02199829544295137, -0.011009530778369775, -0.0019328312527804763, 0.01143087316011722, 0.007920955357623934, 0.015876039749067126, 0.0543738557239595, 0.0017687567520055202, 0.028379796492071462, 0.026327040915797906, -0.008317625541318471, 0.008645785173418517, 0.027984531878319112, -0.00864408825216299, -0.006143631802970563, 0.026475406832702022, -0.043389969660775275, -0.05531573106036441, -0.07098164471143813, -0.10471400386953787, 0.02099959653733745, 0.01258720034778541, 0.023076405829621113, 0.03178583278937351, -0.009934324487612, -0.02199813525213627, -0.006213321126424221, 0.027439874135315196, 0.020629894711302405, 0.024905719260842365, 0.022855591831383967, -0.0023488180374496995, 0.0007078389430647438, -0.020750714549223486, -0.006108214836168468, 0.0013760252460651838, 0.004137243708462373, -0.02611771798535894, -0.018800390132728807, 0.025169969606837872, 0.02437404767384985, 0.0519132548670571, 0.09933038338838772, 0.20045310669702338, 0.26407428527807314, 0.058340497128293235, 0.022481878199386574, 0.030638080496479543, -0.025727121296907133, -0.0997294491084754, 0.053978001358979205, 0.06678580300115897, -0.057781753388852906, -0.024236022232694877, -0.05132697295918045, -0.0267519452765578, 0.0367453610529831, 0.00889714879811398, -0.028108116439402534, -0.021648341352591034, -0.013691579908350956, -0.03565178216345307, -0.00640652403204292, 0.003427203396071684, 0.016140792281777196, 0.00872928815089851, 0.053874654311783746, 0.10201864766112266, 0.13346224762924722, 0.09657258897681825, 0.20881435282086136, 0.13826148719667358, 0.0990327953039976, 0.07719915984350885, 0.15403762052164802, -0.11449668467956153, -0.06425788930274703, 0.07686235165560364, -0.054937336080645854, -0.15291907832100518, -0.1246186870178453, -0.03661819798918226, 0.05820446008597396, 0.1244393743997106, 0.060281468340160314, -0.014450389917189114, 0.016541187980726613, -0.02765813092893264, -0.04108103702989801, -0.014615877979520221, 0.02769413586962604, 0.032010062458663606, 0.08117375939935514, 0.060215080115299996, 0.03647205481668943, 0.19313780326274355, 0.1330924641976474, 0.20665562054019812, 0.088369942227299, 0.10559122711676096, 0.12763037754012552, 0.08386596638164204, -0.06362201555484436, 0.2531590155634062, 0.22955782185556772, 0.23929440461253332, 0.021338945197900153, 0.12914300295867476, -0.04582200145647683, -0.0029724279076921083, 0.22575902617261456, 0.21056440899390574, 0.09848683673203569, 0.018263667765863807, 0.013007379158783264, 0.00528257350193505, 0.0368592692182533, 0.02020939831297401, 0.05354342260790291, 0.07058177618955858, 0.168007419499477, 0.18529228399850342, 0.23826746705877389, 0.2880381821123068, 0.23294197589865262, 0.2537319787270398, 0.17792963564658698, 0.1125753159120709, 0.0470374497349173, 0.21304383259447718, -0.13574885035746598, -0.00247690229573882, 0.13368773584408178, 0.15546856228868922, 0.12131432277591522, 0.11942610700712936, 0.03992102689982878, -0.051580966858923195, 0.12615298719363668, 0.3558656604066064, 0.16134377075212714, 0.05168956523867326, 0.013388241405048972, 0.009930989097398916, -0.02213585109283829, 0.008122256923463312, 0.03665079004547417, 0.07553945228266852, 0.14450617168008098, 0.23064163321539682, 0.2711986041422338, 0.2094167780257568, 0.21839815642056976, 0.24325259638111876, 0.3273514173966355, 0.183489112309715, 0.11273357974803173, 0.25287243395554615, -0.06321516351830637, 0.13154000115596012, 0.07328622714072465, 0.06999929640417425, 0.11522080529437742, 0.09682444458892425, -0.0040401775504517986, -0.039462934794600724, 0.02516468044597098, 0.24368803697960803, 0.18324840942093412, 0.07522293574528006, 0.011438142343038268, 0.023119685936523363, 0.020938839211449456, 0.019860355808979508, 0.0005671939555893481, 0.0806464448748002, 0.13573341754433457, -0.02304990770812254, -0.011782801534614933, 0.12207525383476278, 0.1164394160627001, 0.04585649438026914, 0.12242849565290241, -0.006773844895834855, 0.20882902222144653, 0.441114197183197, 0.14629516536985424, 0.15914924448675888, 0.1566328717817985, 0.0790434891909965, 0.05256915785004071, -0.06850337491507578, -0.032591210455882494, -0.024201302644319005, 0.18015791275559503, 0.39123640737838794, 0.3415262315155199, 0.05921962900633662, 0.020205007963101963, 0.008272034522192651, -0.037907369301406896, 0.02106740627864729, 0.03188407398077174, 0.11797891333255832, 0.10394277204835423, 0.040419347424105016, 0.004180560396843013, 0.01627951157966558, -0.0012361462661900878, -0.09324721444260267, -0.011552051597037916, -0.07380009665350963, 0.2896858443130376, 0.18852484041946377, 0.004429445256557646, 0.1455912497202113, 0.1854982604566517, 0.14261663819230436, 0.042966465293959887, 0.012997272835750784, 0.052099510268765484, 0.03566477996851411, 0.15363820018536598, 0.3812661743092116, 0.3178511757706639, 0.09051295267909566, -0.0039982310955700585, -0.005229334723053728, 0.022263394882804002, 0.03713170173030218, 0.05830644579845694, -0.04159919179650895, 0.0251028341132246, 0.10118485499814005, -0.05543914576991901, -0.09994146952694863, -0.36579307238548314, -0.2499338351939111, -0.08017925877213766, -0.17421755529224095, -0.12031435588076543, -0.24858823227296395, -0.5040293036494238, -0.22977765637197464, 0.11659724864132551, 0.044178657489949695, -0.0899626046878818, -0.07991082874304722, 0.03888583785138668, -0.018491666976272646, 0.025100206642297486, 0.2510692171020514, 0.2931630096599956, 0.10106712151805954, 0.013862888112663486, 0.02429381339844411, -0.012667602880939311, 0.02970056620667722, -0.007201283992860293, -0.03604410253326502, -0.10074585645596112, -0.06022560056948542, -0.31506177085446874, -0.2729893027360539, -0.3861509549860137, -0.2776992758184621, -0.13738288654539044, -0.15157597134122341, -0.34452476732197224, -0.5699167032054452, -0.5142963401651366, -0.3697277130857384, -0.03292013876059102, 0.18442647530519615, -0.14522728421317133, -0.3146199970000146, -0.17510355577189493, -0.13618339983189545, -0.12576323868304837, 0.00570185914381989, 0.13683036201061677, 0.08677776970054613, 0.003052745167776566, -0.015121232971190555, 0.0038560998997747785, -0.015834155018661335, -0.045720453848822715, -0.0006596947271489933, -0.07742045219201149, -0.1508022927838883, -0.29482483793200753, -0.10225771956767195, -0.31829220001095954, -0.015475978511256122, -0.19842467984117063, -0.2610449973770673, -0.3695895102327806, -0.3994984031562356, -0.5884443036066479, -0.5638369880183633, -0.3736265560608881, -0.08865679646681143, -0.2202640391539034, -0.07110609108374033, -0.224323491556981, -0.17654543324602623, -0.3397422530000566, -0.20137623006923738, 0.0067737663302017345, 0.025292004802499667, 0.011071841895751234, 0.0037380759239987785, 0.014508351434718325, 0.016575672907525832, -0.055103664623442995, -0.0019972759263476134, -0.07485464055167398, -0.19088909627495293, -0.18340018881953707, -0.21273183169155413, -0.23378391215748265, -0.0008258964385483318, -0.23193762345231242, -0.37528270725911106, -0.13983877815567694, 0.023744577249815144, -0.46757048605528556, -0.45303248573568644, -0.18202168671912491, 0.003780395960056743, 0.08829330465443713, 0.08215739501078564, -0.041018844452646745, -0.18771701906650984, -0.3144577735666116, -0.1928538058444998, -0.05024330043899878, 0.019359949875836484, -0.022647647724772433, 0.017522637216712145, 0.020998635690200867, 0.05450942673774429, -0.018253299046410737, 0.04907962454617888, -0.07145890089352783, -0.07590811763648435, -0.0581200617869124, -0.10019071378922069, -0.31374507840205007, -0.3196681530377159, -0.468124583674839, -0.28595991328572384, -0.2562689255691975, -0.047907196212144926, -0.2672785855705585, -0.6103488638437022, -0.5865293902385769, -0.09030353580471638, 0.04551117590157714, 0.1960225941966996, -0.06181343898725429, -0.13419611202899837, -0.06658038061824052, -0.06520145510989656, -0.03871305160132298, 0.0021618631590856487, 0.012714323966715723, 0.01489536269177849, -0.012633176656584153, -0.002552214626696419, -0.009108797634072855, 0.04061928903641424, -0.09813326960678027, -0.14172355345917909, -0.0660739641795052, -0.19234672561460356, -0.19119322872922304, -0.06567669089065792, -0.06958166761120706, -0.1834294835931093, -0.3571342757644446, -0.37147818086172457, -0.29792406835663704, -0.5819929532636899, -0.5758333855823363, -0.08754700808028991, 0.1608117241187455, 0.18377818147465635, 0.12128020155516105, -0.157279307444275, -0.12033212918605178, 0.09188026683165801, -0.12493982229452553, 0.0006793333002580254, -0.014811390769870262, -0.003556423960277966, 0.04807263499959177, 0.022335321762001165, 0.05208136285162587, 0.012009504353223085, -0.14492614928688488, -0.3723501598923757, -0.524022746149081, -0.47622111023323793, -0.34690976660267914, -0.013390822157560468, -0.1195241930294461, 2.6839481008886427e-05, 0.07803972941217152, -0.18732289983838218, -0.3606883362170108, -0.6716678369134447, -0.3849671407314862, -0.12691975461931151, 0.15453198291190703, 0.18661095435374456, 0.19553122058580238, 0.08654188907748876, -0.08303713048553396, 0.059815849070303524, -0.052477949966744264, 0.04438139799148658, -0.016882158136107463, -0.020272114998404988, -0.008954567537847598, 0.04429564599387455, 0.004926796889669999, 0.10007899762706227, -0.19155514908107885, -0.34494564450118276, -0.6256818094330328, -0.7607600460924923, -0.7223182150727295, -0.3821496628216632, -0.43251545803429775, -0.5609908227850682, -0.5930660211099362, -0.8666358289981728, -0.7569454462722894, -0.6825133968218129, -0.08448835161698923, 0.042805158084592045, -0.04213363218116359, -0.008896169789223909, 0.05919056068135773, -0.03581422379099727, -0.03864819428249894, 0.03854932778314692, 0.07336799911574408, 0.04494292229515935, -0.059760109478241875, -0.0012041689853237154, 0.02054720939948538, 0.015541799842383559, 0.05511716419506949, 0.11056887363525457, -0.04992094937435313, -0.2143820698591125, -0.4104386937675535, -0.5897629621892374, -0.6464612847430593, -0.5832860500988623, -0.692773580853604, -0.6699547637808411, -0.8978078667842694, -0.9239629014325217, -0.5263453404343021, -0.09746569467461103, 0.1362756839547509, 0.10282236252801687, 0.042403355980243695, 0.037544304252700375, 0.12458233394527767, 0.04150714386401681, 0.05722896689135088, 0.15049797663214112, 0.05592186397615662, -0.016393092137476233, -0.021431781765029023, -0.004778856852570566, 0.05005847395023333, -0.010935165810922487, 0.04642570850229943, 0.02141123099468369, 0.08540727940476354, -0.06007052149446446, -0.07582623369267083, -0.15696682487388983, -0.4204145896617677, -0.3855914636511808, -0.294873923632758, -0.17413464021683348, -0.06677457828677065, -0.011277754884773197, 0.19998453766911542, 0.21858673520427385, 0.2339405264406389, 0.23628336580338416, 0.1590887474896981, 0.174062665489102, 0.18812822158373224, 0.022354992252036434, 0.08443573354114117, 0.07524124128383651, 0.05590311198851557, -0.0061130253249843, 0.03810184296426686, -0.019867407036957475, -0.03699301077758668, -0.005935890574795293, 0.07262335111277687, 0.035284400209119354, 0.251887784772812, 0.3272936770787883, 0.14744996018855294, 0.09419139248878544, -0.06422619661587124, -0.044878242054055696, 0.3779583293205567, 0.4231538183033823, 0.6611019353425284, 0.5904762154718921, 0.6347808958550437, 0.6523365607962617, 0.2937416195351453, 0.1873631078792299, 0.17073235979480603, 0.08704097095551429, 0.08887535808053264, 0.18275243226764581, 0.2351594839675094, 0.024396671016342776, 0.039433635684719845, -0.01069638383509543, 0.016185103822278887, -0.027146582425867097, -0.02222812969093782, -0.0006934233596077141, 0.052091481938212836, 0.1894284666399676, 0.27242255977649965, 0.2581468350569629, 0.22191963309613924, 0.4571547289487186, 0.25097576315830245, 0.3946682781333085, 0.600967535363851, 0.5478716888555116, 0.5137287738625946, 0.642958365489054, 0.5277864286339466, 0.3693367300240345, 0.17701852871071375, 0.21653329096980878, 0.15134779461534262, 0.18593367472337657, 0.03678281630888007, 0.14967601737624867, 0.33655139647096166, 0.08250350024425242, 0.03992685896375797, -0.025130912655812555, 0.035057139807068, 0.020726872416285624, -0.00734576150389381, 0.002301670991846182, 0.022752394099910315, 0.1908158457328521, 0.2293378940355372, 0.20127563015198766, 0.20720451810658339, 0.4382953775506617, 0.473085431912361, 0.32732264940636524, 0.38236593519293177, 0.3012788635456414, 0.16801704686386348, 0.2957919673684571, 0.15781867939194155, 0.20996975791580194, 0.1988108721453299, 0.2135997857185171, 0.3009594265895538, 0.10240449777370825, -0.03366161441490206, 0.19029973916510234, 0.23290801350694562, 0.02831043409682796, -0.010662642026056143, -0.056424092520864014, -0.0022467500521128523, -0.022769246371670188, 0.0015795766424725368, -0.0390779691065912, 0.06609367889564527, 0.16916491523204502, 0.22048520019485207, 0.19798698866411174, 0.10996722709147469, 0.06127106465578299, 0.2523739414215636, 0.3046040539702654, 0.5497105147554695, 0.1791357061717615, 0.08911596269277475, 0.2472862262992452, 0.2314019294193352, 0.1500705276946895, 0.18943574656089268, 0.14800613669618398, 0.12712786859847192, 0.08345291286430156, 0.13221376131462922, 0.1317810936603568, 0.111989352924109, -0.006999408874793883, 0.04662082005472234, 0.006766763677702865, 0.034326716476514245, -0.0336262097471657, -0.032684410606026094, -0.025345465621318723, 0.007036198964973192, 0.10520182881043573, 0.16976140997411374, 0.19892642354280826, 0.28573409743655664, 0.1875477037347055, 0.2867272795341983, 0.1602882585740675, 0.08734773803681223, 0.12707379758307122, 0.2626948291323047, 0.35349972889964215, 0.2759136822447208, 0.1887440006517661, 0.3529097638192721, 0.1704959952477506, -0.06106306767387043, -0.041977810523104966, -0.03176346485495998, 0.09100672721603147, 0.10938186035858999, 0.054996502356734804, -0.025873383856042615, 0.0011709834340109186, -0.017173749436944465, 0.02908066207014793, 0.02273669007829156, 0.03150134037860559, -0.017001614580310288, 0.0063758410529011445, -0.016889931586481034, 0.018782698176244225, 0.05798063187836581, 0.10987985656195831, 0.21528378517715543, 0.21452083555042112, 0.21038631160934354, 0.20482502093512434, 0.2859800777823099, 0.02434919629078231, 0.034189016821899204, 0.15514646706813998, 0.13876832159432448, 0.12741210366924435, 0.06414471868114754, -0.03918449454305256, -0.0031503474856610578, 0.03589752527261004, 0.01159193023229839, -0.014984542316804246, -0.02799896391964253, -0.028032794422684207, -0.005838082280006299, 0.02412755766395021, 0.00991904604100738, 0.009284482938393512, -0.011863800602276367, -3.2918872403866604e-06, -0.014609085090670045, 0.01289858088150993, 0.01306510307583327, -0.005599281713948188, 0.004098527717014398, -0.00986164111120054, 0.07121032095591628, 0.12240774276209876, 0.10422443962290799, 0.08527323512965779, 0.14157936214258524, 0.07161211638842903, -0.027384975084065875, -0.01664508587630547, 0.05302161174992252, -0.013936640869419837, -0.01584451013637329, 0.025942438822244278, 0.004025266942792145, 0.035049346962612554, 0.01722444824697237, -0.025891008227755703, 0.000796614173151085, -0.019448718991369934, 0.019338481247204987, -0.006961338022418099, -0.0007476010557079269, -0.01941856982046577, 0.01934099863004065, 0.007774035936802011, 0.04121892144416014, 0.015936110327505915, -0.0325047339821223, 0.014665799390508098, 0.025120534636545545, 0.010601059165174228, -0.0013405018749554393, 0.014200080708290767, -0.022978557855367187, 0.011532125633467555, 0.02095483595786689, 0.0409091082504083, 0.0009086065543191634, -0.0179377948053038, 0.03110562221630198, -0.00246147769947627, -0.0029262750910021454, 0.01778620363821752, 0.026576984250768775, 0.024870575898640074, -0.014485635901624912], [0.023888229982114876, -0.00962614718890827, 0.03005122985086731, 0.027904130856348377, -0.029315008469976686, 0.007146383966258655, 0.030512159378133317, -0.045271019033056, 0.0031417775601640164, 0.013627954523876018, -0.00894707405678227, 0.006216362612028148, 0.003968886674829677, -0.0008265798126662503, -0.0004293645559103359, -0.022444726050081944, -0.02402008420076499, -0.0019611811974605525, 0.003813827579603269, -0.01190201038475478, -0.015728248787963868, -0.047690021268291465, -0.0069991596726625945, -0.010204430624204631, -0.04219372347669584, 0.011063299881467427, 0.025332368845015968, -0.0024008677694313104, 0.01259895647674456, 0.011521099511579633, -0.0036118184047041774, 0.026462105434123338, 0.02061741714997778, -0.0037985178892641054, -0.013798063362815438, 0.009944230844099334, -0.005076422876461766, 0.01377148947556713, 0.0027593455060535847, -0.007695183898310275, -0.026131703341637624, -0.01529820366410727, -0.017177315528885982, -0.05489733387170664, -0.04107386862473026, -0.030062068816200386, -0.01044763581985831, -0.001453816677521724, -0.002798758741377137, 0.015166060663948554, -0.022634511751873133, 0.003586844732841666, -0.008661469746525168, 0.04563681200180902, 0.01814148170015359, 0.005286045915710621, -0.022877282233542413, 0.018089615009523986, -0.009600547557577123, -0.013511570702486906, 0.0029008750380737835, -0.018025735718363897, -0.04376632748607484, -0.01433185263789654, -0.043474112532913174, -0.0740044165408007, -0.18269148104344587, -0.1737109631058361, -0.16888911650197075, -0.17784415678513354, -0.17060861545478317, -0.1695197984872265, -0.12482879076203601, -0.10879920538785535, -0.02249110625915821, 0.018332055911193065, -0.025529901095714236, -0.030323641038124734, -0.048917181962052476, 0.00470710644266761, -0.030077068958109812, 0.0079222321930187, -0.01486855185837567, -0.001427675163546504, 0.007939485689908736, -0.005633481283461841, 0.028443239100922512, 0.017060002191061248, 0.005197470310112116, -0.05265457500207576, -0.018094761024920733, -0.07931250450472936, -0.15212824899154748, -0.22964898414087537, -0.428003858743154, -0.43438394761896726, -0.4209313964772182, -0.49208655842715066, -0.4843360053298273, -0.2112993200655901, -0.15093950905395306, -0.15902894950535879, 0.0010673671577496623, -0.07127901584623723, -0.05433197389636683, 0.029817622653600304, -0.032268383502217536, -0.09018166361982917, -0.07120686917463027, -0.03197304611330976, -0.0023877351154085323, -0.014357739009433435, 0.022220742749049383, -0.010073367268236476, 0.0065611623520073865, -0.018898439765042054, -0.005301348916383257, -0.012625646343738544, -0.01036883926827393, -0.059460334542308035, -0.1579142166663064, -0.2717853443132233, -0.28666600557859157, -0.1165969636668477, -0.025035244046719, -0.16295936233106367, -0.09697465474038934, 0.0623285926512699, 0.24265645149938458, 0.1031368405831042, 0.2643193642026196, 0.14280882979874174, 0.09594542087951212, 0.10533968801426033, -0.03903780951630057, -0.01973575704882162, 0.03303229108625085, -0.0006446152567420422, -0.02311743142332707, -0.020512268133682378, -0.01480654040481175, 0.011160508872386257, -0.001864861929029803, 0.002260233943089636, -0.0370861724538849, 0.05029034633943504, -0.0016161407530481866, 0.05544973226971908, -0.10274409587851967, 0.04359723253362839, -0.16310546809682241, 0.06707024021910975, 0.10876882152321848, 0.06176637701152845, -0.04159564672102592, -0.13705040391809797, 0.033798913969319964, -0.008172351618768751, -0.18857357976591912, -0.20776749356203839, -0.05076166432731357, -0.02502217147510252, 0.08837188889466853, -0.04908867815863432, -0.046619572519922846, 0.019578929579622727, -0.052905046584538436, -0.002490762146868389, 0.007066260522660655, 0.008434403564967989, -0.011802997320671854, -0.024970609968709496, 0.017647367951568484, 0.04949191897350631, 0.04626192777464065, 0.007776422930417565, 0.14426418159039975, 0.0071930062592253895, 0.015760202160062436, 0.05965181807061313, 0.028124405289283016, -0.0060233877252503076, -0.10943526485577626, -0.058578460522459165, -0.09320015508996327, -0.05230546909007312, -0.1923986015665571, -0.02129256769040298, -0.037973640003816166, -0.12324226168099649, -0.024992318961878764, 0.1560898140306435, 0.21129601279958218, 0.11536511438776854, 0.06330272948514558, 0.00972958679953647, -0.029002114078242533, 0.01789797341912611, -0.015642900829306097, 0.020261469473848177, 0.012031285459504429, 0.02396625295063546, -0.024799446221923153, 0.1393237116634676, 0.21570019510717067, 0.11711362152648652, 0.2152943392147014, 0.04681123926027888, 0.0858904875747352, -0.008331078218670997, -0.22786469773966836, 0.0862738235321798, 0.2444648430138677, -0.029866726350952593, -0.10787208897284728, -0.04925860874288939, 0.10599811199627694, 0.03378035993145152, 0.020928104136032234, 0.27719821236680503, 0.28994011741475234, 0.23695325261790434, 0.09517644531519766, 0.005903542241651215, 0.00816665331651282, 0.007423004715536052, -0.031357828666656394, 0.046549744786892264, 0.027461018383812458, 0.09129970616545106, 0.21911836025599657, 0.27601306874699627, 0.2029077149818292, 0.28808649042172135, 0.19085912501942898, 0.26795976278390843, 0.15360068545468705, -0.013320324342220413, -0.12063574137431751, -0.03319005385387619, -0.03259341393990966, -0.0475014553808489, 0.20180250028844607, 0.06274178273929533, 0.09913058792767283, 0.03912796178475131, 0.14807072279931247, 0.32537299063022934, 0.4619747470541103, 0.274570153846604, 0.06262462797506729, 0.04754323039500459, 0.02043763901079461, -0.004007367665716327, -0.04622076891206411, 0.02095992711245904, 0.04548335407870441, 0.15240226273284527, 0.23867333596832277, 0.2692705440536359, 0.26506974283049534, 0.21068017831399546, 0.010291479841530823, 0.229589886786887, 0.13721006003991196, -0.028167821545416742, -0.02828186783817497, -0.14434888349179809, -0.15154257199084256, 0.2658780247878954, 0.14032814319127238, 0.10103585769235814, 0.07593259490929566, 0.2124942214563177, 0.21630455993196218, 0.23478758628331614, 0.33080734629346603, 0.25579559678689257, 0.1004067433098991, 0.0017855980346405823, 0.004383892309408253, -0.014350604634062937, 0.00524189279281054, 0.007153714299639658, 0.19386756380307998, 0.1252111715209081, 0.21685974167113883, 0.20744370961694367, 0.22833048405370043, 0.11681187945901603, 0.22605042343987658, 0.1337156038754479, 0.2697082733764155, 0.16936314092729313, 0.08005482785062257, 0.0055166089135416175, -0.06691304696304239, 0.027205168206841053, 0.10031725923260845, 0.26230168130788944, 0.18643619423487484, 0.21279406221825437, 0.2094510666244368, 0.13397572542096797, 0.24375459477554515, 0.3621329467384452, 0.1275411303650341, 0.012180335856220262, -0.004468465361859873, -0.027802524566124018, 0.013090537076767305, 0.026689121848529427, 0.17174354964641791, 0.1992483559753366, 0.25209157202864746, 0.34338296119461276, 0.1009618369227176, 0.19392771654533209, 0.11004096068582649, 0.21743102739493125, 0.08316911884642435, 0.11610530065183562, 0.372617278392439, 0.2626082325423058, 0.011302895144743344, 0.12192888588005979, 0.08254116442111639, 0.12798937774191405, 0.05945852242491824, -0.020060255349111746, 0.2190582998424014, 0.2210624745068239, 0.18412220714980168, 0.2721888662594745, 0.13263853702470105, -0.0030350243651966883, 0.014256889036813915, -0.0150685855074099, 0.030274569576224215, -0.0020898453667421582, 0.15129142746544902, 0.2712046012639589, 0.19748140979564416, 0.39200635678232665, 0.16553487873826483, 0.0666651322746149, 0.23543370613507697, 0.23304234423976997, 0.0614432549896319, 0.24137841476374963, 0.5158845928759125, 0.29213881180517126, 0.10829570345155257, 0.13015561604078532, 0.06679520401955674, 0.21984149016581703, 0.15138564663964799, 0.04940266825009762, 0.12474839626670844, 0.07627433187177554, -0.07834687094115841, 0.1265270796940434, 0.08563067730425973, 0.026702771886421013, 0.02661064118854864, 0.006961256044168903, 0.0202735398952972, -0.04463823721959368, 0.042735365067043084, 0.21012283834339768, 0.12407846271289627, 0.2673721000647549, 0.2753597119969147, 0.0838136829387982, 0.027039368556970072, 0.20147505276823288, 0.21216755016559688, 0.34483395476822704, 0.4882986008652292, 0.3912845650239469, 0.183349611180382, -0.037027024460444806, 0.04680604902259606, 0.1758769269256878, 0.40819370870014776, 0.07309178072983968, 0.049427675490993556, -0.21656179547183385, -0.14989070078824102, -0.02400581871657897, 0.04016042288688138, -0.026709758053572067, -0.00960842161304992, 0.02685563285470229, 0.006567295203960902, -0.034256549863465005, -0.06010045776608989, -0.0033858003604937776, -0.008280062319684088, -0.05223346156352143, 0.12690112923109115, 0.1220478332285765, 0.10369568124505234, -0.06110904849576153, 0.1318876551224545, 0.24018864607797086, 0.38443173323830643, 0.389929145439617, 0.304418009351965, 0.32527547461292267, 0.15494545770736215, 0.10299922262071658, 0.08984556449006892, -0.02151501594859888, -0.19211156243615557, -0.29173827732188634, -0.16597780239783397, -0.058427888703804824, -0.02741276195627714, 0.010949328114021776, -0.0001832506628597844, -0.011549689950612521, 0.04889284022699864, -0.024914529918601342, -0.11987479084920116, -0.2881421389935532, -0.15124469918801567, -0.1360394679580376, -0.027598496681095833, 0.2189366444122568, 0.13176626021360277, 0.036764533312534944, 0.2184421425171298, 0.2964390954433312, 0.3658929751256586, 0.3951201131349936, 0.49045364494995014, 0.20406952153139463, 0.13736522696681183, -0.044013481319926225, -0.08025567533052286, -0.09583957539835539, -0.040956040965923736, -0.18911096292645752, -0.2038870145243472, -0.08058503990229503, -0.0317849320947782, -0.0017923454642669128, 0.005025584676044476, -0.027230029006249493, -0.023122906074849015, -0.0028827319684489715, -0.21329548833645426, -0.4268239824216891, -0.330356966338641, -0.2019992697836189, -0.16001960674807475, -0.0055075745021183784, 0.0540105813480562, 0.016921300858808004, 0.49781694184732683, 0.49469446399829337, 0.4307423226619021, 0.58022999644389, 0.3927166628013168, -0.04311434017408779, -0.14885442553716258, -0.4202960679710526, -0.37228192691639556, -0.23068197415285932, -0.25745927935121643, -0.23838806037752672, -0.07581032307513548, -0.05920207396216314, -0.04062710099816478, 0.03347828239748922, 0.021190785660857824, 0.018458035977761633, -0.009668384162692781, -0.05872460725294257, -0.11954580957437967, -0.40147128129588405, -0.32715186744609986, -0.413237341301307, -0.4343099154341507, -0.38042588695643414, -0.4342165897023376, -0.20026142605735744, 0.11304356220543442, 0.2401068745432207, 0.17986095337553734, 0.23703272580961016, -0.13527755643107942, -0.442934552992305, -0.3820048284429331, -0.5386753447927756, -0.28071361992458543, -0.11247338197280085, -0.3280051890050924, -0.20229691323366322, 0.038844557031596345, -0.08344445656531804, -0.06181023594013053, -0.016297932627410076, -0.023546528398808123, 0.02025513333565838, -0.0028936982306640028, -0.05980770201746736, -0.061897465272891805, -0.33634691397902405, -0.3358238297441047, -0.49882669029190535, -0.7039514042875451, -0.7734681431370027, -0.7608160221800937, -0.5201502362570328, -0.682029084069648, -0.3847789507409925, -0.2757927605847285, -0.42752077295205426, -0.5866380010041748, -0.5769808861860286, -0.47953247803482374, -0.3732351502097908, -0.13958757362513805, -0.22579631256211527, -0.4465366732392096, -0.12867211469889, -0.03501817499163606, -0.09221126836167133, 0.0304717242466227, -0.014554423484906726, -0.008591772554994213, 0.030772000586278884, 0.0158777320140925, -0.005218148597084505, -0.025072333869727067, -0.2119055299566507, -0.21532805058178234, -0.3834063011134659, -0.4708317596139507, -0.5277643373721428, -0.5095368114890408, -0.9371439882758871, -1.1050016855078701, -0.6170814481284727, -0.6162952572630007, -0.47036647040524426, -0.33099392766325053, -0.28727365489276907, -0.2846008379395208, -0.22262946628880825, -0.2994726064467951, -0.3918790758637558, -0.359613063845681, -0.08963324025321258, 0.00017647174136128262, -0.05135864351597141, 0.018965953786304342, 0.03013778974098288, 0.019955428200381264, -0.04719037433508473, 0.03488072908131679, -0.06467454485262787, -0.17412792140429126, -0.14305574907150279, -0.026191040950694265, -0.21327088680638653, -0.19546064749295503, -0.2559684353721038, -0.1078578921644503, -0.347243890012772, -0.4185379613813038, -0.3250070356117768, -0.4415704290398036, -0.12075905317957104, -0.23308509592304694, -0.12378750081474207, -0.128216913148714, -0.09507844441673358, -0.2826709956755058, -0.17059720543386103, -0.10667314543694821, -0.0037791168395822257, 0.008051418423867125, -0.03124405995259145, -0.01368225630645285, -0.015690606844810693, 0.027347757739744707, -0.02084907282624967, -0.005259551590144457, -0.013418525318021178, -0.09737201379439152, -0.01112189521876275, 0.17343325861325032, 0.05139091030173454, 0.03532860656563244, -0.044164775433167165, -0.031780368597705694, 0.058658220634516874, -0.18662401699679196, -0.2346400704516805, -0.11285214120639797, -0.022559422238722256, -0.11941661772773352, -0.09001789636166839, -0.10559764879283483, -0.17379612912543116, -0.1546934209917609, -0.02567829500378992, -0.03993922526498288, -0.0537768554893862, 0.04274229636277994, -0.05000986404749277, -0.015062698874706557, 0.01874438674731341, -0.005593906486919972, -0.012016663277406903, -0.013845804502587645, -0.019762408137666714, -0.03375005968335322, 0.0194507402445251, 0.12727458226215052, 0.18299055365797082, 0.0741599869722283, 0.037859620487751974, 0.0452164347082805, -0.040643136274249626, -0.1381114098419122, -0.21664051801298867, -0.11252537479565611, -0.23125679001808114, -0.31628728885133944, -0.04645915856790145, -0.04157110303046403, -0.09751686305757278, -0.10764875441880913, -0.08342509384295754, -0.13593785183420598, -0.09127247136026691, -0.04157066212556723, 0.010022593279263997, 0.016340610565251462, 0.03765362181494055, 0.004144729937398747, -0.012613470847575817, 0.02402694272923856, 0.0013696289738790695, 0.029876063737969864, -0.006491498889145089, -0.08738933129599448, 0.03690172457747741, 0.019664808073799493, -0.02687974418256905, 0.02150104748280012, -0.052135029216116, 0.06872820853444433, 0.058322539145431396, -0.19504968894238162, -0.08928120468095471, -0.011334238619442022, -0.13783442300143559, -0.28138991599737, -0.2352581738874233, -0.15579918301626117, -0.11437517269270998, -0.13165838694796, -0.03991684089864796, -0.05744915565634805, -0.0602706830014291, 0.0010094707138024396, -0.008731310201454463, 0.027675048566142516, 0.0018831661590638803, -0.016915648329339176, 0.0201726500046136, 0.05502170275191636, 0.08301358066570129, 0.1150117274857736, 0.11848200490520218, 0.2051173728859332, 0.08793342962693984, 0.13701400633314242, 0.17778547333179326, 0.07718774921284438, 0.09560255500293449, 0.03415013018243046, 0.12584424972082858, 0.07291103734373768, -0.10322278644836536, -0.0770179002876113, -0.012984159552246285, -0.03663469201649799, -0.057097071631278445, -0.07067512724925165, -0.05692400844009792, -0.011754038493347697, 