{"layers_sizes": [784, 100, 10], "weights": [[[0.005924248139851705, 0.0060700478402659335, 0.014477459096019335, 0.0036422134326553014, -0.00881802188090745, -0.00014270289478124452, -0.0002946752507804416, -0.0010101668150862657, -0.0012259762203124668, 0.005762073494581461, 0.0028555243570433757, 0.006239862307170725, -0.0037701493532173837, 3.594210853055435e-05, -0.0032381105848098297, 0.010558005330149629, 0.0009230230012123198, -0.008973710536622817, -0.0019034613748987318, 0.0004682673412607255, 0.0011888889952926924, 0.0008697062692042592, -0.0033114616175366164, 0.001113291327268362, -0.004691503782063482, -0.0006798336543736482, -0.006133715860104198, 0.004312426011945668, -0.0015578969909273669, -0.008205031333236433, -0.017656584175260257, 0.006438256172244214, 0.0031823518930491923, -0.010051319102046862, 0.011157160756606818, 0.010807623571366174, 0.030164991827699397, 0.0005992639785744535, 0.00047237271554341823, 0.004207334424628686, 0.030568896499914767, 0.02017171324104568, 0.023227558963026883, -0.0012299052493840161, 0.03299444572189623, 0.016867357018549203, 0.006490590177726154, 0.004991446280849188, 0.008282953804989389, 0.010763101504832041, 0.003930936703908269, -0.005231866936033175, -0.008384325835540581, 0.0030888572652344563, -0.006139475944102671, -0.017619136737624736, -0.008315376804459157, -0.01314054534413186, 0.008633898977949694, 0.006217080893905994, 0.016847022782848175, -0.005480264668624821, 0.009661781494118586, 0.023288170718340467, 0.03955709555850967, 0.05415108595183115, 0.05796634472853004, 0.05809954181076804, 0.07273430711343122, 0.0853457796218486, 0.10028149695437612, 0.07722553993744131, 0.10232708653829838, 0.061522689964821686, 0.022287168972812254, 0.02461375763391446, 0.015891934652136553, 0.01929947466656249, 0.005059064952472737, 0.003320771073245472, -0.0003958400087408644, -0.007362222776426888, -0.0035952731105279214, -0.009330097096384703, -0.008313632486882558, -0.0064215711863103205, -0.010983459363332188, 0.0043894285885910465, 0.013624594114591309, 0.003997639226431673, 0.023686979391792855, 0.039796251183584666, 0.07258186986702353, 0.1167822329834675, 0.1682046149755833, 0.191308144367689, 0.18259487932082274, 0.2270591060701218, 0.2558413878984622, 0.09662904036475956, 0.09138671979976738, 0.06719576243835455, 0.04390866705341025, 0.12444574712304451, 0.11703378333341144, 0.05173910166663016, 0.04675562836008766, 0.009515040606243893, 0.014430821375027667, 0.0105503572444423, 0.009878722669182199, 0.005792018795820691, 0.020544991615232773, -0.009370292083999926, -0.000733238495540472, 0.007137473167659219, -0.002091192213028499, 0.007266018028377305, 0.023137641088240814, 0.07343617391730597, 0.09884542899182147, 0.11367201767084603, 0.14410359096418907, 0.13150993401956068, 0.12295520677184821, 0.1695688191782892, 0.16622625854388498, 0.02408551508211135, -0.25431301398135864, -0.11724813866298564, -0.03548995384713283, 0.01297536668993619, 0.0122389208639758, -0.06434780310631395, 0.01756846799150751, 0.02629545805321906, 0.04475240787254178, 0.02154764092005011, -0.003643697671302808, 0.0028922276906589695, 0.0038567527257644765, 0.00755474913980928, 0.012851051384237892, -0.017991493863220295, 0.004208469009973935, 0.00397776513520274, -0.012963755627904923, 0.052025799086680355, 0.10022847168943408, -0.04051876445997859, 0.14317527020353663, 0.053298279605280094, 0.02779523168766267, -0.013638773573875895, -0.06647909396801546, 0.0696342518264899, -0.0003312669112579441, -0.009514366410965161, 0.10644195773246018, 0.013339127053166184, -0.031086340414704663, -0.027958288083657985, -0.005066920233910461, 0.12982432558836543, 0.10415916508811045, 0.06062512400605599, 0.031348709337862955, 0.006238265534174639, -0.013276370008928357, -0.013445129119464815, 0.015153376005283386, -0.0024379327455067963, 0.00550656393627007, -0.030215002821142364, 0.016322755089741417, 0.0903598322630003, -0.0826423307787018, 0.007530634457318036, -0.028753348793301853, -0.0850099809030012, -0.03939397847729079, -0.23021647972569895, -0.02356442268971183, 0.05447978873302874, 0.1038881099762775, -0.021362041257180685, -0.004287666842763052, -0.121682440682218, -0.12713180659127257, 0.10916851933298106, 0.061145182589428755, 0.01349998150154397, 0.09382020831569753, 0.049354757185962876, 0.014807130425600648, 0.0007439616764386911, 0.007248499446204018, -0.004757458745418742, -0.003992802186826885, -0.023291378711455275, -0.014189666397784708, 0.024551194369750496, 0.10210530375591663, 0.03616960475636919, -0.040446823897621394, -0.0858575018243565, -0.20849403741016878, 0.00874600001573345, -0.1022145191218139, -0.01462442097481234, 0.07534419792461776, -0.07524775152860684, -0.19117462446862188, -0.004890572009733508, -0.05138104347680083, -0.06800151450705741, -0.1754251427896463, -0.010867762548030884, 0.09832802088311911, 0.01176638947283192, 0.04692554905089997, 0.0393649530956725, -0.007949880310048126, 0.0018138660733834063, 0.0199884872557551, 0.0005732320729284919, -0.008344288776018267, -0.052046031366500635, -0.03471760077842395, -0.0555359131670374, -0.03775033840104781, -0.1477534894203934, -0.2120751744342135, -0.12396154715851745, -0.08228068794386331, -0.018563337883470667, -0.03527818122497774, -0.02225827632981887, 0.044886771731487446, -0.07079029963526175, -0.08855830933113577, -0.03207131235802409, -0.10959353967713853, 0.0517274045191872, -0.007390491217242625, 0.028374409502030545, 0.006175226968925982, -0.033583078760275935, 0.028644761322684703, 0.09321229694971238, -0.004262852205023425, -0.0075765083334472455, -0.001434695710933334, -0.008186652342528387, -0.0013484945555176178, -0.0491190156345462, -0.051224577634366136, -0.009026264385607182, -0.13200141569261875, -0.1408573228099572, -0.1940782853465279, -0.09490496760260078, 0.03574728198066719, -0.046302983482555446, -0.050758069835623205, -0.15173357559896009, -0.16010185906674007, 0.035550662941720386, 0.00852753783182713, -0.1119690173641039, 0.05536131596866563, -0.10343153301601557, -0.07906648887552571, -0.07421699985451395, -0.16224532811027864, -0.08551908220308493, -0.006837203116081054, 0.049218150949881814, -0.0011539006371196554, -0.00012698132436181106, -0.0057390052054553725, 0.0007718221155853944, 0.002899993386350267, -0.0437056137962793, -0.09490781934992494, -0.013817692562414862, -0.05084189645192872, -0.08227526342491798, -0.11997020227622347, -0.04452325691093572, -0.19075467091633466, -0.17748092538176397, -0.08142580811695882, -0.16660530421922248, -0.14407658213876723, 0.06911300019552503, 0.01615959506876739, -0.03122785999994424, -0.16826401907669436, -0.24826449813100346, -0.1239034292021142, -0.05536080891108972, -0.11718482467481293, -0.08835152212986971, 0.012690762084522017, 0.09905131348657137, 0.03364543587851854, -0.001315838012323429, 0.011297260235309164, -0.00606226757836461, 0.00025847651042999406, -0.019478030244785116, -0.038693605951098366, -0.006539507288495745, -0.08220076864584532, -0.1710785696106532, -0.07169852061456403, -0.029382323716422, -0.10169595237586078, -0.11342944351235928, 6.597046556020987e-05, -0.02286594917630282, -0.25484407095346046, -0.1402884522672509, -0.15348405374146287, -0.1943839282369389, -0.22674778314710886, -0.12703337014123448, -0.12913697419619918, -0.052237963295573044, -0.158317861678284, -0.20764073090288232, -0.12253125157256751, -0.03236108232537126, -0.048462920483492974, -0.001507746359000404, 0.00781194438692163, -0.013664887789273147, -0.01820142024383722, -0.024201128110195456, -0.004118447235928313, -0.03252523285049993, -0.12717919046202203, -0.3575750287780943, -0.15973665408714013, -0.024058748274337318, -0.13377032507452927, -0.032668596314114944, 0.01602632209378613, -0.2615315185159299, -0.3198097822539049, -0.25134341493833434, -0.30424019801943575, -0.3163647494111412, -0.2552044894032366, -0.2796994337842825, -0.18612615356109513, -0.1253375539166128, -0.1253123596107887, -0.11168131052373773, -0.0865856729367456, -0.02192494585102055, -0.03855705387708618, 0.006845310115656619, -0.004864096943297393, 0.001821965482408594, -0.00823135802723961, -0.02512401145343412, 0.013423143370833076, -0.027302701849680464, -0.15433634674044466, -0.20251124466432854, -0.16743737746404372, -0.07318581058931077, 0.03695031237101781, -0.06864567584463198, -0.09373471093854109, -0.16100105774558585, -0.3667549926313108, -0.35609412924823874, -0.19717586814570134, -0.14513819453509308, -0.2088968399009947, -0.25398526941979455, -0.29427116874351655, 0.01765811785489787, 0.030475497349919115, 0.14190798367720345, 0.07874914100342077, 0.008905162854256535, -0.011374390407156793, 0.0026999957828846644, 0.014039162039892214, -0.006583569793576581, -0.004706614840001311, -0.023156173288357198, 0.028564775613557407, -0.0445778596592988, -0.03869878273670246, -0.10963152363283196, -0.20117662909380699, -0.045999212953840275, -0.013924133534352486, -0.06037464477585745, -0.12251650196425784, -0.12405043707730112, -0.2883530023617121, -0.1004483403384879, -0.19193280882309924, -0.1867138260483671, -0.13526985257910465, -0.16303041883060848, -0.033259033613718306, 0.0845192434219255, 0.2371549722172097, 0.23532723994968496, 0.093149397253852, 0.013490370227074121, -0.013883150463333587, -0.003978569135338304, -0.005673570127552277, -0.008582577523862196, -0.005083508883886312, -0.006808288998362992, 0.09182690670201685, 0.018131948949065547, -0.0889046639076387, -0.14302914970961095, -0.1000978008108516, -0.11252515519449093, -0.016116281601369097, -0.09377378756327977, -0.23047556568622393, -0.16616444128972102, -0.22074337699624128, -0.23942691521007906, -0.3865779975458234, -0.22816993527703633, -0.04724804401429523, 0.12370174356102191, 0.16579840057811632, 0.1299482380830765, 0.09478165819301505, 0.14135670049370408, 0.13222475861675112, 0.034765219062747967, 0.013850893504557421, 0.016013288882817663, -0.010028766795048091, 0.006774394871664017, -0.01188926750700856, 0.002700880836494308, 0.08558380795600175, 0.07583314215873214, -0.05171833241063601, -0.1311011344116833, -0.19178028047666473, -0.1761312213190554, -0.04282993416842397, -0.11735642556146271, -0.24741046781411472, -0.23527545147066256, -0.3263012395489991, -0.4373275580713305, -0.2530594885310748, 0.04006261940617592, 0.11383745930257633, 0.32327401179731524, 0.3011460166769278, 0.17004485345470124, 0.2511858226795263, 0.10968228945103262, 0.05145638323119507, 0.05318186967060159, -0.009613655177956709, 0.012760429652176023, 0.011218369253448615, 0.013927747349642963, -0.008555566955221281, -0.003045261731155897, 0.07469382047711731, 0.08719511986933115, 0.0027798573797268543, 0.05144225135550668, 0.18468868279780698, 0.14720179178308018, 0.10602220856298233, -0.16622150750671955, -0.33081535618110136, -0.3520079724214592, -0.2069559111633828, -0.13138461858277123, 0.12242109873694891, 0.26558613104682227, 0.18517778427767528, 0.25555273987768334, 0.07725687238335703, 0.11998323002714777, 0.20638517265083034, 0.05288727467147098, -0.06934248143054596, 0.05547264542158677, -0.001754072293789125, 0.005854060486330531, 0.01666925020478055, 0.0053631035986275045, 0.0019169671298003247, 0.007063737505489555, 0.0949284304005722, 0.08283704125626605, 0.011446857189985428, 0.08708391835572332, 0.23391612828580552, 0.41812908710986807, 0.331004721661, 0.057401229422446756, 0.14945837553953803, 0.08827099056910052, 0.02678283719826189, 0.2385193864168866, 0.3145441307539147, 0.33548643756948104, 0.3253087298654664, 0.3655373422457534, 0.028803161400014245, 0.20160104752118513, 0.21486379482119883, 0.14517407541382948, 0.033594511098076686, 0.02474700111249834, -0.010198245561526403, 0.000818387688290482, -0.011304994953489153, -0.010087093562271466, 0.0033116379300835337, 0.00973611830952177, 0.07980611616205928, 0.18056856612373884, 0.23597593592339378, 0.3660984283613573, 0.39123215495595104, 0.45469319153595966, 0.5551718352553331, 0.8453425486601814, 0.7727343759881928, 0.4198700202064546, 0.3281657037000994, 0.4258052803562162, 0.2985366791974452, 0.26654319498811674, 0.31302471375936153, 0.31172269620055953, 0.2169840796387372, 0.1923466161144307, 0.18304333166491718, 0.1102547845484577, 0.03661936662233884, -0.004534497516833894, 0.022620284204784437, -0.006132835107293704, -0.0019375845690299217, 0.0027129590107004345, -0.015013210989362999, -0.000524092962185348, 0.11448600895016481, 0.30582858791035256, 0.3638745266586988, 0.43292535519650915, 0.3920190450421991, 0.4017317487759387, 0.42451253838412273, 0.5058087116291944, 0.5316448359524256, 0.293540224581826, 0.34493778031708966, 0.25473377955039067, 0.4204625978425252, 0.23018582555438494, 0.1950602603270191, 0.19697661952147433, 0.14619417436751556, 0.13412420500325167, 0.1101030366668375, 0.06073035570450736, 0.002897105445384027, 0.010361909791265009, -0.004128456850434141, 0.008035822932680705, -0.0017589785669921121, 0.0014549501294891852, 0.003458645823262974, 0.039900362654264165, 0.10872402860872132, 0.10776398903827361, 0.1445989978065195, 0.1913510976365106, 0.20775719683345806, 0.23079700931886812, 0.17855892483294894, 0.19531331635467677, 0.3328710057918877, 0.2526394677352543, 0.1672836478408481, 0.06606889680816208, 0.19758052255462868, 0.13354840129371454, 0.13750430322976545, 0.2317646286810458, 0.05598821637341432, -0.00994502605798917, 0.09412837181036783, 0.13040333176336305, 0.02374231472513212, -0.0016865905713968883, 0.012008817131133295, 0.003485020823858377, 0.021027479664967184, -0.004526566266388612, -0.009714993170481611, 0.04450758160426761, 0.0531705043551279, -0.01768404665025024, -0.03787687049725078, -0.024731576276222175, 0.05285668785135087, 0.10998431600705567, 0.008039083828656842, -0.026439252978629597, 0.0997317609017717, 0.13957241061971404, 0.17536647477888428, 0.17664715504348708, 0.25148642554793993, 0.11792180295954205, 0.050533704479955144, 0.17343328900000796, 0.06044767549312213, 0.11341580456787015, 0.07612747623547664, 0.10381593521814085, 0.026144503614223092, 0.012754945250741539, -0.012695523606091549, 0.005783338430997128, -0.007478783802422487, 0.010805734134691174, 0.012277259438535443, 0.00970105845210035, 0.00543876660660563, -0.017403052602234792, -0.03806261125437868, -0.11641921301599081, -0.014970164750291963, 0.049433560984073026, 0.04222163071716462, 0.07845356537770146, -0.04381641449129149, -0.14515026473684953, 0.07412245748138241, 0.14966279339507638, 0.04278072655768205, 0.20731205121211196, 0.18374430246429044, 0.09035840463851808, 0.051761500852138584, 0.1507360331284773, 0.14214722086440357, 0.0908337540503333, 0.03684369059887063, 0.042496082097097876, 0.013164433728205008, -0.003852607336719838, 0.011254719381226836, 0.001362519320836603, 0.003776399050241545, -0.007020979442336689, -0.030627806166261075, -0.04306638987962672, -0.0669982045263492, -0.08967145807917055, -0.15763214012162993, -0.10823057922339956, -0.11868618783976849, -0.03639546690457083, 0.037351133542129766, -0.06754061178853614, -0.008544839265679168, -0.006107278103503996, 0.05230986656800521, 0.00065247802016542, -0.014107782207881546, -0.04232733240307827, 0.08684078246360882, 0.06500205247040673, 0.10319752361821675, 0.0721572928011995, 0.04090324020791231, 0.034374331237520026, 0.009011085512458645, -0.008630272742220495, -0.016558478204550874, -0.003111437689574899, -0.0017309503120900918, -0.006651354301756726, -0.02744163909799322, -4.765390060616715e-05, -0.02581922376633633, -0.06243685364188744, -0.12504109059649357, -0.17801551603270094, -0.18520474988425523, -0.11956678823153605, -0.2149127713624331, -0.21546009274511904, -0.1647036298338557, -0.16571169893666354, -0.16649757176692415, -0.12332798687225759, -0.06227120110274208, -0.024208468845027156, -0.051539349567896, -0.04398299773003666, -0.010488538209714718, 0.0033470016487811777, -0.007297909705044113, -0.005995516309120911, 0.0005925321382773324, 0.008255689671930274, 0.013466621074984525, 0.008440729314964698, 0.004519632692611518, -0.012522199026653, -0.002047737351956531, 0.017894148396079407, 0.0223828875208874, -0.009021541810543364, -0.02539361726314563, -0.07821989101641197, -0.05129733671432635, -0.04191607344159398, -0.027067643708460543, -0.007050503529888114, -0.03223141837042093, -0.02331102823601392, -0.02297513220731962, -0.05740694158087426, -0.028347535931656054, -0.026201913208241414, -0.0014760380505907994, -0.015851191561651306, -0.024504736489696744, -0.0020872376891747277, -0.007609885760528432, 0.009875529882893534, 0.0048976335801182965, 6.386904947203746e-05, 0.014988955694482777, -0.004135534941414958, -0.0027515542361288515, -0.005123616861388094, 0.008481124208253846, 0.00011320679990199112, 0.009338500922910067, -0.0067015156968761634, 0.006332183916471619, -0.0001934660269349927, 0.008446702634721519, 0.00426223512511157, 0.0009465008691887391, 0.00019695127364385883, -0.008855895794869948, -0.00781809949119425, -0.0008346678560863719, 0.001505271707301238, 0.003812351106204021, -0.004750078548520932, -0.00205154068069603, -0.011180028081343014, -0.02193895844657426, 0.00427348764173731, 0.0017783893770303395, -0.006010453592458242, 0.0009292040393581491, -0.000686064729074511], [-0.004896270681989245, -0.0022353082728271, -0.008694813558711274, 0.00541242544962163, 0.0019292335878575845, 0.01225912551117855, -0.01276175260172987, 0.00313824534880279, 0.0016245745306757528, -0.011729694701864878, 0.016913623843462677, -0.005869911281717652, 0.007498448787288672, -0.009516991703366947, 0.004930251634852835, -0.01080242240573262, 0.001940791540758809, -0.008611520026465494, 0.0023012590669977905, -0.00825578767198577, -0.0043774041897451915, -0.005232814213339096, -0.0007840163528768497, -0.0018990485868600141, -0.004091610566259567, -0.010150195171283407, -0.015865148413981955, -0.01201184822597442, 0.007923835685464592, -0.008135374434517697, -0.0030749520446135903, -0.00424870268701371, -0.0033804870112883385, 0.0004718176956279217, 0.014848591853292917, -0.007566516642487746, 0.0033216995460954657, -0.006688038824140647, -0.004854436834724767, 0.0015360918437995039, 0.005421095976328773, 0.00013575673057775493, -0.017088986188295158, 0.002727661674226329, -0.0001998231400017949, 0.020657230563461575, 0.01914790459352436, 0.0009202792048484466, 0.005104507220240507, -0.00863949978721853, 0.0021596364320784532, -0.013651364195855557, -0.010055010167546669, 0.0012090893941908239, -0.007370173532287965, 0.003277412123721831, 0.002242747388616163, -0.0009008992840060588, -0.007551050386475358, -0.01074402492206803, -0.0026405446617313528, -0.01403395781903905, -0.013482431481942999, 0.00957068816122475, 0.009261702582161654, 0.024902121387580217, 0.011515892639254491, 0.0019459718199696006, -0.008194264150569107, -0.05173811544160692, 0.03621368682790741, -0.01311402087525999, 0.019590242012351676, 0.021447956318218362, -0.0211741401315479, -0.008957395763364, 0.012693554277954905, 0.016041394688409597, 0.004032402119483238, 0.019888628549448253, 0.0060636108642010906, -0.01820254668249813, -0.0060994513856161125, 0.005106794255684708, -0.01577356576987836, -0.01750936849622636, -0.010189610937468712, -0.006404430568197183, -0.006990878943346767, -0.012527275931052637, 0.01594570897871566, 0.01673174629666048, 0.060124130859412935, 0.004669110115668859, 0.02302828150257306, 0.07386901755165913, 0.04028378322387832, 0.08804884934858276, 0.07023477487911221, -0.05402606784717307, 0.017660444338025178, 0.031997739353432024, 0.03134392208042833, 0.04618635795884415, 0.11399090744144061, 0.06222088160640167, 0.04284876016637522, 0.003247178950396233, 0.021046699574925977, -0.003494248194302188, -0.006730348557843887, 0.0016635168019897672, 0.0007528127195644582, -0.005435798284344193, -0.002372557473140729, -0.0037605783658341, 0.022907279505076258, -0.01292052073899741, 0.01428147614524776, 0.07338957314875573, 0.043441055941205516, 0.050226812699292786, 0.10312306457035093, 0.23852140607683636, 0.16970080543170687, 0.09847808647520163, 0.07481705400212889, 0.03697326061238516, 0.13782441223131292, 0.16451769327687954, 0.09858526184253238, 0.09611135548476964, 0.07500226702724089, 0.010310064839778553, -0.013108884855004553, -0.032944104567949016, -0.029299047047457293, -0.024788420802899756, 0.0186085526682946, 0.0007630413394350298, 0.002524430785488762, 0.020464443231236976, 0.0032657248544990195, -0.003465109726833146, -0.016226004615467433, -0.09566454149902567, -0.11304323874016983, -0.0030856292253664047, -0.015331538920328, -0.09463171877989823, -0.016112190552860926, -0.002211436483212725, 0.10560715059222658, 0.0998569410917764, -0.059895566679848786, 0.0003332211609518658, 0.15794257766121547, 0.2761342267265101, 0.31126416168209303, 0.25983508818547335, 0.1667189375433235, 0.050977764362687084, -0.055144518072055115, -0.04839339183330947, -0.012480461683982336, 0.0405056121499344, 0.0009197968755134176, -0.007847190789938702, 0.015881332236441996, 0.008224624370592184, -0.001793631178865045, 0.014111344254366668, 0.010427798671316237, -0.09290455144869453, -0.07924488640854711, -0.06667982329101413, -0.030824110839694278, 0.059955562409839395, 0.03017935023812992, 0.1089436978692971, -0.003699591747713776, 0.07448149919976946, -0.029510740062312163, -0.0836870737962323, -0.06888168589459022, -0.1062518911516004, 0.10220688214500687, 0.041754024133843194, -0.000737445219667956, -0.04898585038026507, -0.13445980373707128, -0.05099113589394449, 0.014413664393445958, 0.014343727280893183, -0.011137591571658527, -0.003587947452869438, -0.00025843972900285673, -0.005979313421617461, -0.005689590704208651, 0.002905036515305064, 0.03950460184595639, -0.007872506010011717, 0.01166046309666617, -0.09306997704791972, 0.09833282953865977, -0.00016004533346871766, -0.05717456811937279, 0.06512400418119231, 0.09036960567299757, 0.0910286781246835, 0.03647113234452394, 0.10982646565652307, -0.10757016353004942, -0.0996402998711124, -0.07280246683452055, -0.030146539724136025, -0.1497864321009291, -0.24645286213665846, -0.1353140199462175, -0.12205643417490897, -0.01628772481619471, 0.004648904146644188, -0.012820305050267567, -0.008054333151426741, 0.004714541070442731, -0.0021718497461524983, -0.013733259175953345, 0.004585678035809311, 0.09357152036695902, 0.05643394914197201, -0.11431637947887659, -0.15907271524256822, 0.03019688028687134, -0.028928446037888484, -0.04329369355275828, -0.15540970051088296, -0.12288849919699185, -0.04110706468581001, 0.0379598987461161, 0.04912437642635442, 0.10493083652642725, -0.08622715255073926, -0.10473376286861057, -0.0952777286542268, -0.13124090019074733, -0.036505940740611864, 0.0015798134467928356, -0.047660325755861495, -0.029412372520410537, -0.01691161378974317, -0.010549025452959436, 0.016788729377706132, -0.010022959363551869, 0.0069410555513268616, -0.0018898528212306443, 0.04110292573687922, 0.1573961372231727, 0.10454822088518226, -0.0503349935173157, 0.00836747418085694, 0.016409425206837358, 0.035909102732171565, -0.0074462102133679466, -0.09813980221567034, -0.11930934127233071, -0.11559303582716522, 0.03117499795434865, 0.10661607931148208, 0.050575486896222724, 0.08456279871959162, -0.0865720007466965, -0.08085322338645166, 0.10319161122728879, 0.05034441198435161, 0.19898520526952207, 0.11571785297909756, -0.028310366402154306, -0.022250609122368432, -0.02123130699026977, -0.03748154171120307, 0.012855928875327157, 0.0055368905292449335, -0.01572792666960576, 0.11185396076983099, 0.14931715390891975, 0.2285286137970065, 0.13490254002310362, 0.19044014569342635, 0.22593476372593774, 0.09138073481534278, -0.024209530039065237, -0.19704643045633294, -0.21968741164137157, -0.40170268876963655, -0.30590894566527904, -0.37552492744232385, -0.12466030650465294, 0.08226654594220689, 0.2540337212401534, 0.10163094500810722, 0.1366065580626326, 0.01935980521599518, 0.2372552409804429, 0.16201511417450734, -0.06251784712741773, -0.09014659301947604, -0.039120162600465476, 0.0014004758695124976, 0.004982149631584788, 0.007584387740869684, -0.009597119727795582, 0.07492014597976257, 0.14063727175102414, 0.30904923340334334, 0.1756884442243209, 0.13451078481204948, 0.16132322824276651, 0.19939267673111383, 0.14823478663414133, 0.045578818529982204, -0.013762653259768899, -0.22072066166883367, -0.4473311702815971, -0.5058897117542309, -0.21549550905237988, 0.11647308370089242, 0.3526588360170057, 0.31390306600783285, 0.3126060063068332, 0.15650140286601194, 0.19718478848968235, 0.024734857246153496, -0.0033031543165672433, -0.022475626461634972, -0.02178913664188958, -0.006956023342887979, -0.007677914774410821, -0.0057467561913759355, -0.005689770958323179, -0.005249750970005016, 0.08989990481046943, 0.302210201576257, 0.1815306769357742, 0.05772083198534438, 0.02036636692283526, 0.19807875861140295, 0.30787525653443987, 0.22600962954367307, 0.18009537142404808, 0.006315415205133629, -0.2795365869862049, -0.37114226349656104, -0.3029790831244617, -0.008317492221744464, 0.24805806940187633, 0.3403978503916717, 0.2595066216127054, 0.11669966985014568, 0.031037398844717245, 0.020428363687033144, 0.007059182074755057, -0.04393974326673598, -0.04589215531225513, -0.013511294880713441, -0.009497628610620625, 0.004984164847668101, -0.012640658753287732, 0.005304507802627454, 0.061678478802820985, 0.20904911202432727, 0.0834835432580182, 0.0852674130756938, 0.16526120467467845, 0.07282638284508422, 0.11139180959351871, 0.19584571517435728, 0.12987442685102804, 0.13687150302879564, -0.005400773830662799, -0.1235534921583853, -0.4434317614785844, -0.4166007466828913, 0.26058438329536626, 0.3240777176611963, 0.14534840554815762, 0.028125304409880862, -0.03211610044144472, 0.005593718529045042, -0.03203358706999196, -0.039997623991188315, -0.004086429983037035, 0.030363105686025103, 0.002426730542295371, 0.011943936047779161, -0.005763040278587623, 0.0008836369344351558, 0.05139853346286469, 0.1129711272415661, 0.1509793434624828, 0.0726950952224357, 0.011793663251377305, 0.07459388150578658, 0.040075834621471906, 0.010857865302790306, 0.05660452604722918, 0.11267815516109286, -0.05179669894322348, -0.21965991861995174, -0.5780075945742912, -0.3060808952917637, 0.19202113500350293, 0.1326069838407965, 0.11405344388800162, -0.02742051111564389, -0.018563339107996388, 0.009471579518066571, 0.033541068277689205, 0.034430796432984107, 0.017872685804338623, 0.010061530803094547, 0.008903479829713378, 0.007312003457620432, 0.010937123788281485, 0.003013043973269849, 0.055556075920355844, 0.19534861179653906, 0.19079632649678235, 0.03182207732038602, -0.07075722478990289, 0.014847212016432243, 0.013208895010207587, 0.032047874184736, 0.2221575670728346, 0.15809753226050532, -0.2399966417359935, -0.38986832056286985, -0.5101637445098217, -0.21130620624646826, 0.12876131352318207, 0.3310153212175138, 0.11298296219044805, 0.014141767880043047, -0.03977014989933223, 0.036737019765322745, 0.06705058777413289, 0.037175026817623434, 0.007379661615385416, 0.0015056346014852007, -0.006294201544005101, 0.0016917927314221977, 0.02664631090952064, 0.03503263743910529, 0.10553626610265116, 0.1651655572871877, 0.1794277712412595, 0.0781361193190236, -0.11746683843887763, -0.03269136381226221, 0.06055691884382019, 0.21144476718296093, 0.2172002094849022, 0.07506886712921629, -0.09116912455217335, -0.40878109232533155, -0.34391387822528563, -0.11849313108906032, 0.2988012136006515, 0.2833711687774841, 0.028434222559254266, 0.05535095628009969, 0.0664924380896311, 0.06671519352697225, 0.02398830787503786, 0.053494166595564156, 0.043884474270244694, 0.004756443751942909, -0.005258346087088291, 0.008656525061702138, 0.017178476498607206, 0.05538948569468339, 0.1403299043613633, 0.11201536778925601, 0.010685758119194142, -0.09372307549066579, -0.11837071098932693, -0.06925829165328777, 0.05181933563898394, 0.06425298217655107, 0.14202313061986374, 0.10710940239298214, -0.17650430033310704, -0.4549586403437148, -0.1430283787512979, 0.041206835940020406, 0.11536164847746219, 0.12725739247728335, -0.1096963149893665, 0.015086563908122222, 0.011118013740128021, -0.0857012839952005, -0.07999565899955068, -0.01946983631741103, -0.015829219231204783, -0.00848928426466429, -0.0006491929541116137, -0.006557173137108686, 0.018767500919240846, 0.06574305112582485, 0.1333523824859095, 0.09662513822766446, 0.05512634026946268, -0.10854673855045001, -0.12674569601113497, 0.05293384870820211, 0.11211215091960966, 0.034564281896791976, 0.10323048012509223, -0.02841736534370843, -0.20301982087072162, -0.205139267978757, 0.03587533799575174, 0.17639926915322604, 0.15140234112066708, 0.017284011913069226, -0.05313626900196978, 0.09742625966408472, 0.10116791241935229, 0.010320533075788887, -0.041794512068006176, 0.005805067913786232, -0.016840798960701786, -0.007778102373109854, -0.005495129249553098, 0.0021436327653136518, 0.009047978411198749, -0.0007404226821087944, 0.06677894123825433, 0.10440382337891056, 0.044161412962440416, 0.012595154790037965, -0.06812140590617005, -0.006281657199735808, -0.06004087045673309, -0.17899439939855857, -0.20209140924298308, -0.12785653983629713, -0.08849699072558337, -0.10608253982616911, 0.08893805799980105, 0.28374650653377287, 0.15424055308394666, 0.03128269060141845, 0.07048648064129873, 0.10878371431831499, 0.20394926473898797, 0.015024665900471723, -0.06283956308460345, -0.01749377830642209, 0.005738194927616004, 0.004097732712886276, 0.004275465069273432, 0.003218295587725274, -0.004269046047555738, -0.0013638722259473716, 0.04863967649084989, 0.05940938688582275, -0.03124665227081685, 0.026673748200544904, -0.09742697710474288, -0.08358197083987016, -0.1447597073071191, -0.343559674711037, -0.4268288974947615, -0.08678984876232422, 0.033058060831265806, 0.19057017613324484, 0.19693477050613437, 0.11943334110016302, 0.03945376726304357, 0.04451125080929883, 0.12825110675847035, 0.13153992516009558, 0.15391575948707467, 0.009674882851152245, -0.106537328660487, -0.016098381892353075, -0.003724328287353493, 0.004916107217661267, 0.007595262451657672, 0.007870180431392784, -0.0012007757020449786, 0.015102244123111015, 0.00805518761688185, -0.14282766086503174, -0.08355131825963055, -0.10124004260781184, -0.16124563952319007, -0.18234277003590155, -0.11419604981225981, -0.10734434799576582, -0.08193576333192978, 0.09821866769054322, 0.21637502680079038, 0.24554670893049868, 0.10712717728690001, -0.06303134743021661, 0.21318594513589081, 0.13313863846071017, 0.015640620724954042, 0.010883692409777755, 0.16552807521414895, 0.041850919453264704, -0.07909496168992156, -0.04564281641976652, -0.007803634778822203, -0.0015844327918230047, -0.014060970432058041, -0.005059963604286526, 0.015095431600199402, 0.01440153661509337, -0.043854119172077856, -0.18632045606065287, -0.18664555712004358, -0.24655732940956693, -0.21717330660873416, -0.07682520766141127, 0.043488802349829755, 0.027123486206437005, 0.04067216252302044, 0.2198524699549661, 0.2391112011649519, 0.1741471870674561, 0.008372066812158026, 0.01798346161274503, 0.11217279070316792, 0.037696586211138756, 0.009460539431385764, 0.028754786608975756, 0.11196361730356379, 0.028781357999705246, -0.02895421266401231, -0.024548702690627363, 0.008409412006686632, -0.0027758425640142127, -0.0036799846937579047, 0.017813051482931316, 0.021010893237662413, 0.04880259583225448, 0.009175893329825461, -0.031042916084434262, -0.189464144997417, -0.15874434732014148, -0.006336945239999884, 0.028079625121948334, 0.20479242742786397, 0.322196056242046, 0.14161365499453465, 0.12839146376215885, 0.11131886008098184, 0.16965674807121742, 0.18400847383449545, 0.15557474262377094, 0.13765236893268107, 0.07956834652887537, 0.0689005244800094, 0.06973559930661472, 0.06292649343624039, 0.0099513143420231, 0.011157995565717517, -0.0031358592950963063, -0.009723983078664959, 0.0006010956299441529, 0.004294235128242747, -0.007416369074138383, 0.02063228000894625, 0.031262254518401575, 0.019369856463141426, -0.025036279228309644, 0.05352135796334239, 0.061134644052253516, 0.10228505570581622, 0.11261726405433943, 0.07549543069675625, 0.06431440699737724, 0.06748176145876214, 0.032257894112138225, 0.07800841991158568, 0.14964711616110812, 0.2970514892412807, 0.2226929035848825, 0.1739938604055054, 0.1506396806329531, 0.0725804727588437, 0.04607233717965436, -0.014755794447767832, -0.0050611228209749256, -0.014473752680804235, 0.009424036031880113, -0.004747989819544851, 0.00872896870917935, -0.008466266735367808, 0.011676174418616904, -0.004091471156537486, -0.007054256100617815, -0.015872605786447565, 0.06445678227411071, 0.1683350075215769, 0.10818175646295533, 0.1083623417415902, 0.10129234961377774, 0.1355314343184519, 0.03595281393003029, 0.09346093707779624, 0.018659177494784688, 0.0391506611434104, 0.18692500655478755, 0.3186276576522553, 0.20892854193481797, 0.16707742680629822, 0.2179258827538321, 0.10443782390156543, 0.02657948037398304, -0.02481698118325942, -0.03259791734087144, -0.015105493458063134, -0.008675896942784202, 0.012400586521713481, 0.0012480644521185062, 0.00818059356562556, 0.01365420417360812, -0.002197656622541754, -0.001271173545312375, 0.010019769676911134, 0.02654953162789983, 0.03196212634305087, 0.004943794553541894, 0.021176349549480937, -0.0034191724084748102, 0.06124534713782115, 0.06435449948778835, 0.037931273946853965, -0.023754232978482625, 0.00017187643665047745, 0.09676006245458511, 0.10572665119127672, 0.06307606083473934, 0.00508545015113792, 0.02169177181422646, -0.0033979009150398062, -0.000500347742004004, 0.004959716505972617, 0.014941573783596122, -0.007297604375210329, -0.012593252155915852, 0.012646299537022372, 0.01186790358414317, -0.0007186207605392081, 0.012204655825933618, 0.00023302035003590254, 0.004108833751214022, -0.010353781986186878, -0.006390434506682354, 0.0037501149458868495, 0.019020647859855154, 0.003656303989016617, -0.0005268277429924947, -0.0007227036872634316, 0.003991897583236795, 0.015730325601902573, -0.004133787661174949, 0.005443763261889332, 0.03769641252118177, 0.02535082505528262, 0.01123895133501878, 0.0016902212618954452, -0.01261185134809032, -0.0033798185846942237, 0.002044191878273077, -0.019121663992016195, 0.0035413603154217945, -0.0053723255724402235, 0.006500646997879542, 0.009369617296323178, 0.0014642582882750483], [-0.0032619614727773514, 0.0042213491551419515, 0.004434017708821313, 0.011469690047354235, -0.00478116154318394, 0.007173883116369454, -0.010169347048111113, -0.015469267730275987, 0.0011936252047982144, -0.009338342737488877, -0.008930755417430446, 0.005197000779646186, 0.010726490625225751, -0.0008099388956023905, -0.007175316108360407, 0.005376287083915553, -0.009500417352271761, 0.0015187659590916048, 0.00916416095114922, 0.011332188856402177, -0.01298009132271998, -0.0025643478670974535, -0.005673960289745392, 0.0006018038081760982, 0.0004936664132099733, 0.01284981945654194, 0.0042765172230794166, -0.007923645927196809, 0.0003174000378537165, 0.0034469292585344994, -0.0054540322920611254, 0.007000145490396169, -0.010131458988574567, 0.009759065584955174, 0.0009252984354729387, 0.0031806337449895345, 0.001911920140528632, -0.012135403888220824, -0.008680992201118034, 0.0029884224211440343, 0.0019882279161831046, -0.003928177329732184, -0.005549930897519314, -0.014284049600010701, -0.019643315486217616, -0.01407233909432329, -0.000608335582062596, 0.0033025993118039436, 0.0014070066006300415, -0.011606755034677878, -0.0013426425330328494, -0.005865955044017294, -0.01740515348767692, -0.0016160868007144347, 0.0017778307586576976, 0.007403178834450132, 0.011904850836001256, -0.0013362300765300168, -0.0016269196357980749, -0.011420630842920231, 0.010019450449941868, -0.007012133938494153, -0.0003493801960449071, 0.002652084843714115, 0.00015173102598233152, 0.00960530886522598, 0.020424095393152628, 0.019978806540957197, 0.009763905477439584, 0.003044222115270304, 0.009040718749263058, -0.00503989762255864, -0.007917294824749142, 0.01828360091366068, 0.04655980437363264, 0.03348772057456534, -0.0023333817130741833, -0.009408007793938085, 0.003040048464165183, 0.0023499043331239177, 0.01515577553355316, 0.00404098705611384, -0.004598136204298131, -0.00731753782183108, -0.0005869017587061976, -0.008653012690956346, 0.0020562514645590954, -0.0030375504966797208, -0.0011179430253907697, -0.013021967254292662, -0.01578166936309927, -0.02036657393251141, -0.005628180452907072, 0.022498526900029913, -0.011745035208563064, -0.024532412446726794, -0.040927830644361125, -0.04309320162880493, -0.0511930305421159, -0.02428067415466444, -0.08527758833122547, -0.09230331195967373, -0.03486292469446519, -0.003063285696992448, 0.02754148677940201, 0.06529482008948845, 0.06608373936770925, 0.032679409426056724, 0.013109605375053087, -0.002800116356051915, -0.0032579874929054295, -0.013087190972104543, 0.0070143030107235275, -0.005001976662352577, 0.008054250542377205, 0.0044837108228403325, -0.0016522525718367777, -0.02066136501475094, -0.016694533050183324, -0.01910180063998819, -0.06087863736425683, -0.08281591990764978, -0.0681350019277454, -0.08457725008621528, -0.10832152578929928, -0.05654595285074351, -0.07149177895210711, -0.024311888979686124, -0.006307461829569583, -0.03354399878633607, -0.09196506881508602, -0.03041986424896875, -0.004690562680825078, 0.10360170288029474, 0.1080030853617443, 0.13830455089801771, 0.12465252891824725, 0.01572240746803422, -0.008781388486195684, -0.01497338235099268, -0.0043314650463888715, -0.0008910997946002532, 0.0024383142083552628, -0.016898112518609187, -0.023311020507834204, -0.04723400465445564, -0.0781372580523535, -0.10960466648129519, -0.11570372443927626, -0.037086372666608115, -0.028315249460568934, -0.04556523295711129, -0.16339122810019946, -0.1828378725575553, -0.08830084755172674, -0.1933404938214741, -0.14271591626097826, -0.047528760955001824, -0.0599344269845681, 0.007166448801310549, 0.10033096228187141, 0.19322449161048183, 0.24706101659573743, 0.19144897386483195, 0.12478823230269173, 0.01271855253970164, 0.014703325834432396, -0.007287180169190605, -0.0010625170535893565, 0.0027450882828863868, -0.000384247293553186, -0.02543155361202191, -0.03215338346697376, -0.008374153394814902, -0.10015107927483982, -0.12502875428100405, -0.11380794352776402, -0.09755347096207251, -0.10096301756570981, -0.1811042609938795, -0.26973027955955453, -0.26440527510970463, -0.07786797308093375, -0.03255016206683011, -0.05993074851015453, -0.12068927554357572, -0.18839868375661298, 0.1406004645692335, 0.05391043019735398, -0.02845987361124014, 0.18772191374723265, 0.2979294456739112, 0.18329449227397873, 0.05559018389847708, 0.02223522027738282, -0.005161478264615594, -0.012257140229745623, -0.0009891147285053766, 0.003230965188050201, -0.025246296301416463, -0.07376961349651828, -0.014192609287309088, -0.11876401209563388, -0.18795014647516722, -0.11001228147389808, -0.08034998363146768, -0.02914398552983646, -0.2657906322338034, -0.3883994960924474, -0.12220587531671785, 0.16214460363133687, 0.24692400084688987, 0.23131863855054888, 0.050218783469511176, -0.05639679242224188, 0.004145768867669464, -0.10072767781153769, 0.028068488111099396, 0.12951595087239998, 0.26188681024443733, 0.2528012935906641, 0.10950902972136314, 0.016085787005734507, -0.005589024753334355, 0.01005215509158119, 0.011319486888152411, 0.010360670458318118, -0.04939311445919177, -0.09059508768155972, -0.10825978903881678, -0.0688756909428414, -0.06187983479353202, 0.029897664982282603, 0.11525586588697938, -0.07720365028904914, -0.4260595693657032, -0.45361512524068526, 0.039971313729925184, 0.3184011362099262, 0.2786188743750423, 0.2240642069508088, 0.04980226044420214, -0.07519110125953238, -0.05695280452750608, -0.038428874667974976, 0.0030189127331776383, 0.10101092075146868, 0.3177090886289277, 0.3629439127600311, 0.15264614981001187, 0.02610518204628481, 0.008534609566639985, -0.00969576638206472, -0.005195624490109115, -0.015052714458296479, -0.05803075530620462, -0.12136670985030003, -0.13552272119136552, 0.012997384440871404, 0.029212512143190757, 0.1901192274713115, 0.16601377563911374, -0.003913112147424284, -0.30225249771649687, -0.5644954193526395, -0.13805260892724536, 0.15779540057124705, 0.21878708755150453, 0.02101917697839759, -0.03488157308258499, -0.03305373041289206, -0.02068801015172098, -0.03468058800499192, 0.0040322845106260065, 0.04253055694583464, 0.23970468300906775, 0.3001532265030835, 0.11959134458804734, 0.00863033583499769, -0.022561499173971836, 0.00868958849844035, 0.0013290655260361386, -0.021110551713061917, -0.04177733770086286, -0.010521526927193048, -0.056386017692379165, -0.00318181208102043, 0.14890154467755637, 0.31032864881847166, 0.39313421698510237, 0.19317349849754648, -0.3468591052344827, -0.4447315132852914, -0.3338456455831744, -0.030005798328244675, -0.03268204087581047, -0.17216306607269358, -0.0277012382305829, 0.11202114844039712, 0.06890698906586977, -0.024653749623163624, 0.02769314278481923, 0.138815667677538, 0.20025477548714984, 0.22180041842427836, 0.08999226250803961, 0.015181691266119362, -0.007188401084024298, -0.012162045828513183, 0.003926065996382456, -0.01972514007856296, -0.0468181766114399, 0.00023795051383898632, 0.08675018261630847, 0.19383067848124672, 0.20958097187137326, 0.288326001186887, 0.454592665252879, 0.33887255667201954, -0.12437747743142712, -0.21556991745187135, -0.27482927908004534, -0.09177739817227985, -0.10090256531847501, -0.008796959297982819, -0.08299123538350525, -0.08543687426348011, 0.05396202538272626, -0.08022130954937773, 0.0905938905048465, 0.11232082231352128, 0.19840592144081323, 0.18891673370469395, 0.06803462909796683, 0.028274131224663324, -0.0029433263936394106, -0.0021246982968063477, -0.0025328800204183696, -0.022676754870046025, 0.05474827850021073, 0.09797581242660565, 0.14077423912532616, 0.19835451012923033, 0.23818073350825011, 0.22142713741085032, 0.3807249036442805, 0.3928277962289158, 0.3387623935867817, 0.2647633943860245, 0.06976857575566559, -0.20097336791788753, -0.17282306788544222, -0.1956711949192906, -0.17199259111661616, -0.15141029985297214, 0.0025616342542246163, -0.02365580722702457, 0.0876997308363326, 0.051027655399191456, 0.14717871463486634, 0.02090024902059092, -0.05059974368560344, -0.01894120910277943, -0.019309821140409758, -0.006218002437103505, -0.009577052598772276, -0.029921431117476166, 0.023783801362943488, 0.1084332565782953, 0.24241423617428984, 0.11555746945949154, 0.28219074910478675, 0.28646505429060487, 0.3373134494546748, 0.4226830314780627, 0.36344659851436223, 0.4046433427356806, 0.15554864344447952, -0.15510144010744462, 0.007036643169761334, -0.1031480814004176, -0.13338543211419887, -0.07891549080898377, -0.07248466767535239, -0.060090926015906605, 0.062250655374904686, 0.12944927123900496, 0.029756042959595264, -0.1394813913706681, -0.08768374011062793, -0.03727442308241699, -0.014922896121860048, 0.00990039242401885, -0.0073103005014204985, -0.01358282142292327, 0.010398131507365023, 0.12087302824533702, 0.20853786616860617, 0.17708983938682163, 0.24175336130074723, 0.29189505525992704, 0.2608014894054062, 0.23840348547321466, 0.16823111624683096, 0.16260760207106736, 0.00556760283492086, -0.1243376351412611, 0.005155353611016216, -0.04535594499209716, -0.023264868675864397, -0.009816865886983344, -0.10738624311910966, -0.03544524384764785, -0.0029964716480873747, -0.0428613240640611, -0.10614583250947907, -0.04874885397444461, -0.034872565790308216, -0.008805543150482724, -0.010133311881707761, 0.0028726344259541493, 0.0021219795574497955, -0.010055925680379206, 0.003913593070425184, 0.08558982194780539, 0.1751904898511825, 0.24195460908482566, 0.19939805770960045, 0.22249522284789017, 0.09211897389475725, 0.09698103301855725, -0.003902938947769388, 0.13073080581010105, -0.1073044327680983, -0.08506115753319816, -0.13586221616006747, -0.08764020386602975, -0.011222483287851134, 0.04835558941119671, -0.0259262618930768, -0.12199078970207045, -0.027176329384030588, -0.10527732812559067, -0.08474965600553445, -0.1180135412252194, -0.019041655239405562, -0.02031876370155651, 0.009826585949505782, -0.00937054543144719, -0.007687621089790067, -0.019984628484902057, -0.027688901138723458, 0.019900107594913088, 0.1938446618449252, 0.27340326812527505, 0.10751827856926285, 0.20951369444216014, 0.003605219253843449, 0.08197387327221635, 0.04141176936165703, 0.0954034216725581, -0.025102908534434275, -0.015346365897249296, -0.04361294510297947, -0.08106621770024353, 0.029877031418644718, 0.0511609490198308, -0.12186238230295467, -0.17829097570044783, -0.10692296508906826, -0.12503771202142958, -0.14196040271047786, -0.17000239980907444, -0.03519378008715486, -0.04561819006654557, 0.008676871409079634, -3.774185342101783e-05, 0.007388755174178095, -0.03852813212044615, -0.054723005264535246, -0.044295852364905644, 0.1786941005514484, 0.2987788426689065, 0.1346909379510446, 0.251014150184005, 0.18922456733507295, 0.17028448360883905, 0.04615791238225967, 0.037299449971869264, 0.03026903395427462, 0.07134157652058412, -0.05555580313097669, -0.04971570907751445, -0.11639833915996046, -0.06748514212576394, -0.23519022516144433, -0.11804118569678101, -0.09050752887138164, -0.12078492483750645, -0.14379114625388587, -0.09445874247508908, -0.03793034986388604, -0.030618793498705683, -0.0007528301982102901, 0.019734370204779285, -0.005789467766000956, -0.01209810442750467, -0.03903454513301262, -0.022668056220522967, 0.21803507557383775, 0.2662609645312286, 0.0834496202368697, 0.06059647798009493, 0.03236602073142493, -0.018499484643214662, -0.09060248317390228, 0.043581440401152034, 0.021806700983930945, 0.07112890610584192, -0.03974081216412855, -0.02741185118018522, -0.10038494889090098, -0.17195702315050304, -0.1195279849383525, -0.06563232214933873, -0.1317051250191189, -0.14459490959472998, -0.002045787047548777, -0.022598324143218173, -0.037956340697329186, -0.023131810983780796, -0.019349202562118233, 0.006909678943898626, 0.009976831423930377, -0.013141842219163405, -0.044585150176785694, -0.041387721161087576, 0.13363602999823626, 0.10742858725415771, 0.028555033305515114, 0.06097036226385776, -0.13205165232438548, -0.09093975143092346, -0.11454112393367434, -0.08775199205346382, 0.044304431367246946, 0.14898583363643833, 0.11834410928030617, -0.06768549455022571, 0.015682775167155157, -0.06765990712520803, -0.09443002357816899, -0.06442504761346339, -0.09018300298332918, -0.03543040793073586, 0.04092251932298295, -0.007472518370099117, -0.01758699224470665, -0.005848347385638697, -0.0148927829705045, -0.0063069094695522125, 0.017824603868064632, -0.004673667011371159, -0.06460574449771052, -0.11161598396589412, 0.041762441141804336, 0.07184519935634011, 0.05695171941510626, 0.06573737652867245, -0.08428663061407503, -0.09456998490320496, -0.005227876083158079, -0.031605843984831024, 0.032568343591388056, 0.0359539511787399, 0.11654106798297555, 0.020235630101526385, 0.012215547506210416, -0.06383815753986086, 0.010774419104255506, 0.05530494059846672, -0.06376496626791701, 0.09032883296870525, 0.04101896603096207, 0.01795390288210657, -0.008408982561123058, -0.004691120132926503, 0.0006966169170725613, 0.00319780305593192, 0.0066638522218842025, 0.0005654665324928121, -0.049279352631213774, -0.09254817373660192, -0.003887627605245637, 0.02590250835912575, 0.15337627407677423, 0.1416992312052255, 0.1177135435147939, -0.03163946123950594, -0.019411845428690847, -0.12369728675294152, -0.03260244173687937, -0.007943465531680483, -0.008064506744203913, -0.14484284599464495, 0.026550220297511796, 0.044987157414545426, 0.07933414025014074, 0.12803956196548008, 0.0835227958509008, 0.12491420737631623, 0.04070331164111813, 0.02730476531407912, -0.0004123076189699158, 0.008870250507902388, 0.0061913222102117724, -0.006495229028275272, 0.0012253641148832377, 0.0009760472585108709, 0.00521493046732654, -0.07405528395932907, -0.08799693264779554, -0.024109616164037083, 0.05816099354501994, 0.07492240484309304, 0.039276714651474476, 0.056924131656942795, 0.023434996195153893, -0.06889355211279374, 0.037755412491939574, -0.028173712280759204, -0.041951575272180866, 0.03202876000189113, 0.1755571364784258, 0.18439414235408957, 0.16105144433538374, 0.06904811647200428, 0.11665479371379862, 0.08823054351675665, 0.06497419476134808, 0.044105320273629824, 0.006393668221232115, -0.0024208722773314097, -0.005280120254942812, -0.002074854374285068, -0.01983222743964511, 0.006244209734138812, -0.002681792772492459, -0.05076504654410876, -0.08210223889650435, -0.0666225445327301, -0.05111379573967978, 0.1845221962089905, 0.08499767822990045, 0.052718035286876984, 0.08295819055193539, -0.024766899507549515, -0.10561569349161931, -0.000289690389431342, -0.06451579798774253, 0.19237926440584463, 0.1998366450701353, 0.08717186889334798, 0.13545334811508772, 0.10238581820104078, 0.05592653824198137, 0.06799201678887248, 0.06816634839469186, -0.0012688497937991211, -0.009558196209906668, -0.014236436692346387, 0.00027887484334634634, 0.012805440064513847, 0.009534266400581318, -0.0016136459676334386, -0.012858190078184936, -0.05140486091592817, -0.1268074874787206, -0.13952437842808266, -0.002222240743417125, 0.06802032588368845, 0.10559544661047227, 0.08088661547912389, 0.039171920135388595, 0.0667331231790467, 0.017745713739345092, -0.0930039149646086, -0.05467951799614327, 0.028246852978968565, -0.06292641501146025, 0.08047352945807518, 0.06525667010182974, 0.0247239638307766, -0.0062254560029313365, 0.06066382558291261, 0.046129799546280124, 0.0053868923968190706, -0.0002051301212456133, 0.005711201705026732, -0.0025981397626825883, 0.001222811717764434, 0.007162906376920709, 0.001630630217478985, -0.00509340341915847, -0.05969310269462063, -0.11125565097148774, -0.056475201497432966, -0.04062282222691411, -0.06931637136791333, 0.004444710277945734, -0.007621458808601141, -0.06707176251880369, -0.16466035436788143, -0.033066547842230516, -0.06990131122687815, 0.016080065105370574, -0.03584358194121192, 0.013471060097538368, 0.031719368783752484, 0.007596628191124586, 0.01114439135359362, 0.04785958505451814, 0.06291204280057902, 0.05943482665018095, 0.008096556777242483, -0.0046185775295634396, 0.020626858626337494, -0.01365966034920615, 0.0016912519215573883, -0.0017487057234905393, 0.0037117469888093774, -0.008239172357911554, 0.0158474909291374, -0.01676388553824253, -0.0156424476370826, 0.0014272616211855047, -0.02092490055294253, -0.036366689896204056, -0.07882043669003891, -0.007092065515650568, 0.05577738726215509, 0.02252458042776653, 0.046895356028841276, 0.028076126976978703, 0.003457489370669718, 0.00903425682176611, -0.00832385660740827, -0.016855332213214287, 0.027489068645053575, -0.0012631405418530564, 0.009662451849494677, 0.0024319005361879893, 0.002636362328951619, -0.0013410711935022308, 0.007845316384908799, -0.004866632202625605, -0.018182962081835535, 0.0032042547663353235, 0.005668618117768661, 0.0006943012351924921, -0.011690915591873388, -0.008657122190749315, -0.006317474612455513, -0.022940939433092982, 0.0010411457561844573, 0.011179384002961755, -0.023290861614886898, -0.0061137803205817565, 0.003940612212612632, 0.016581482463113528, 0.009970639767911665, 0.00917148289597555, 0.025384949228862717, -0.012409224006114153, -0.002278531905976221, -0.005327324526029908, -0.003971453333615823, -0.0024853093234323068, -0.011902936548955445, 0.0031438944289822147, -0.007199132286868678, -0.004208507270947788, -0.0016087567996349212, 0.006950805763894964], [-0.0012714541524822928, -0.001309521382931898, -0.0005289006804254132, 0.0080078900837577, 0.0071245928289759295, -0.006656906669611386, 0.006518737435434148, 0.003832765604833664, 0.008510740812103087, 0.005447543914120345, 0.009409446549040325, 0.017612458018983947, 0.001223804451409742, 0.010264972410605328, 0.0003821915431574416, 0.002555932392945935, -0.005866737835902177, 0.0013817793924109899, 0.003029722613267319, -0.005368766506466612, -0.004825255978240505, 0.0035452067762052016, 0.005630113609297098, -0.00821928417410487, 0.016344067883348294, -0.00022500157005328093, 0.0004886987518404607, 0.0043309707521413, 0.009051645531490812, 0.005244794951174706, 0.007629893990556593, -0.01065271009664308, 0.00742000677130127, -0.002811874757069735, -0.005657720437575146, -0.0081202757603858, 0.014149936361581484, 0.00567043233637742, -0.003224124156497082, 0.012771548984470834, 0.0019775384891284804, -0.001500863765951902, -0.0032541433858298313, -0.012670429603470333, -0.01554288289616453, 0.001205964349383409, 0.010927256473278602, 0.02317294228001585, 0.004719278137604782, -0.0037021677920567268, -0.0021538100005184416, -0.002140984832035997, -0.005120969617481667, 0.005659638742852892, -0.0014889104383380538, 0.004416100474583523, -0.0024961105400882646, 0.005525425900726974, 0.013348923704686858, -0.0022975962066296585, 0.0127990545822718, 0.0029667715361064843, -0.004842886592293405, 0.00311602727239664, 0.0002195242856219117, 0.025320657368421755, 0.014396886229173369, 3.318650631236691e-05, -0.01917199529127513, -0.056731069336729424, -0.0479447480762825, -0.0767633477999881, -0.04523497342910468, -0.008658685609402327, 0.034915274080303954, 0.03157301449798109, -0.004680334914160335, 0.003681903809491302, 0.01197999504799464, 0.00612670142865463, -0.004593998623722062, 0.01601107104190424, -0.014887274312888709, -0.009096750178864604, 0.003519975684142677, 0.005944436258225323, -0.013723990301639418, 0.0065278238940544835, -0.006121062748744687, 0.002629531070770388, 0.02273761523464551, 0.015536603201869774, 0.046121543263781706, 0.05454998020823598, 0.09612189731545098, 0.07461683818254072, 0.040193962252757204, -0.012402090649870485, -0.03233915591597881, -0.005860543928687133, -0.07458759349544078, -0.046881124923942294, 0.018003057789497803, 0.025826234235707474, 0.032143513451241175, -0.021694686438508356, -0.030268737645922122, -0.020796211535437023, -0.0031125320810018115, 0.013603644734564388, 0.017739934005771948, -0.004156098464342655, 0.002047103648075146, 0.00888085758340588, 0.004327335011802249, -0.01138795236253469, 0.004710406461447024, 0.007678437880597873, 0.02774731311838201, 0.04031900932445311, -0.013719351847634674, 0.044418721650946916, 0.1283767590327495, 0.10289494042625395, -0.029007060656766757, -0.03268262207490736, -0.07214607095921623, -0.013598627815151493, -0.049209821711444064, -0.041409194406209916, -0.064836075677964, -0.10239171228231829, -0.07299891041115072, 0.011188405721942275, -0.00022377489255570072, 0.0683983644062419, 0.10953461470485176, 0.05356767920810997, 0.012441784253863646, 0.008887547438070038, 0.0031827802645826714, 0.0061572813908262755, 0.010244034176021776, 0.003933455975494559, -0.007669173096268271, -0.025141892732261046, -0.015251345639966605, 0.017440763098170366, 0.1458873849410502, 0.21323292435802302, 0.07070696019851604, -0.06669465232498747, -0.027340302083266193, -0.07394747392429385, 0.1364519499204305, -0.051612423058300654, 0.024549260347390342, 0.04833162109320166, -0.006156496343814102, -0.0383669057667508, -0.026986812989783858, -0.1137304020054773, -0.0972564550630573, 0.026786071451337698, 0.013760234518546589, 0.02109040563367101, 0.011311631126610945, 0.004328733264679502, 0.0009173033127948845, 0.00123836537334038, 0.008842179433816443, -0.007224644787556366, 0.04073277021552771, 0.17883431771511096, 0.06977032080607244, 0.044828300352045915, 0.04905748078208803, 0.08222806627227999, 0.08595782657928842, 0.01413517699817777, 0.025092847632413283, -0.036998340301174396, -0.0829177316499847, -0.14779740653211368, -0.0011751586620918338, -0.02045056424912839, 0.11620620629272503, 0.2862861406238049, 0.05192061328304205, 0.01592631810057677, -0.005303293345018028, 0.07368490860592798, 0.04886530101186941, -0.04847696007585402, 0.01870147052988095, -0.0021818389551892165, -0.002275457796870254, -0.0018241351078788313, 0.023132396532751794, 0.023870032732905416, 0.0525304828276089, 0.19543355921414285, 0.16073505309756692, 0.05997250058679769, -0.02902034090973851, 0.14893377166447186, 0.2544743771494201, 0.22261605510438986, 0.10411127816029402, 0.08300629799160811, -0.1348498674297173, -0.2923368471183971, -0.07034651823564964, 0.25247740597016594, 0.11308923323442831, 0.10909352502486186, 0.07538626531366242, 0.03203282590691137, 0.03549530637997489, 0.11984147677385053, 0.08820541648608861, 0.01932951230828944, 0.030236962697955214, 0.011911469301287633, 0.006209642083772279, 0.006613845925796848, 0.02131983284667389, 0.034976858318549416, 0.09004462614097548, 0.11136900081411587, 0.07265765489450082, 0.006321646068453026, -0.01531373497461608, 0.19707106589803147, 0.1519244663141732, 0.14561784249085402, 0.06911976527840617, 0.013450892586930677, -0.051987690628759034, -0.12870321004359633, -0.04043017618112256, 0.185019662230749, 0.21376038606508713, 0.16523394572813044, 0.24336154180111194, 0.11003651164088289, 0.004386740531337621, 0.03100721726069337, 0.048047617180244154, 0.06694167797266587, 0.00606238953537623, -0.01445570692689175, 0.007127695273539058, -0.0036283873139721008, 0.0215762061898003, 0.02892506000821584, 0.03835610570929803, 0.1312492929359571, 0.13203118597649333, -0.09982534917491041, 0.05349873476513468, 0.14504461774642707, -0.0887164599829791, -0.10811476948025825, 0.07321757838747674, 0.030646332787523343, 0.08342911225954504, -0.22055674161266783, -0.20745544152252748, 0.06070488022651191, 0.16885861816518258, 0.15338023501109488, 0.2593421360460786, 0.21090783931070434, -0.042228856459492294, 0.05182108659431369, 0.11780530304674235, 0.06455132006323182, 0.05162794063810592, 0.04827997456853794, 0.01397366139353406, 0.010985030695472693, 0.03234699758363834, 0.05583945269629047, 0.035805604986488736, 0.1004403731068446, 0.053648413786193665, -0.10652328591034915, -0.0546663780372672, 0.02299895800802758, -0.08842103778259694, -0.21661646245114627, -0.22241143694612986, 0.21890248339675758, -0.014937030888799463, -0.07926017419744026, -0.10909189492115128, -0.0872022570592897, -0.00915295215793526, -0.0043071829721411485, 0.3571123644745348, 0.2704544988806441, 0.20804223266956673, 0.2938552278282253, 0.3238612414438741, 0.19974293592801534, 0.040276197128817096, 0.002242487952862212, 0.011576299530601991, 0.01433688045084284, 0.046139071898161695, 0.06697197626980568, 0.04311404752114116, 0.011622521228326134, 0.014531041413865978, -0.1294818210709557, 0.07707280535492542, 0.04081706575232355, -0.12583824332717794, -0.16807579750475293, -0.1487592745363817, 0.007224742496145582, -0.07296982894898234, -0.09994063404936115, -0.17548487465734666, -0.4090384239994889, -0.40029520806291746, -0.1349192234106718, 0.2692504921970562, 0.4181816788320068, 0.39172570248726113, 0.4084515056797178, 0.303875865858828, 0.0951938646957577, 0.0016418629881718033, 0.0007973211223364139, 0.007288037644640621, 0.004704758065690266, 0.009346419115181687, 0.04137289066686223, -0.02798487373875578, 0.021216644087083993, -0.03408227875963322, 0.01535642548004357, -0.07098421949953472, -0.21137534389567864, -0.05837112901151305, -0.06519300851030019, -0.00821330677374289, 0.04474371782544389, -0.22816819849575848, -0.23410378136317964, -0.3635839993924303, -0.7137988191614205, -0.5225884627515965, -0.19696750846908195, 0.5607806577674502, 0.5251690373056056, 0.39452595785825334, 0.23795333098215407, 0.14452182786635218, 0.09124865507372291, 0.029524307671806554, 0.007029971794169171, 0.01332128075048087, 0.006236961044299232, 0.0064623934950525, -0.004115564322780791, 0.011743250896810458, 0.0701803592258067, 0.07660583492774388, 0.017653430097436352, 0.008526384198997972, -0.08462887796993958, 0.06211914333126138, 0.010690930900148044, -0.17138253692615166, -0.15011865960826695, -0.13501297799681874, -0.27986272799976125, -0.3186182416781288, -0.5837985874092018, -0.27524259557518116, 0.13348373330350463, 0.6111383803051651, 0.48385175317827517, 0.28699571217808867, 0.23024882993840087, 0.14224240970567004, 0.05285608565445284, 0.016542781822740642, -0.008526362064780376, -0.0021275016396296847, 0.011866426270951318, 0.007930411496585762, -0.003381601880679421, 0.013312374857710923, 0.06286984449190562, 0.07152427397469345, 0.02589819945174109, 0.14971045993089366, 0.10241328274387905, 0.1430304575991548, -0.020399756410482733, -0.022651579434890632, -0.29047568086542075, -0.24812823616606916, 0.06695668137621044, -0.1056761477153316, -0.17474710886058314, 0.06905787927440132, 0.6309926653231116, 0.6581540503637097, 0.31618536181859724, 0.2120973417398187, 0.1374704349239771, 0.09355907130267618, -0.014191673518260867, -0.008549950503670684, -0.0009603657347848765, 0.0021305499836607065, -0.001118008126206467, 0.005947302167656556, 0.002994994011183063, 0.00344859405027083, 0.13164371513311926, 0.2612191377804386, 0.18166051556072607, -0.08787809349208692, -0.11690861851660096, -0.022850490765459967, -0.08799462923207506, 0.05970729704379768, -0.23722230884386605, -0.07327738565317264, 0.10451588459559119, -0.2736144165166402, 0.009583279767819404, 0.4942213842460356, 0.6703319857663408, 0.5753209506687723, 0.3097709780097206, 0.12126869754193803, 0.11849325703114628, 0.08835151023791132, -0.030637954891701433, -0.032826951365951214, -0.01051630250379356, -0.0019276157423290384, -0.00034981935516009726, -0.004355339119828753, -0.0004801308273609943, -0.005718425664477253, 0.15387790048983066, 0.2405278737261038, 0.0651369484260457, -0.1947401944370144, -0.38622406455529473, -0.15979981099719362, -0.06797522705080733, -0.0033027303658978054, -0.0837332835839883, -0.1067132814748857, 0.21299220721325557, -0.007160723495819933, 0.43985613205336294, 0.6295621339638752, 0.6309818159218351, 0.4024734940071224, 0.3309344697225352, 0.14504180577143275, 0.03006839640430363, 0.014154121233384833, -0.042925280407586724, -0.011496344583253522, -0.006953759807897164, 0.006484209255663878, 0.002673636479537806, 0.02661024862992895, 0.0037159353949133035, 0.04905079673560857, 0.10488168261767962, 0.2078090226700686, 0.0739336584852399, -0.155604125967807, -0.23592157017684473, -0.24450195640336708, 0.10636775050708419, 0.0505131970085131, 0.12371632953827483, 0.05994171793693577, 0.28854544603246374, 0.35016518551496756, 0.5371215044184431, 0.545887176879042, 0.3928062346629195, 0.14024275683177034, 0.20538539137573708, 0.16362736931557686, 0.09118166124526603, 0.02087657672876199, -0.05690361938048468, -0.029892475812832317, -0.0012808641268422323, 0.010141311231991908, -0.009467553455222304, 0.007490517797611321, 0.01781305073358424, 0.055605731803362576, 0.1376534184368847, 0.19540832387609144, 0.07915805113091502, -0.1848771077323601, -0.2509597469366509, -0.17692840011031755, 0.023552684663319022, 0.19698724113710356, 0.19716801126587968, 0.11409120264775761, 0.13931545485159205, 0.18827672486881572, 0.2910147636117591, 0.27640861970402925, 0.11923078659914127, 0.00879836562091231, 0.023643751379121877, -0.005249452119766579, 0.08187709354983544, 0.0441550998703071, -0.05000966404753637, -0.024077464088471858, -0.011794703114865723, 0.0014915450673536495, -0.006452380250322758, 0.029807686588647724, -0.021197823577984838, -0.007845438347699634, 0.1556219847347583, 0.13076524394331418, 0.04540905546743726, 0.013317894784701995, -0.1075931259431723, -0.010318630168447647, 0.0722927445534602, 0.14234423420412703, 0.18457056649623657, 0.15426935114876417, -0.011595596219232356, -0.15631992724701765, -0.03523741560593783, -0.0700329147169838, -0.025635728182815735, -0.08445860292391073, 0.02234616681379001, -0.010608707810675558, 0.003360041985677283, 0.03485364088484725, -0.03048291633935245, -0.009204941234706011, 0.01071506334119844, -0.000532978060397269, 0.0016266211005598987, 0.01488574964590828, -0.0007403005622841296, 0.036394581941683886, 0.16600267787078932, 0.058964161881145206, 0.054575408126761774, 0.09794626486639439, 0.13375868958348042, -0.02799015327411165, -0.11683146216696844, -0.16825310877879396, 0.0837757163083199, -0.0324543549048883, 0.07017691731956359, -0.13919721001671256, -0.13278436167244326, -0.2310913245066232, -0.10319472027395775, -0.10737200519142168, -0.06523332313255528, -0.03778425851781129, -0.0135744106941133, -0.0716004377331882, -0.023607561629220824, 0.011183376723536668, -0.006849919411511099, -0.0036561286896283195, 0.005712509093751054, 0.010935989327474447, 0.007629412786711271, 0.09451774152007499, 0.07737109018529559, 0.030532493111799668, 0.0371212718615459, 0.09743179714874865, -0.06009711127052436, -0.08674751701468049, 0.05673363132518667, -0.08037674317003031, 0.06926304809807593, 0.1667475231095443, 0.08925437354843237, -0.0680412186505716, -0.09247874042021104, -0.2669253499610475, -0.14264039063714576, -0.08095460631327923, -0.061317971631420026, 0.00761145997896398, -0.03926340052047922, 0.008311471399565744, -0.021042954088778532, -0.004055387944188662, -0.005050750599455644, -0.003848623383246285, -0.009782663517464006, 0.0009780962609232044, -0.004555412098461074, 0.09462316623587276, -0.015274906009345075, -0.03203705517377854, 0.0900897774134063, 0.048007061084120416, 0.11970010994402515, 0.045082219959615824, -0.0012722200531731173, 0.0472344494871819, 0.10279296476761311, 0.010264451515107277, 0.015466905892404285, -0.009976255297169829, -0.11742821968739235, -0.32681149963631434, 0.05012873297554836, -0.12105583428722679, -0.0938819330583362, 0.02203600525296653, 0.022602433773975174, 0.01615400661249259, -0.02335789880146135, -0.011620300829363682, 0.013296986053132853, -0.0055607809300560924, -0.015601677876499253, 0.002786405793571787, 0.020909139829302748, 0.11683437497842387, 0.09507187213386112, 0.1204038427932973, 0.12752015743794506, 0.11423769916574489, 0.11262036928615246, 0.10588025333197833, 0.22498900474898553, -0.12367430157408459, -0.05593810897917393, 0.05096016121596636, -0.011335701262583694, 0.01777787037687779, -0.21548993348555434, -0.2251370058839574, -0.22978624883348778, -0.13891926614822614, -0.06358630775861812, -0.03860632140557144, -0.01934259312692325, 0.006548504276924424, -0.01049546854012316, -0.006035700843593777, -0.007875243103404587, 0.021987782933876942, 0.0006120740873141292, -0.00706361152382956, 0.007303362695633878, 0.027554342446351153, 0.10445522686044394, 0.17378469639898259, 0.1646898680679701, 0.10657944024980624, 0.16145242901393853, 0.0082883626316672, 0.12537628701747008, 0.11868648359896457, 0.13099716991745136, 0.07562601769537192, 0.03249893414964201, -0.08552601624042756, -0.11559766578833887, -0.26611750443075655, -0.3232886889922961, -0.10502999793809444, -0.04285450245044009, 0.0004184140459163497, 0.001670468924378017, 0.02637804956052077, -0.0037332603037305797, 0.0056710838896232504, 0.006917140716596031, -0.0009781238079340712, -0.0019018341144545357, -0.006178580949303895, -0.005591711181043237, 0.008757222106360263, 0.03212890976782045, 0.06867662437878151, 0.03231571057640491, 0.019595471242144922, 0.14795776218181603, 0.23435517713405374, 0.2882592963043447, 0.2858344230680748, 0.1810746671266829, 0.0027901467245052196, 0.07973459235368945, 0.08380932426134359, -0.05511108640761417, -0.06281810627781009, -0.06451978539647682, -0.11393307551514059, 0.006050463930119015, 0.05314428386672107, 0.06987276562813806, 0.034409412239704375, -0.02167200565837126, -0.012113859322692554, 0.010013382785279419, 0.018100407960216402, 0.0016341826226448255, -0.005881733139965738, -0.009247511032290679, -0.015472074447923154, -0.021834937662475174, -0.006028063887750488, -0.013570842556510686, 0.0037143747418676982, -0.005784146631594707, 0.023966549536972873, 0.040703209138960326, 0.07485529293926453, 0.13448388958003604, 0.06101446056112078, 0.10371659170102154, 0.06875584799065272, -0.09713146164604286, -0.09094109194030517, -0.04489675793701482, -0.07087188450912145, -0.03547053620683236, -0.015365057072346068, 0.017998776037375156, 0.005481282355039406, -0.006845415845689071, -0.008574924980932243, -0.0012714824231702484, -0.001166390235178232, -0.010635078720912369, 0.0017040171661644274, -0.015582637070545873, -0.006842289838351594, 0.00851364467081917, 0.007529176874000851, 0.009631207426445304, 0.0035934689684347177, 0.0054601921586145755, -0.013772552889308579, -0.01826233052152051, 0.005521359520747972, 0.0022036998746527182, -0.007429770275306789, -0.014019840738049823, 0.022103059480447634, 0.009938123319923973, -0.02533370070437474, -0.0027032465030701327, -0.008258908004539853, -0.0031499886851323257, -0.014008909467464813, 0.002849227183756474, 0.00648816923866147, 0.0036344010988147747, 0.011558629482024846, 0.005202121076590497], [7.681446016522563e-05, 0.0006763024505219872, 0.006549611439821864, -0.0032635006133028915, 0.0030856046011839364, -0.009559668096441465, 0.0009029305594083288, 0.010661566449568307, -0.0018305919724508804, -0.016944369825197342, -0.003462082568616179, 0.009376097941429273, -0.013526913435638492, 0.017814447960172886, -0.017479404426912173, 0.0032312006445827167, 0.0021718639664151987, 0.004260090332976341, -0.0006331651747609132, 0.0038332606760072387, -0.006389209226116345, -0.011362510471099357, 0.00012061276454131217, -0.0006935810776448374, -0.004425309739984218, 0.003736419809380762, -0.006318477481427367, -0.000631303314956337, 0.012636430442556973, 0.0007866467424642194, 0.003855531113431605, -0.012175192690524902, 0.016142829590674375, -0.020851148965671144, 0.0019815597727397146, -0.01178922999427838, 0.0008476599868696503, 0.007506151239521737, 0.0034730599151306927, -0.011001189000471789, -0.0009099353632860889, 0.00500311150617701, -0.0026447141458023284, 0.0010726302752026935, 0.0135930174709767, -6.417327242368682e-05, 0.00784150237674721, 0.011146613530116343, 0.003037015098002507, 0.000740803898578565, 0.00014002481461216802, -0.0016441272954833919, -0.00399064828752532, -0.00011190092830415349, 0.00024740129349649204, -0.009360510074510485, 0.002033322529304953, -0.009928511304225642, -0.0002485258506616897, -0.009270476604968781, 0.01236540235746602, 0.003705094680398084, -0.0008497635225238301, 0.015975098504216693, 0.028277773204212556, 0.01909795668173339, 0.030877004121187143, 0.01622828391232173, 0.022170646183730318, 0.017015142060425956, 0.06287452814077095, 0.05379567010989612, 0.0655420143047629, 0.04084793746553562, -0.010138514224454312, 0.013511076536438528, 0.018462254295432978, 0.011057810461002723, 0.0044893157554459, 0.010762743406499407, -0.0017452033734656899, -0.008848571080679359, -0.0011766069618897564, -0.004228163645899248, -0.0003244177298433178, -0.006867851572212936, -0.0017615589505895288, -0.0009803868801885657, 0.0006673182960877947, -0.018407335149071412, -0.005984687295517794, 0.01848079330122916, 0.06369711056355341, 0.09911101135731565, 0.0327445961102871, 0.08502139365356066, 0.05758490261663748, 0.07055198161182477, 0.05670059214050981, 0.004330694931562295, 0.034180861808804, -0.015245465888390262, -0.06370943355825041, -0.033165017694590876, -0.0027273403977927527, 0.033247637707810966, 0.019704552594438072, 0.021365453428095763, 0.033745524678874, -0.009437605428210533, 0.004912439295427486, -0.00435923630693726, 0.00941474668993245, -0.011854752479719649, 0.01703036228482452, 0.013486984856665564, -0.004980449561068258, -0.01813941168051961, 0.018363493486540802, 0.046548664436188075, 0.10356509136525871, 0.12964518111683968, 0.026355352168702793, -0.020585405199449156, -0.07915495877217041, -0.05371035699655967, -0.07339456382484605, -0.12428777723120488, -0.05981921641770918, 0.07863760559299218, -0.04811544797914154, -0.019779709947299624, -0.043229071358447765, -0.08361425695721153, -0.04981990343812258, -0.00512304734735964, -0.03831320107734392, -0.014600776061320667, -0.0029565947685007616, 0.002209367722963809, -0.0096190683729457, -0.015010469130373547, -0.01810676384422689, 0.00560315166098029, 0.005724601910652286, -0.05119312189243372, 0.01653765447538861, 0.0975170883155751, 0.15972406319444304, 0.10983266093445401, 0.018984910837282327, -0.03060678745376515, -0.04309404810563918, 0.08430614113485072, 0.05297738968813635, -0.047228681877604324, -0.07048812680476421, 0.016761733615178933, 0.049209093547249956, 0.012402225189826473, 0.015113185953035735, -0.010698990716271634, 0.002398627744347978, -0.029068799921093503, -0.006236667397112644, 0.0038100397000128457, 0.01086128611607988, 0.011453494809874358, 0.0009965942233413452, 0.006622623004578283, 0.0037051127108587876, -0.0014418754048004438, 0.012642892708156488, -0.09761978385029135, -0.08300898406341194, 0.04411253186525845, -0.02324203302874514, -0.060253719962103824, -0.030758283625173955, 0.09215442994391664, 0.02896219648943359, -0.0829663346926879, -0.25455447833562667, -0.2742504816737623, -0.1693991267401878, 0.08875757887582802, 0.2043017758266779, 0.0913298161819833, -0.009647689288583292, -0.16741529706080527, -0.08355059126259767, -0.10562772995575379, -0.047712261608602355, 0.002341781943461929, -0.0060165488308777364, 0.011772367541585926, -0.007237272843731567, 0.004165825335550154, 0.00454082755499935, -0.011685933543338354, 0.016643793490751613, -0.09619164616134733, -0.04269210175884434, -0.14577653935074839, -0.10150318860198161, -0.11450718277144727, 0.01879299934945531, 0.07124393316195315, -0.028081539599627142, -0.0803391402503448, -0.32525897657835456, -0.24130285508724936, -0.10751593785532738, 0.005865310750205762, 0.11580287782849054, 0.1394655056011824, -0.05579026069082829, 0.044017006803826815, 0.0638927879913402, -0.039462320186393264, 0.046286481064419856, 0.03569369013426803, -0.019068802357610017, -0.0015537851023754885, -0.013408542446465053, -0.00817389025360296, -0.003840587503665625, -0.04346279023143337, -0.040248008342387995, -0.15256598899110416, -0.0455690663362246, -0.16651698813735746, -0.12974366408155194, -0.04756220557332941, 0.030365773710909746, 0.02701963473493178, -0.0222528487094647, -0.08818304284091288, 0.10875136017005547, -0.008857886443214445, 0.04298346096162774, 0.028734021468288226, -0.1817668751157337, 0.0699176374811414, 0.061085093360840906, 0.01403919187104686, -0.047426718745592344, 0.15562743136014248, 0.08765572562117781, -0.02177621163806445, 0.011334059997079867, 0.005449728285602325, -0.010900088142437935, 0.002129992766922168, -0.005754766826175068, -0.017616017881283752, -0.021305264492723273, -0.17788216025223774, -0.0375696101800615, -0.041372606514222865, -0.12344365020866267, -0.005187328101958554, 0.04539477752970431, -0.15582121576661687, -0.12184444735163681, 0.0721312947212668, 0.060947818039448626, -0.060052104643216406, -0.041698882786566714, -0.10063697955062392, -0.06343868792058395, 0.18957366798752107, 0.2232095211355665, 0.010077425617512733, 0.009651731880799248, 0.09425909675641558, 0.054581130229535764, -0.036699433035642146, -0.030115545839212558, -0.007335253148517972, -0.007698808610965231, -0.0005924726315404476, -0.013806206694958495, -0.03885814329641081, -0.032081364324408126, -0.07418544430580269, 0.1098478887979878, -0.000861461364432591, -0.07038917775250347, -0.019332904002694468, -0.0978524594476196, -0.08830908417120291, -0.03462139919656594, -0.097719129552639, -0.14260135323537762, -0.26810009116925015, -0.17922357362882002, -0.2139718728489654, 0.06496971387498712, 0.04884123834868404, 0.010575019815976305, 0.0841916644216547, 0.05792906301366175, 0.051521212342358104, -0.0024371578755252848, -0.07290877236472605, -0.014337438993306651, 0.00414477257437266, 0.0012774029727591924, -0.006900610820363855, -0.011148636089339135, -0.027864470865560584, -0.053348262845547785, 0.036430448706906614, 0.17373703406909097, 0.10271237248360882, 0.005492411957137759, -0.025363715209644498, -0.10362655465743528, -0.06752938190805872, 0.030550186359890145, -0.051083687145257135, -0.2151423969423619, -0.3150643673749064, -0.32115408138785784, -0.3567793177673201, -0.1498677969908534, 0.06273528895022701, 0.17453238740920582, 0.19494996402335757, 0.1479491060901538, 0.15041662076614865, 0.09559118878045512, -0.03344325618983757, -0.018740239499699423, 0.0019760971958069284, 0.0011536250850468074, -0.0013177144234211124, -0.018839817545658423, 0.027414663719212442, 0.013656913338450746, 0.11695503759652627, 0.18417693392873113, 0.07297682625367496, 0.09827729580292563, -0.018911619546066134, -0.2678792479299306, -0.10912943980462754, -0.12550794796850837, -0.12234754339005756, -0.237883386259908, -0.38389931595739757, -0.25409826398647833, -0.13795249197679677, -0.209998328681803, 0.23242409604322475, 0.23509190932877724, 0.2015700716945087, 0.10656964986445547, 0.22370804301138844, 0.1329131454109593, -0.019756972617195213, -0.02867222671744039, -0.007183952346799046, -0.0019919965598652464, -0.005206574139925426, 0.0008197829460187551, -0.009317975285384559, 0.03008222661088562, 0.13284572030465527, 0.21342960595704877, 0.3375298265815844, 0.29787895572191586, 0.07517167957433132, -0.09740975636829698, -0.154556001681554, -0.0009857509785305483, 0.005416204811946527, -0.1493364719412777, -0.11441181088603188, -0.10127878267620585, -0.23205102130575891, -0.029187294913132968, 0.1679266390022826, 0.13419881523950888, 0.17200496815726676, 0.1804267974482219, 0.20124881831533448, 0.08403194371369434, 0.00048575702074715016, 0.0022592031488850883, 0.013129318642125916, -0.007827228500949622, -0.008550351269088293, -0.007286719133009385, -0.03678531932772336, 0.005676730002690839, 0.017528671495741114, 0.2903069183123596, 0.35212906756387596, 0.31894231868945977, 0.25367528939488143, 0.0839160638767888, -0.060138821984870555, -0.05935948898309871, 0.17056024501430883, 0.10130871511062017, 0.0813641573312466, -0.03152409960762867, -0.1450989095124688, 0.20626136292150107, -0.011869791249002172, -0.004999545506856051, 0.043125116718425685, 0.09813736863553327, -0.026849347246027437, 0.029614855930879237, 0.08607489763129919, 0.0516659993731624, 0.00727415708379807, -0.009579546567562724, -0.010486347532906122, -0.034758870583431245, -0.018198601029283105, -0.07356614134416026, -0.022585606982033227, 0.03673273246694258, 0.15300150591776704, 0.4620172886722692, 0.34745836173248984, 0.16449572337130305, 0.09698605892176072, 0.17002277569832236, 0.1778135457433471, 0.048235170637496765, -0.0005277112723398429, -0.21201063657584635, -0.1973200753413937, 0.0580274227695404, 0.0811892259065526, -0.00045824989874109265, 0.04581191617860759, -0.0075148360847367, -0.1462816909379495, 0.03569871968037885, 0.12359718004593674, 0.032714219253979576, -0.006043386531221821, 0.010734756640848137, 3.0628633494467325e-05, -0.028784684674128928, -0.0022792224099753657, -0.12959695988072453, -0.0232253117879969, 0.031364650500167505, 0.00819471143169049, 0.14591026270369115, 0.23777469254875758, 0.2635397799884375, 0.18361123405928756, 0.06747262778943669, -0.04538196048667748, 0.032576331159346925, -0.08831033651212339, -0.17405677895344324, -0.03745480297804536, 0.06242950918364677, 0.042304727281681394, -0.03865682688541361, 0.12355432686354442, 0.09176142188800475, -0.041665542187812085, 0.04371910029533761, 0.1727921820789513, 0.0655410046221414, 0.0050854736070930105, 0.021292409112510378, -0.02030215969043045, -0.00638370882304959, -0.039137991876146305, -0.2479670027199888, -0.1537985415529447, -0.03519529258896464, -0.011825883079517712, 0.2459895061373181, 0.4208389155542423, 0.47466817946016004, 0.22228883642221853, 0.0028847057118978757, -0.10759235632471947, -0.001988346473099016, 0.04120943557905355, -0.07415173271040865, 0.0015703018889803365, 0.06025446424707204, 0.00040538932124975925, 0.12907945440146162, 0.09174645150708483, 0.08715730318807587, -0.03352172503068506, 0.03712066952293986, 0.1569494252761704, 0.026751616774251606, 0.007273208578124983, -0.005170052437822265, -0.003562484388519962, -0.0009463186904613232, -0.07033955761452768, -0.2440892568119408, -0.2513490667631896, -0.13861020832309104, 0.015341866138351501, 0.09880641643753636, 0.38235284935725, 0.5497472366569455, 0.05417790748327952, -0.21426852972411572, -0.04469971380909714, 0.12362909160087665, -0.1459507937390569, -0.06981178623359564, 0.18364710944031631, 0.08002520505611552, 0.07549945541833984, 0.05765022722318688, -0.07190984325241283, -0.06354202759615639, 0.0070356254486521885, 0.10865257548491548, 0.11373976686039354, 0.0060620683820474764, 0.00444016176394851, -0.011079299842309454, 0.0001838806816298525, -0.020949828311658033, -0.06884038693885884, -0.14252908407978768, -0.24337484745554705, 0.017121366793781456, 0.1465952406439058, 0.14574210681130922, 0.4835867161464029, 0.5772954643960729, 0.10366746583364336, -0.19529314346364232, -0.13930231499894838, -0.18189472116744618, -0.06514368128193178, 0.007992881162283333, 0.09561188437560447, 0.07600546801230224, 0.022819765302621146, -0.02122035180336832, -0.04222062965683852, -0.05616667783596924, 0.07847023638184379, 0.08490959950250195, 0.05920517775192341, 0.006332814514151639, -0.005426941069703688, -0.00512617920298648, 0.01337146449860706, 0.003854688485440135, -0.00908846503997678, -0.08218039703110336, -0.06831240963778616, 0.10773691323797115, 0.17876636880233782, 0.20012430108421544, 0.3912905399252951, 0.4569835974338255, 0.08283191547334015, -0.331089204125206, -0.4567848167047281, -0.3099905702471281, -0.09501786407210734, -0.012190346545541023, 0.07157504380722056, 0.06686360010825836, -9.561060895914988e-05, 0.04696166140315945, 0.031177931378173734, -0.011829830110964439, 0.023901475536736633, 0.07563912594091539, 0.05984569197477503, 0.010467232003490125, -0.0060838224808691605, 0.004289824181890035, -0.0026981334126873913, 0.0393098208892654, 0.03913767178113685, -0.0191481712384128, 0.01724370653405223, 0.07781863372875615, 0.09780688872036684, 0.16178919768520336, 0.24822290199971003, 0.300662226723396, -0.00873981103079921, -0.16182945817010158, -0.18202879472274297, -0.19025244775033456, -0.24891235949668408, -0.042061806367222496, -0.05964754385304524, -0.006849039977461907, 0.03351653663101447, 0.03995499168431323, -0.022745601570396456, 0.0075388776400504036, 0.11431562925174601, 0.06613777272342995, 0.033878681272333705, 0.014715307885914632, -0.004411156300363473, 0.0038271156717306445, 0.004373468921881257, 0.04619480764290332, 0.03582784826668426, 0.05419275078553503, 0.08546711597785968, 0.22609100871680882, 0.16089869878163968, 0.18718792944942286, 0.22215284535401705, 0.08313477280834088, -0.07005536038481572, -0.06884293147643722, -0.18464215960920732, -0.324969250938968, -0.2915949084303418, -0.15425040092586276, -0.15713700693691798, -0.08292048355899762, -0.10311159093088273, 0.09384672994270078, 0.04404762841808302, 0.020513555545992993, 0.06992983068164524, 0.03398849460146012, 0.009758205870772944, -0.006698788874326697, 0.005083606169664697, 0.02112141192554365, -0.009873656956931431, 4.3457933399888286e-05, -0.029710761031821548, -0.08294601854369475, -0.045333077013078274, 0.07268758060924564, 0.15415837319868395, 0.20691282851602794, 0.16823164950838793, -0.04328309762821721, -0.12506193892360287, -0.0533327506321937, -0.11643087415155728, -0.264841690920135, -0.22198128049929827, -0.28736325884856295, -0.3550002467797001, -0.19436653854173436, 0.07909776530179767, 0.1011219702809572, 0.01558940884468344, 0.08619767080919512, 0.056875471128590066, 0.027702460174586416, -0.009924286812312133, 0.0044733710173604085, 0.00422699494609339, -0.011462676119423957, 0.014910576064145099, 0.004968350662971797, -0.03254198048080139, -0.040599838925608554, -0.12934911258588336, -0.0748236203844531, 0.05304445162179841, 0.09354372397795714, 0.09365604429774739, 0.031175718969509988, 0.010349695314643493, 0.09801359765011174, -0.08398559551882964, -0.21778529372256503, -0.2104700412679011, -0.20594293341719377, -0.24130361812776221, -0.1013763847431384, 0.030933971709434006, -0.054729632142705056, -0.05331903013965616, 0.03604413500761589, 0.005350077559653413, -0.004315078720189187, 0.004877543175291892, -0.00599597434873172, 0.010944416878214146, 0.006370610252787768, 0.0025680739467174745, 0.016675240536760363, -0.012078761080316434, -0.03001847260044206, -0.028709355618935343, 0.0008655161474203242, 0.016934354609900375, 0.002355926650179365, 0.06661772493139363, 0.07150645496055866, 0.14103781546763933, 0.05033523078390563, -0.06119157208525046, -0.16929714972688734, -0.225480333276326, -0.1569785239487177, -0.12642512238048653, -0.0009364093053725969, -0.008064008245333517, 0.07119244380593208, 0.09265907829701919, 0.01508548022572419, -0.028673710626186396, -0.0144223215116922, 0.003157726313049974, 0.0018497068874079054, -0.008220844373836985, 0.006978614866499381, 0.0010026579086137377, 0.011387181664771562, 0.003118176361589891, 0.01293367029243597, 0.023131140244089302, 0.019308107860015983, -0.003763761344298947, 0.045621993549057396, 0.051151267939315806, 0.06361371410502635, 0.04442742167197158, 0.08288784271739287, 0.06727782063902375, 0.08857277659735158, 0.0328460186996192, 0.03777687489754299, 0.015417706894021905, 0.08636802706017256, 0.09680848725067825, 0.11459916179728286, 0.07813154845585313, 0.014795911076391097, -0.004492463623961065, -0.0069898852849953905, 0.0021371364016916595, -0.00250717314546316, 0.0005787388138886501, -0.004630817861661337, -0.023646697454368846, -0.0037952350808290064, 0.00834509044612629, -0.009756917321504962, 0.006022447997000526, 0.002535123618868877, -0.002418390121314848, 0.012311379988717132, 0.010189849748202072, 0.009690373540397932, 0.0407621588198793, 0.0393392453928168, 0.009856895615737278, 0.01090804906162816, 0.02543402960890501, -0.00873759226289609, -0.010585291189625829, 0.037258318797703964, 0.025854689107001796, 0.008605376930427955, 0.0018493127734781373, -0.0010907012959682915, -0.009945595562287676, -0.010989497367355088, -0.0029732498856664476, 0.008824268353384178, -0.0024908686919909275], [0.008453645277766243, 0.013517493089053432, -0.006970200559171885, 0.0046814007674513824, 0.008996505067857515, -0.008347795065054679, -0.010462005142119795, -0.003621072660641305, 0.0017370018601182997, 0.0023387493017915984, -0.009702878871256315, -0.0007620216591785274, 0.007006397516655802, 0.002006392777720731, -0.015543607158900737, 0.0018843480854297777, 0.019858731098454718, 0.0067806583299170695, 0.0038844692947842254, 0.0054388855878917605, -0.009774338044694889, 0.007967896193721825, -0.011606506666147064, -8.077567606914438e-05, 0.0026252281679012323, -0.0074482380938975315, -0.005933382399173302, 0.0008862240639369856, -0.010610033813830662, -0.003877516551310101, 0.004620620224852008, 0.0003045567965484879, 0.002453386152480177, -0.015069068085953296, 0.0077481014212003214, 0.007161568381186624, 0.0028139961585731056, -0.008804531431354597, -0.003402145946562613, -0.017466319994388583, -0.017212745826748744, -0.004676072140288662, 0.0033159007548885394, -0.03308711261103917, -0.06787018990267937, -0.03820851471079718, 0.0025577970259774096, 0.01371098294932834, 0.0028756653871642134, -0.013952126786169016, -0.01863803072022279, 0.0013020440650928623, -0.0007388950998534785, -0.007928695030794896, 0.00291137439495428, -1.4376719132453435e-05, 0.00666006084207913, 0.004783935146570064, 0.00714027146703924, -0.009757977685835936, 0.003046490350737595, -0.01638191148999194, 0.0036252606326713766, -0.01710447396587218, 0.0013708135178470658, 0.03502887198712782, 0.021010860003523722, 0.021936727304907425, 0.003226517913298066, 0.01242732093058064, 0.03415609358524534, 0.031031665731170003, -0.001844933519515405, 0.03201688493346245, 0.011286282821031834, -0.009693157070718475, 0.006280330379361415, 0.0071267918127363205, 0.003935155835719196, 0.0038823664454770645, -0.010634085188954796, 0.0015862332301177365, -0.0070842094187199495, 0.011914860269141717, 0.0014668497992303912, -0.01518809739003978, 0.008620455495846068, -0.017001276930987734, 0.000899818184327226, 0.00791805338849519, 0.028565521961565827, 0.03956401790563038, 0.021714360694001737, 0.04386148977871821, 0.03750109161657672, -0.027280602134499985, -0.07714535871014015, -0.046987306625845736, 0.07428703220311524, 0.061422559285464445, -0.0015694686919564041, -0.04603880015948147, 0.07189639959435279, 0.10739853198447091, 0.034801020959997056, 0.07051701299693532, 0.04720321090195146, 0.021174064215511962, 0.024095983293662946, 0.005083016796829395, 0.007664286593738712, -0.008907325064119278, 0.009466381493153741, 0.0019600390897142276, 0.007159874180643734, 0.0025119957749764987, 0.006123278798389426, 0.03158104156278064, 0.010836150861062058, -0.008467057821619934, -0.037097758962786866, -0.06340460409722184, -0.1094048760278558, -0.17758595511015834, -0.13961774968446788, -0.11972542434647011, 0.01557013533788074, -0.08565920857126973, -0.17919866566666495, -0.17469710103660524, -0.09095438548608195, -0.05149845494554038, 0.0035049770909095805, 0.08425690469749786, 0.0447909369731283, 0.03639550796775993, 0.044150892614623814, 0.038646449767803674, -0.005740989100354193, 0.008033879962458168, -0.016135551914284813, -0.008326478686302333, -0.0012574321169780901, 0.0027908313116983044, 0.019476077155409326, 0.01158546207950069, -0.04171164677620877, -0.028217644239455355, -0.11749374712475291, -0.10785837564198622, -0.14282225818363425, -0.12516063726099885, -0.018785195961872878, -0.04008260841109993, -0.14306208718221416, -0.1378344013786265, 0.022781225866384452, 0.027899202941590758, -0.014958596312200187, 0.11552003408420325, 0.0424186198881416, -0.04345868437371562, -0.1220151726370248, 0.02565621218142167, 0.06469654749008016, 0.02261825594572367, -0.002513489535676527, 0.004163778845287729, -0.001762248833058556, -0.008088638074929001, -0.006573321241572649, 0.016166656606465248, 0.02752812471293805, -0.01602266794017751, -0.04817596266063204, -0.03877239896487072, -0.050488706463393165, 0.10293000479860248, -0.07445718119879999, -0.08754039085065263, -0.03257596066909588, -0.02216465343553557, 0.004696037787561899, 0.11189090557979176, 0.16084204542096012, -0.01197749864695597, 0.06230592097608051, 0.06349716629117852, 0.06745238602867136, -0.144072992646004, -0.19090315892953377, -0.10675745780247593, -8.709989352580383e-05, 0.01645126203153774, 0.010248555086186908, -0.01033262651231595, 0.0030595568109469526, -0.008152845913986805, 0.014697314817948996, -0.004371147056359206, 0.010440567902212533, 0.024335496766073977, 0.008281083755460227, 0.006361977027450774, 0.025732434459642597, -0.1049927456205347, -0.27821939545641705, -0.16629024830715802, -0.19048617996271638, -0.18769844949129094, -0.20408072531620064, 0.12026032439107633, -0.021033240946563635, -0.2172870027591131, -0.29422872618490314, -0.10528777224485823, -0.07948224947907602, -0.16971994043074035, -0.18463504228089184, -0.2504770102713995, -0.10838246454884913, -0.0010298662990927362, -0.008119826236603147, 0.00545932046263261, -0.008369700539031103, 0.005805882143366927, -0.01785320984047236, -0.011613557058649372, -0.0036047653921394297, 0.016369385128209714, -0.007218508876911983, -0.18395340277649785, -0.30742604203549256, -0.23972179003046942, -0.41546564165782035, -0.27397946857055944, -0.34690146743626116, -0.2004348125139208, -0.2350742713155833, -0.053514198922422776, -0.048750217544926186, -0.1626461936756286, -0.2181884504149578, -0.1540508278124163, -0.2738721216507255, -0.037326509886517215, -0.1702717412180181, -0.22298653337056806, -0.10822111732648405, 0.0001267297110954985, -0.023282951971570872, -0.007114364465336356, 0.0065060008783223355, -0.004397800042724279, -0.01749259397718281, -0.02719995804780351, -0.06476654599548964, -0.05322373604779407, -0.0898273479994937, -0.2788464262349637, -0.2866634865023434, -0.11297721590522078, -0.19723300146866699, -0.14310742053157632, 0.037255884086435244, -0.05313583738671615, -0.22236750606360883, -0.20399613542321138, -0.38092614803265407, -0.21753590718950452, -0.13437248373509633, -0.16730298713924568, -0.1428671335536881, 0.010699852964205189, -0.11370810396875342, -0.19059639201282505, -0.1737397598206879, -0.07729966575257968, -0.045251481107750735, -0.010304754740189338, 0.009883937233833455, 0.01776310767776797, -0.058444729759380365, -0.044830318797507, -0.06642910001655129, -0.026245133416971482, -0.0362439460735685, -0.2278359858230589, -0.10236926381007806, 0.02134870897495298, -0.2002513935838601, -0.19520202000720407, -0.15548416424080372, -0.6224765295939169, -0.5892623428603747, -0.40396174746424773, -0.4803497871935783, -0.41729614933976283, -0.21490871624468968, -0.10113690671472382, -0.12749139757227118, -0.03929577224874779, -0.19256686848685592, -0.11330793632014297, -0.14131330037817633, -0.07860209705851859, -0.042822278155508334, -0.016436535232478868, 0.005218902090352808, -0.004742777484395337, -0.02938609615305184, -0.027182136575333648, 0.004313601405012038, 0.16632435736150894, 0.02069485141471504, -0.1909877755502355, 0.03528979625633436, -0.033514804093953965, -0.06669982503454192, -0.25893276011734967, -0.4355256329122917, -0.7598563243789652, -0.6185236578464385, -0.44218347834655974, -0.155007674094633, 0.0075914888602014756, 0.047030268044779576, -0.0360796171659023, -0.03832513655441452, -0.029928367248492738, -0.13156735512811446, -0.033817232688090865, -0.18693384622519782, -0.0972005123886054, -0.04553073628098824, -0.0038948005077532695, -0.007025476733197702, -0.004962270599232076, -0.01562872511577806, 0.017912610244448967, 0.10979663390234402, 0.2646064208692129, 0.203771620071619, 0.06387086710102806, 0.08102566131840469, 0.031963424665663036, 0.18728615677195248, 0.06668224928098979, 0.013857376601592076, -0.08831391597516676, 0.0494994127227953, 0.09190025834313685, 0.04578443218669633, 0.024472406134159835, -0.03592425261237035, 0.041933816949815975, -0.03765771299187504, -0.03613836845015283, -0.047187426510446794, 0.09324059107945418, -0.08179167422385145, -0.07083055520068497, -0.020946258388071827, -0.009783761221566238, -0.009041802024774509, -0.003579205433951358, -0.02276273469117304, 0.05703185426927127, 0.19221875735379088, 0.24944673253801, 0.22381307161059255, 0.4169780378837905, 0.36166544313212057, 0.2962863502636971, 0.5945002972291064, 0.6695787883991979, 0.625795710344226, 0.7401414931926641, 0.6001023931531886, 0.41011954110367405, 0.17903406950203907, -0.01642087499489145, 0.04494694938899964, 0.14320875835306304, -0.015638704211618424, -0.01219932082410701, 0.017956762482232526, 0.1306296019985649, -0.03518409871196454, -0.055981137648629234, -0.00859869903122017, -0.0052067711612966945, -0.0017639948399410456, -0.0005930642459724426, -0.017201359036533463, 0.07501528290547788, 0.22360574802241587, 0.1619364932880824, 0.30869474685698256, 0.38565359636948043, 0.4103925266245976, 0.48953034904733683, 0.349956004113787, 0.5117944672592866, 0.4407779132553371, 0.3508914457306953, 0.38868745415496897, 0.4201415969805451, 0.4326271982555532, 0.2285429979559261, 0.1640452249690052, 0.08233762277254002, 0.051959955179868865, -0.0851852608227827, 0.006368194706539103, 0.012008849691114503, -0.0770413738070742, -0.030793596332119415, -0.008693803750109714, 0.010101107927931046, -1.6332807406138328e-06, 0.0038650184292623787, -0.003477181418908679, 0.08689092581231855, 0.22484643312554484, 0.22692777065996758, 0.36467439866213114, 0.2177581378389328, 0.3444413582224589, 0.1510424621369495, 0.039563294341816865, 0.06340895298497433, 0.06412400815983878, 0.053011812310584425, 0.2489370320261249, 0.5182024894744433, 0.5467992983287739, 0.5226798686783561, 0.0935328628015002, 0.0664120277662508, 0.10171018204295626, 0.08592508602752842, 0.04897741466511697, -0.11318345875305123, -0.06260729717490973, -0.006466878483969161, 0.012206819621180537, -0.0007898515868029259, 0.00039655823512710337, 0.006269116272694975, 0.000549330626912326, 0.07435328666350892, 0.19394547844563773, 0.21159087100079796, 0.29849653801695564, 0.27650059581706177, 0.08394555655176611, 0.07378265700573595, 0.09080884802514497, 0.29678665336417126, 0.010671219214117341, 0.13497838322255112, 0.07410190110856002, 0.269561158744673, 0.37684539109055065, 0.42408724186164415, 0.20615673501819867, 0.10377602289774643, 0.0826388384015033, 0.0784504759466942, -0.00477502250104651, 0.05094486689742747, 0.02515389307349438, 0.05531195702328091, 0.009775289472889928, 0.0015363495615257933, 0.01948974633338825, 0.012855203690327737, -0.00045873585499039076, 0.09086980357061702, 0.09479462606181205, 0.0327684989910672, 0.0631606172638473, 0.15473298745997313, 0.1320798058251251, 0.04805354965202965, -0.02027154417185163, -0.05470739796655045, -0.16496576374524838, 0.12516898575699453, -0.004509693667362135, 0.02052466943388496, 0.13908286818051038, 0.16253240308101966, 0.300104988809948, 0.2767991214793288, 0.18456685033405332, 0.1230247027343825, 0.06979797807158229, 0.10507838789846098, -0.08973456488766511, -0.025977720958615717, 0.0047340609678243935, 0.002545145782100291, -0.006133186832615859, -0.002135047737211688, -0.008164086844937508, 0.0883945421781391, 0.059893695270745693, 0.10183408993582073, 0.1195151161923488, 0.05971044639015227, 0.047872409562517634, -0.005599866904121582, -0.002368790030786571, -0.03921322942248857, -0.028518632845850253, 0.20341115357317485, -0.005439899053349774, -0.1722481213083545, 0.010303691208301036, 0.1736940882414566, 0.295577845721785, 0.34222863156689326, 0.30122684704148595, 0.2249166613171723, 0.18596489355658855, 0.22897107306327535, 0.023430013153632488, -0.02407402216914115, -0.0017272076751771394, -0.00960292938696509, 0.0039249294342072714, -0.01148186304059371, -0.009335879963387366, 0.047340254027288295, -0.0009346844270538834, 0.04564875233381153, -0.02129879614364345, -0.12071146053175347, -0.1737179806945361, -0.14864836011233903, -0.07576201042471283, 0.12810471867846152, -0.03301552272658121, -0.09318057474544834, -0.21259951071331332, -0.11443102291229931, 0.07173254032324088, -0.06112781647782688, 0.07055827671606665, 0.18432787650647722, 0.16368899876661797, 0.16469075112904358, 0.11050704430265305, 0.19175817976288942, 0.041819082327360285, -0.01963175103175988, 0.016527241973500053, 0.007419894838585886, -0.0055013759453364595, -0.021447942406354246, -0.007662390129323135, -0.009102337601946193, -0.04928651652796423, -0.05979724531237455, -0.14477542418380085, -0.25014412186758733, -0.1617845164296531, -0.07752116486478344, -0.28005253889116627, -0.23346562454898445, -0.2870631871933872, -0.3237874000592428, 0.058896999200103085, 0.044587563678575845, 0.037154209653599994, -0.09979853817364835, -0.06778015368153414, 0.029878820481299334, 0.1475422409533742, 0.2336467902951172, 0.14805003693708552, 0.16998220420120722, 0.07315840773402152, 0.023564600684873663, -0.007024922897321226, 0.007152576235681747, -0.011662490466648391, -0.0008056433118183287, -0.022144445465016045, -0.009313607459368494, -0.02744349096770887, -0.12244205295860598, -0.2104542389954163, -0.2218348749826337, -0.0855181414098895, -0.30328785361270444, -0.1991361017255777, -0.21126236638609042, -0.07001074662069938, -0.007972202245707265, 0.01244724749483312, -0.08423003432132294, -0.08869326711940877, -0.07436909332606693, 0.08762765277948135, 0.09880575433563175, 0.13474510873973813, 0.16145919830939576, 0.1168672024106264, 0.13453225285893977, 0.06843839824965138, -0.012303933366369289, -0.026384822334551007, 9.482258266861948e-05, 0.0029106425628584497, 0.008821531278528189, -0.010338875114522384, -0.005561178445236101, -0.01662011441036278, -0.13372274465298678, -0.27361795741356026, -0.222748838281977, -0.17841723250119224, -0.2523977680331363, -0.15158926852474175, -0.10214632018734188, -0.2482677890568522, -0.2754410365846919, -0.24911498806985768, -0.1619726900733056, -0.20807586317876342, -0.09361330015405683, 0.034589409792514916, -0.03852159894980167, 0.20847118843294285, 0.2362636641962647, 0.1343770760483884, 0.1413288562358453, 0.09239807729889027, -0.010227982822940304, -0.009965666648516763, 0.0007496264792597638, -0.0006362560179265892, -0.004409960384026086, -0.0018596088023518076, 0.02006485063113655, 0.024681239663059056, -0.02013217462469647, -0.08719287327691803, -0.07572212805570484, -0.1072143245268973, 